tree
version=v3
num_class=1
num_tree_per_iteration=1
label_index=0
max_feature_idx=24
objective=binary sigmoid:1
feature_names=H A B C D S type0 type1 type2 type3 type4 type5 type6 type7 type8 type9 type10 type11 type12 type13 type14 type15 type16 type17 type18
feature_infos=[-2.159720181516068:2.1919882774345241] [-1.827322366729764:2.1933634841252321] [-2.0110689546231284:2.1430475496357979] [-1.8566207650984503:2.1588235698917959] [-2.1453759714778937:2.1332931182862573] [-2.1775234115496467:2.0129222141184511] [-1.1180339887498949:2.4748737341529168] [-1.1180339887498949:0.94868329805051399] [-1.1180339887498949:3.2906581974658229] [-1.1180339887498949:2.6726124191242442] [-1.1180339887498949:2.4748737341529168] [-1.1180339887498949:2.108878474699913] [-1.1180339887498949:0.94868329805051399] [-1.1180339887498949:3.2906581974658229] [-1.1180339887498949:3.0212744287061577] [-1.1180339887498949:2.6726124191242437] [-1.1180339887498949:3.2090298129536801] [-1.1180339887498949:1.1726039399558574] [-1.1180339887498949:3.2090298129536801] [-1.1180339887498949:2.4748737341529163] [-1.1180339887498949:2.4140393963016744] [-1.1180339887498949:2.4748737341529168] [-1.1180339887498949:2.4748737341529163] [-1.1180339887498949:3.2906581974658229] [0.57854191187990256:3.7010962170074921]
tree_sizes=555 555 552 550 554 555 549 552 555 555 552 556 552 556 556 555 548 551 554 560 554 555 554 549 558 553 554 551 557 552 554 555 550 553 558 548 550 556 552 555 552 550 553 554 549 554 548 556 553 551 556 554 551 553 553 550 549 551 552 554 553 552 551 553 555 556 554 553 548 552 555 552 551 549 553 550 556 552 553 553 553 556 556 551 554 552 553 554 550 552 556 555 557 555 556 555 553 552 558 559 550 550 554 554 555 551 550 553 555 552 554 553 557 554 551 556 557 553 557 549 558 554 557 552 556 556 554 555 560 557 557 551 550 556 556 555 554 554 556 551 553 554 557 559 557 557 554 553 558 562 555 558 557 554 557 553 557 555 550 561 558 557 555 560 550 553 556 561 545 557 558 556 557 562 555 555 558 554 556 559 559 555 556 554 562 558 558 560 554 555 554 555 555 560 558 552 555 553 555 554 555 555 555 550 556 554 555 558 557 561 549 560 554 558 556 554 556 561 554 553 557 554 555 557 553 547 550 552 552 554 557 553 561 562 556 555 551 554 555 555 555 552 560 555 554 556 558 558 559 561 560 559 557 553 556 557 558 554 557 556 558 559 556 552 561 560 557 554 554 559 559 555 556 553 560 555 560 558 557 554 560 553 555 556 559 558 555 557 555 562 560 552 557 561 554 557 560 559 555 553 557 559 559 558 553 556 551 555 554 554 558 560 561 554 565 557

Tree=0
num_leaves=4
num_cat=0
split_feature=16 1 1
split_gain=91.0905 23.3943 11.0523
threshold=-0.58024617022571501 0.15204318015756593 1.8486577774988191
decision_type=2 2 2
left_child=2 -2 -1
right_child=1 -3 -4
leaf_value=-0.0438174404997594 -0.14563646160490873 -0.23515777341952054 -0.17244741285903104
leaf_weight=63.904237046837807 48.48765067756176 73.353112563490868 7.4596385657787314
leaf_count=257 195 295 30
internal_value=-0.146982 -0.199532 -0.0572631
internal_weight=0 121.841 71.3639
internal_count=777 490 287
is_linear=0
shrinkage=1


Tree=1
num_leaves=4
num_cat=0
split_feature=16 1 3
split_gain=73.7181 19.2183 9.95458
threshold=-0.58024617022571501 0.15204318015756593 -0.74332590187884851
decision_type=2 2 2
left_child=2 -2 -1
right_child=1 -3 -4
leaf_value=-0.00079991964945096106 0.001211019823070899 -0.080061584496487995 0.097492862560226837
leaf_weight=12.474977746605871 48.49241316318512 72.73974746465683 59.188710257411003
leaf_count=50 195 295 237
internal_value=0 -0.0475528 0.0803824
internal_weight=0 121.232 71.6637
internal_count=777 490 287
is_linear=0
shrinkage=0.1


Tree=2
num_leaves=4
num_cat=0
split_feature=16 8 4
split_gain=60.4292 14.3571 8.10344
threshold=-0.70641834355690147 0.63950586116782737 0.5794581053379616
decision_type=2 2 2
left_child=-1 2 -2
right_child=1 -3 -4
leaf_value=0.08914434441053197 -0.030326294609033157 -0.059888297807585457 0.049964458797745304
leaf_weight=54.44638603925705 26.955411106348038 87.167488723993301 23.554002031683922
leaf_count=218 109 355 95
internal_value=0 -0.0353066 0.00711561
internal_weight=0 137.677 50.5094
internal_count=777 559 204
is_linear=0
shrinkage=0.1


Tree=3
num_leaves=4
num_cat=0
split_feature=1 20 6
split_gain=10.0525 9.1492 6.37323
threshold=1.594059204298244 0.91145194094258775 -0.63375969704382451
decision_type=2 2 2
left_child=1 2 -1
right_child=-2 -3 -4
leaf_value=-0.015756534144963932 -0.048489747483175076 0.11940328361296226 0.025640567786675301
leaf_weight=72.718024268746376 34.992812857031822 7.3911056071519843 76.117400527000427
leaf_count=296 143 30 308
internal_value=0 0.0108076 0.00541477
internal_weight=0 156.227 148.835
internal_count=777 634 604
is_linear=0
shrinkage=0.1


Tree=4
num_leaves=4
num_cat=0
split_feature=16 1 11
split_gain=49.6378 14.3356 8.30389
threshold=-0.58024617022571501 -0.24815668289032691 -0.6458550155281374
decision_type=2 2 2
left_child=-1 2 -2
right_child=1 -3 -4
leaf_value=0.065909247372614638 0.035439801578536871 -0.061379787049982884 -0.10443878307293526
leaf_weight=71.442032858729362 29.312466189265251 85.331014439463615 4.9625457078218451
leaf_count=287 118 352 20
internal_value=0 -0.0394383 0.0151873
internal_weight=0 119.606 34.275
internal_count=777 490 138
is_linear=0
shrinkage=0.1


Tree=5
num_leaves=4
num_cat=0
split_feature=16 22 3
split_gain=41.9674 10.748 8.09428
threshold=-0.70641834355690147 -0.68414657339753282 -0.74332590187884851
decision_type=2 2 2
left_child=2 -2 -1
right_child=1 -3 -4
leaf_value=-0.018425238069710238 -0.043501248866301766 0.027597633825398385 0.090672151331531795
leaf_weight=7.9805855005979529 109.45994071662426 26.38740961253643 45.995978355407715
leaf_count=32 451 108 186
internal_value=0 -0.0296908 0.0745418
internal_weight=0 135.847 53.9766
internal_count=777 559 218
is_linear=0
shrinkage=0.1


Tree=6
num_leaves=4
num_cat=0
split_feature=22 1 23
split_gain=13.8955 9.419 6.47087
threshold=0.84496115991739107 1.594059204298244 0.82722540961109992
decision_type=2 2 2
left_child=1 -1 -3
right_child=-2 2 -4
leaf_value=0.005492896786668422 0.14531207114571185 -0.032683417749222406 -0.14772281586375172
leaf_weight=149.71221333742142 6.3551244735717765 26.595184355974197 5.9910113215446463
leaf_count=615 26 111 25
internal_value=0 -0.00511182 -0.0538335
internal_weight=0 182.298 32.5862
internal_count=777 751 136
is_linear=0
shrinkage=0.1


Tree=7
num_leaves=4
num_cat=0
split_feature=20 24 18
split_gain=7.85146 5.7769 5.67216
threshold=0.91145194094258775 3.1559663130859907 2.1410499733388231
decision_type=2 8 2
left_child=1 2 -1
right_child=-2 -3 -4
leaf_value=0.0023561510712872802 0.092559817154980045 -0.033082592116283401 0.10761266867107828
leaf_weight=123.48700094223022 8.7310453206300718 50.860352858901024 5.3412220180034629
leaf_count=509 36 210 22
internal_value=0 -0.00454595 0.00672009
internal_weight=0 179.689 128.828
internal_count=777 741 531
is_linear=0
shrinkage=0.1


Tree=8
num_leaves=4
num_cat=0
split_feature=16 1 22
split_gain=33.5329 11.1336 8.21079
threshold=-0.70641834355690147 1.6523755515810719 -0.68414657339753282
decision_type=2 2 2
left_child=-1 2 -2
right_child=1 -3 -4
leaf_value=0.067105444978991582 -0.027644787295895597 -0.093980993613750383 0.039692132681420744
leaf_weight=53.307137802243233 91.593873783946037 20.737839609384537 22.570599734783173
leaf_count=218 378 89 92
internal_value=0 -0.0265761 -0.0143321
internal_weight=0 134.902 114.164
internal_count=777 559 470
is_linear=0
shrinkage=0.1


Tree=9
num_leaves=4
num_cat=0
split_feature=16 1 8
split_gain=27.8738 11.3002 7.97015
threshold=1.0000000180025095e-35 -0.24815668289032691 -0.68414657339753282
decision_type=2 2 2
left_child=-1 2 -2
right_child=1 -3 -4
leaf_value=0.048707303376635619 0.084759197915837053 -0.050936171295458091 -0.01733534636007027
leaf_weight=72.048371136188507 11.672073528170584 80.939701706171036 22.17068900167942
leaf_count=296 47 344 90
internal_value=0 -0.0306474 0.0178762
internal_weight=0 114.782 33.8428
internal_count=777 481 137
is_linear=0
shrinkage=0.1


Tree=10
num_leaves=4
num_cat=0
split_feature=22 1 0
split_gain=10.9026 7.22532 6.35551
threshold=0.67371057882937502 1.869151315381812 1.5665945392886895
decision_type=2 2 2
left_child=1 2 -1
right_child=-2 -3 -4
leaf_value=0.0029941984616791684 0.070176408763797285 -0.082300458996920067 -0.077675459951993028
leaf_weight=142.88451220095158 19.751560419797897 12.259059801697729 10.48281456530094
leaf_count=599 82 53 43
internal_value=0 -0.00842474 -0.00251966
internal_weight=0 165.626 153.367
internal_count=777 695 642
is_linear=0
shrinkage=0.1


Tree=11
num_leaves=4
num_cat=0
split_feature=16 16 0
split_gain=22.9484 7.75465 8.35078
threshold=-0.70641834355690147 1.4862560551244439 -1.1020028506048618
decision_type=2 2 2
left_child=-1 2 -2
right_child=1 -3 -4
leaf_value=0.056113886221425636 -0.070588726850631944 -0.098136552866914861 -0.0021201842912462886
leaf_weight=52.222624748945236 21.724966183304787 12.190807104110716 98.933943226933479
leaf_count=218 92 52 415
internal_value=0 -0.0221277 -0.0144481
internal_weight=0 132.85 120.659
internal_count=777 559 507
is_linear=0
shrinkage=0.1


Tree=12
num_leaves=4
num_cat=0
split_feature=22 6 20
split_gain=9.19673 10.0982 7.0265
threshold=0.84496115991739107 -0.56380662233518819 0.91145194094258775
decision_type=2 2 2
left_child=1 2 -1
right_child=-2 -3 -4
leaf_value=-0.033840566458666455 0.1200478434171159 0.020572612597477537 0.08649701729253978
leaf_weight=87.170500874519348 6.1624981909990302 85.380077973008156 5.1381800025701514
leaf_count=373 26 356 22
internal_value=0 -0.00421507 -0.0271422
internal_weight=0 177.689 92.3087
internal_count=777 751 395
is_linear=0
shrinkage=0.1


Tree=13
num_leaves=4
num_cat=0
split_feature=16 1 4
split_gain=18.8447 9.57978 8.74585
threshold=-0.58024617022571501 0.16354642225430902 0.54951181475430977
decision_type=2 2 2
left_child=-1 2 -2
right_child=1 -3 -4
leaf_value=0.041437302990911168 -0.044327414673811044 -0.049483753098149078 0.042849405352698114
leaf_weight=68.571148157119751 18.813520029187202 66.397086322307587 29.635995611548424
leaf_count=287 77 292 121
internal_value=0 -0.0248126 0.00899761
internal_weight=0 114.847 48.4495
internal_count=777 490 198
is_linear=0
shrinkage=0.1


Tree=14
num_leaves=4
num_cat=0
split_feature=16 3 16
split_gain=16.0219 6.26225 6.09309
threshold=-0.70641834355690147 -0.74332590187884851 1.4862560551244439
decision_type=2 2 2
left_child=1 -1 -2
right_child=2 -3 -4
leaf_value=-0.034633821519026463 -0.011823542983660722 0.062391310215283081 -0.087410017257875505
leaf_weight=7.8626929074525824 119.15465992689133 43.206810653209686 11.713081032037733
leaf_count=32 507 186 52
internal_value=0 0.0474533 -0.0185888
internal_weight=0 51.0695 130.868
internal_count=777 218 559
is_linear=0
shrinkage=0.1


Tree=15
num_leaves=4
num_cat=0
split_feature=16 1 22
split_gain=13.1471 8.02558 5.87138
threshold=-0.70641834355690147 1.6523755515810719 0.67371057882937502
decision_type=2 2 2
left_child=-1 2 -2
right_child=1 -3 -4
leaf_value=0.043343541681058639 -0.013416385007785496 -0.076693346423669456 0.070122467168910893
leaf_weight=50.372986912727356 102.03129576146603 19.101895064115524 9.1693112254142743
leaf_count=218 432 89 38
internal_value=0 -0.016814 -0.00652799
internal_weight=0 130.303 111.201
internal_count=777 559 470
is_linear=0
shrinkage=0.1


Tree=16
num_leaves=4
num_cat=0
split_feature=22 6 5
split_gain=6.83834 7.9822 8.03126
threshold=0.84496115991739107 -0.7936288156800726 0.65203897363046381
decision_type=2 2 2
left_child=1 2 -1
right_child=-2 -3 -4
leaf_value=-0.046630267910145809 0.10586645094146424 0.01250191214597627 0.056222021892583712
leaf_weight=53.89914208650589 5.896016761660575 110.7390484213829 8.8366920650005323
leaf_count=240 26 472 39
internal_value=0 -0.00364355 -0.0321429
internal_weight=0 173.475 62.7358
internal_count=777 751 279
is_linear=0
shrinkage=0.1


Tree=17
num_leaves=4
num_cat=0
split_feature=22 5 14
split_gain=5.92863 7.46797 8.54547
threshold=0.63950586116782737 -0.39537116450322773 -0.7936288156800726
decision_type=2 2 2
left_child=-1 2 -2
right_child=1 -3 -4
leaf_value=-0.0066222170721384008 -0.096074224013667775 0.15837687651867197 0.064802615879745326
leaf_weight=158.21027083694935 4.7021908015012768 4.8846983462572089 11.086517870426176
leaf_count=687 20 21 49
internal_value=0 0.0503207 0.0168903
internal_weight=0 20.6734 15.7887
internal_count=777 90 69
is_linear=0
shrinkage=0.1


Tree=18
num_leaves=4
num_cat=0
split_feature=22 6 0
split_gain=5.25319 6.92746 7.57177
threshold=0.84496115991739107 -0.56380662233518819 1.3360415542071002
decision_type=2 2 2
left_child=1 -1 -3
right_child=-2 2 -4
leaf_value=-0.022586792450363435 0.094420929960386007 0.030952654690846994 -0.049429803391431729
leaf_weight=88.959268555045128 5.7006474286317816 69.841467753052711 14.081251189112661
leaf_count=395 26 297 59
internal_value=0 -0.00314411 0.0174654
internal_weight=0 172.882 83.9227
internal_count=777 751 356
is_linear=0
shrinkage=0.1


Tree=19
num_leaves=4
num_cat=0
split_feature=16 0 4
split_gain=10.5821 6.28612 7.76426
threshold=1.0000000180025095e-35 -1.1020028506048618 -0.58495951995471807
decision_type=2 2 2
left_child=-1 -2 -3
right_child=1 2 -4
leaf_value=0.030802714699981512 -0.072498663343738279 -0.074331656245051364 0.0044230912019582727
leaf_weight=68.520770713686943 18.465664550662041 14.979510799050329 76.190603345632553
leaf_count=296 83 71 327
internal_value=0 -0.0192929 -0.00851654
internal_weight=0 109.636 91.1701
internal_count=777 481 398
is_linear=0
shrinkage=0.1


Tree=20
num_leaves=4
num_cat=0
split_feature=16 1 0
split_gain=8.84779 6.2945 6.95976
threshold=-0.70641834355690147 1.6523755515810719 -1.1020028506048618
decision_type=2 2 2
left_child=-1 2 -2
right_child=1 -3 -4
leaf_value=0.036074236211110604 -0.058483031891223274 -0.06853147488416006 0.0069477659861039891
leaf_weight=49.042918905615807 19.843010067939758 18.095915555953979 89.944927245378494
leaf_count=218 88 89 382
internal_value=0 -0.0138853 -0.00487816
internal_weight=0 127.884 109.788
internal_count=777 559 470
is_linear=0
shrinkage=0.1


Tree=21
num_leaves=4
num_cat=0
split_feature=24 14 20
split_gain=4.58878 6.70329 5.25042
threshold=0.74701530098528302 0.67371057882937502 0.91145194094258775
decision_type=8 2 2
left_child=1 -1 -2
right_child=2 -3 -4
leaf_value=-0.0054108348371517852 -0.0088214517064859697 0.12933484753174826 0.080279287435964491
leaf_weight=8.5519853979349119 153.74692340195179 6.4966191649436942 6.9107662588357917
leaf_count=37 680 29 31
internal_value=0 0.0527601 -0.00498874
internal_weight=0 15.0486 160.658
internal_count=777 66 711
is_linear=0
shrinkage=0.1


Tree=22
num_leaves=4
num_cat=0
split_feature=22 6 20
split_gain=4.15166 5.44072 5.23588
threshold=0.67371057882937502 -0.56380662233518819 0.91145194094258775
decision_type=2 2 2
left_child=1 2 -1
right_child=-2 -3 -4
leaf_value=-0.030860709894803991 0.045152586377922493 0.013061889429802118 0.07636079597472728
leaf_weight=72.653468295931816 18.22005806863308 79.773147001862526 4.8589257299900046
leaf_count=331 82 342 22
internal_value=0 -0.00527142 -0.0241394
internal_weight=0 157.286 77.5124
internal_count=777 695 353
is_linear=0
shrinkage=0.1


Tree=23
num_leaves=4
num_cat=0
split_feature=16 5 6
split_gain=7.68166 6.13341 6.6648
threshold=0.72065841292195365 -1.0474283005755791 0.75836932595576434
decision_type=2 2 2
left_child=1 2 -1
right_child=-2 -3 -4
leaf_value=0.032208299113665177 -0.022902713499075824 0.0001909862060414739 0.14654280640705758
leaf_weight=27.831592202186584 79.848875015974045 61.0346959233284 6.2418033480644217
leaf_count=122 359 268 28
internal_value=0 0.0191651 0.0531529
internal_weight=0 95.1081 34.0734
internal_count=777 418 150
is_linear=0
shrinkage=0.1


Tree=24
num_leaves=4
num_cat=0
split_feature=24 20 6
split_gain=3.64319 3.78059 5.06239
threshold=0.74701530098528302 0.84496115991739107 -0.68414657339753282
decision_type=8 2 2
left_child=-1 2 -2
right_child=1 -3 -4
leaf_value=0.047120064245726422 -0.027027856513439166 0.062532682240335369 0.0096000133677275317
leaf_weight=14.982440799474714 72.659128874540329 8.0002420246601087 78.502451032400131
leaf_count=66 335 37 339
internal_value=0 -0.00446036 -0.00800598
internal_weight=0 159.162 151.162
internal_count=777 711 674
is_linear=0
shrinkage=0.1


Tree=25
num_leaves=4
num_cat=0
split_feature=16 8 10
split_gain=6.90372 4.96213 4.89148
threshold=0.8033011172443395 -0.68414657339753282 0.91145194094258775
decision_type=2 2 2
left_child=-1 -2 -3
right_child=1 2 -4
leaf_value=0.0098185312595111627 0.043246474940567943 -0.093697618009160377 -0.0094730025277230956
leaf_weight=139.74051307141781 5.8716951161622992 16.179287001490597 12.01692773401737
leaf_count=621 25 75 56
internal_value=0 -0.040386 -0.057802
internal_weight=0 34.0679 28.1962
internal_count=777 156 131
is_linear=0
shrinkage=0.1


Tree=26
num_leaves=4
num_cat=0
split_feature=16 4 1
split_gain=5.99488 5.46538 5.12548
threshold=-0.7936288156800726 0.98220525670434788 1.869151315381812
decision_type=2 2 2
left_child=1 -1 -2
right_child=2 -3 -4
leaf_value=0.057128594900198573 -0.0041738736212971568 -0.043775609606969371 -0.081744430357217374
leaf_weight=27.547678783535957 129.99103355407715 6.6669791489839545 9.1153680682182294
leaf_count=125 575 31 46
internal_value=0 0.0374667 -0.00925692
internal_weight=0 34.2147 139.106
internal_count=777 156 621
is_linear=0
shrinkage=0.1


Tree=27
num_leaves=4
num_cat=0
split_feature=2 2 0
split_gain=3.90073 5.26675 3.94913
threshold=-1.6491603893972162 -1.4416906953662696 1.5665945392886895
decision_type=2 2 2
left_child=-1 -2 -3
right_child=1 2 -4
leaf_value=0.10133489226539037 -0.12798123454743462 0.0043813706591821896 -0.057134343403136827
leaf_weight=3.7148936241865149 3.2675135731697074 154.41457337141037 11.192314848303793
leaf_count=17 15 697 48
internal_value=0 -0.0022567 0.000223915
internal_weight=0 168.874 165.607
internal_count=777 760 745
is_linear=0
shrinkage=0.1


Tree=28
num_leaves=4
num_cat=0
split_feature=16 5 1
split_gain=5.48193 4.30946 6.36708
threshold=1.4862560551244439 -0.87343206378388727 -0.031228986234265847
decision_type=2 2 2
left_child=1 2 -1
right_child=-2 -3 -4
leaf_value=0.060779641069115521 -0.069982444439600611 -0.011645374118677543 0.0010481652015466609
leaf_weight=26.779397696256638 10.518262773752211 81.738788038492203 53.493888162076473
leaf_count=114 52 369 242
internal_value=0 0.00451716 0.0209748
internal_weight=0 162.012 80.2733
internal_count=777 725 356
is_linear=0
shrinkage=0.1


Tree=29
num_leaves=4
num_cat=0
split_feature=18 22 9
split_gain=5.17608 6.90522 6.74938
threshold=-0.86834317095281277 0.76913824077153692 0.72065841292195365
decision_type=2 2 2
left_child=2 -2 -1
right_child=1 -3 -4
leaf_value=-0.11417498683696657 0.00121042933768441 0.099515945949532614 0.0063039763863552605
leaf_weight=8.6906333416700381 145.97767195105553 7.5130745917558661 10.000686109066008
leaf_count=39 658 36 44
internal_value=0 0.00602229 -0.0497134
internal_weight=0 153.491 18.6913
internal_count=777 694 83
is_linear=0
shrinkage=0.1


Tree=30
num_leaves=4
num_cat=0
split_feature=18 22 9
split_gain=4.25352 5.78457 5.69097
threshold=-0.86834317095281277 0.76913824077153692 0.72065841292195365
decision_type=2 2 2
left_child=2 -2 -1
right_child=1 -3 -4
leaf_value=-0.10577346599941553 0.0010892820466952443 0.092291552225155504 0.0056723895087160995
leaf_weight=8.4552017152309435 145.99092090129852 7.3022489324212065 10.002669885754583
leaf_count=39 658 36 44
internal_value=0 0.00543378 -0.0453788
internal_weight=0 153.293 18.4579
internal_count=777 694 83
is_linear=0
shrinkage=0.1


Tree=31
num_leaves=4
num_cat=0
split_feature=18 22 9
split_gain=3.49943 4.85168 4.81553
threshold=-0.86834317095281277 0.76913824077153692 0.72065841292195365
decision_type=2 2 2
left_child=2 -2 -1
right_child=1 -3 -4
leaf_value=-0.098249625017761091 0.00098026928215869439 0.085688860011359558 0.005104257064866626
leaf_weight=8.2056037783622759 146.00278089940548 7.0897342041134825 10.004327565431593
leaf_count=39 658 36 44
internal_value=0 0.00490314 -0.0414682
internal_weight=0 153.093 18.2099
internal_count=777 694 83
is_linear=0
shrinkage=0.1


Tree=32
num_leaves=4
num_cat=0
split_feature=16 0 8
split_gain=5.16547 3.98557 3.85808
threshold=0.8033011172443395 -1.6313593673557369 -0.68414657339753282
decision_type=2 2 2
left_child=1 -1 -2
right_child=2 -3 -4
leaf_value=-0.060330583807752226 0.03862014518414314 0.012650023554708276 -0.051510097987155258
leaf_weight=7.9396824836730948 5.7605600655078879 130.09450517594814 27.0541712641716
leaf_count=36 25 585 131
internal_value=0 0.0084522 -0.0356879
internal_weight=0 138.034 32.8147
internal_count=777 621 156
is_linear=0
shrinkage=0.1


Tree=33
num_leaves=4
num_cat=0
split_feature=16 2 20
split_gain=4.24061 3.58028 4.16648
threshold=0.8033011172443395 -0.97987362247686072 -0.68414657339753282
decision_type=2 2 2
left_child=-1 -2 -3
right_child=1 2 -4
leaf_value=0.0076084619007552329 0.047004275138646835 -0.024015639785730639 -0.1137446237973353
leaf_weight=137.9840884283185 4.8081577271223059 20.636656954884529 6.9069274514913586
leaf_count=621 22 99 35
internal_value=0 -0.0326172 -0.0465164
internal_weight=0 32.3517 27.5436
internal_count=777 156 134
is_linear=0
shrinkage=0.1


Tree=34
num_leaves=4
num_cat=0
split_feature=16 4 2
split_gain=3.94275 4.93248 4.51964
threshold=-0.70641834355690147 0.43541243290963311 0.055109748912265957
decision_type=2 2 2
left_child=-1 -2 -3
right_child=1 2 -4
leaf_value=0.024754526127842409 -0.029106299258612689 0.041758408856184537 -0.013170276672238725
leaf_weight=46.571682326495647 62.576568938791752 26.644675523042679 34.216530814766884
leaf_count=218 293 115 151
internal_value=0 -0.00939238 0.0108772
internal_weight=0 123.438 60.8612
internal_count=777 559 266
is_linear=0
shrinkage=0.1


Tree=35
num_leaves=4
num_cat=0
split_feature=0 6 9
split_gain=3.38928 6.33508 3.53871
threshold=1.5665945392886895 1.2916117805817586 -0.58024617022571501
decision_type=2 2 2
left_child=1 -1 -2
right_child=2 -3 -4
leaf_value=0.00024890606682135007 -0.120961257495869 0.11796378166026203 -0.0071939480302666281
leaf_weight=153.07513149827719 4.5579544305801392 4.712572067975997 6.8325406014919263
leaf_count=707 20 20 30
internal_value=0 0.00376464 -0.0527184
internal_weight=0 157.788 11.3905
internal_count=777 727 50
is_linear=0
shrinkage=0.1


Tree=36
num_leaves=4
num_cat=0
split_feature=1 24 6
split_gain=3.4231 5.83083 2.97271
threshold=1.869151315381812 2.5737430766385807 -0.7936288156800726
decision_type=2 8 2
left_child=2 -2 -1
right_child=1 -3 -4
leaf_value=-0.014664552597616239 -0.00012397426395881865 -0.14758597162445097 0.014062611935672592
leaf_weight=55.87564031034708 7.6070954650640461 4.1412043869495401 101.37926329672337
leaf_count=269 40 20 448
internal_value=0 -0.0521034 0.00385531
internal_weight=0 11.7483 157.255
internal_count=777 60 717
is_linear=0
shrinkage=0.1


Tree=37
num_leaves=4
num_cat=0
split_feature=16 4 0
split_gain=3.46761 4.74592 4.43721
threshold=-0.7936288156800726 0.98220525670434788 -1.1020028506048618
decision_type=2 2 2
left_child=1 -1 -2
right_child=2 -3 -4
leaf_value=0.048080054438141194 -0.045659961840801552 -0.047058298485139032 0.0013781886932856717
leaf_weight=26.305016942322254 24.455146700143814 6.5486959293484679 111.44295138865709
leaf_count=125 115 31 506
internal_value=0 0.0291162 -0.00708642
internal_weight=0 32.8537 135.898
internal_count=777 156 621
is_linear=0
shrinkage=0.1


Tree=38
num_leaves=4
num_cat=0
split_feature=16 5 20
split_gain=3.4112 4.11815 5.40308
threshold=2.2936304341397036 -1.4541204714651399 0.84496115991739107
decision_type=2 2 2
left_child=1 -1 -3
right_child=-2 2 -4
leaf_value=0.029654215203049381 -0.08870113788035916 -0.011692478086925117 0.085064929015136959
leaf_weight=41.109019137918949 4.2294360995292655 116.77705011516809 6.0713422149419776
leaf_count=186 23 539 29
internal_value=0 0.0022573 -0.00691059
internal_weight=0 163.957 122.848
internal_count=777 754 568
is_linear=0
shrinkage=0.1


Tree=39
num_leaves=4
num_cat=0
split_feature=16 3 15
split_gain=3.10008 3.75969 5.05236
threshold=1.0000000180025095e-35 -0.65207531004188335 0.58100093893574045
decision_type=2 2 2
left_child=1 2 -1
right_child=-2 -3 -4
leaf_value=0.028052811377948905 -0.010755831515072659 0.029939358863601918 -0.092049782167991548
leaf_weight=7.4323585480451566 103.45543864369392 50.396771915256977 6.6244432777166367
leaf_count=31 481 237 28
internal_value=0 0.017184 -0.028547
internal_weight=0 64.4536 14.0568
internal_count=777 296 59
is_linear=0
shrinkage=0.1


Tree=40
num_leaves=4
num_cat=0
split_feature=24 14 1
split_gain=3.11067 5.66464 3.17326
threshold=0.74701530098528302 0.67371057882937502 1.869151315381812
decision_type=8 2 2
left_child=1 -1 -2
right_child=2 -3 -4
leaf_value=-0.0097636874613861516 -0.00025879875508375732 0.11594525684168143 -0.056373737805822388
leaf_weight=8.3815498650073987 141.66017674654722 6.2632331252098075 10.8491840288043
leaf_count=37 654 29 57
internal_value=0 0.0439991 -0.00425069
internal_weight=0 14.6448 152.509
internal_count=777 66 711
is_linear=0
shrinkage=0.1


Tree=41
num_leaves=4
num_cat=0
split_feature=16 13 2
split_gain=2.96285 3.78131 3.50212
threshold=0.96432059253136848 -0.7936288156800726 1.3770393823739373
decision_type=2 2 2
left_child=2 -2 -1
right_child=1 -3 -4
leaf_value=0.00063028258747995533 -0.11280849070019881 0.0016766338675626225 0.0786291067847565
leaf_weight=149.22087761759758 5.1366346180438995 6.5814502537250501 5.9874344617128363
leaf_count=687 30 33 27
internal_value=0 -0.048508 0.00363922
internal_weight=0 11.7181 155.208
internal_count=777 63 714
is_linear=0
shrinkage=0.1


Tree=42
num_leaves=4
num_cat=0
split_feature=0 1 20
split_gain=2.94169 4.61085 5.97644
threshold=1.8467023013934349 -0.24815668289032691 -0.91145194094258752
decision_type=2 2 2
left_child=1 2 -1
right_child=-2 -3 -4
leaf_value=-0.033736274755948606 -0.066160942809536563 -0.0071205709552859681 0.054905991267857425
leaf_weight=10.236538439989088 6.4658196568489066 120.3934048563242 29.59946520626545
leaf_count=45 29 576 127
internal_value=0 0.00263732 0.0321279
internal_weight=0 160.229 39.836
internal_count=777 748 172
is_linear=0
shrinkage=0.1


Tree=43
num_leaves=4
num_cat=0
split_feature=2 2 16
split_gain=2.92256 4.37158 3.16016
threshold=-1.6491603893972162 -1.4416906953662696 0.91145194094258775
decision_type=2 2 2
left_child=-1 -2 -3
right_child=1 2 -4
leaf_value=0.08925889121809305 -0.11740154297106101 0.0062951726354954678 -0.032851595190319431
leaf_weight=3.586990311741828 3.2174054980278006 135.36014568805695 24.327537536621094
leaf_count=17 15 621 124
internal_value=0 -0.00199387 0.000331379
internal_weight=0 162.905 159.688
internal_count=777 760 745
is_linear=0
shrinkage=0.1


Tree=44
num_leaves=4
num_cat=0
split_feature=2 1 1
split_gain=3.37826 2.571 8.10197
threshold=-1.9226810681863087 -0.24815668289032691 -0.59308537943937778
decision_type=2 2 2
left_child=-1 2 -2
right_child=1 -3 -4
leaf_value=0.17622671290615871 -0.014613535202061276 -0.0087542506061180914 0.073028188181674974
leaf_weight=1.0803890228271473 27.190168425440788 120.64625272154808 17.2333614975214
leaf_count=5 117 579 76
internal_value=0 -0.00118126 0.0193856
internal_weight=0 165.07 44.4235
internal_count=777 772 193
is_linear=0
shrinkage=0.1


Tree=45
num_leaves=4
num_cat=0
split_feature=18 22 24
split_gain=2.99654 4.32937 4.25531
threshold=-0.86834317095281277 0.76913824077153692 1.8801501439661221
decision_type=2 2 8
left_child=-1 2 -2
right_child=1 -3 -4
leaf_value=-0.039173844445521522 0.022004684588706774 0.082649419104319458 -0.013351549571300782
leaf_weight=17.48670956492424 56.907730951905251 6.781018264591693 84.71504320949316
leaf_count=83 267 36 391
internal_value=0 0.00459292 0.000855509
internal_weight=0 148.404 141.623
internal_count=777 694 658
is_linear=0
shrinkage=0.1


Tree=46
num_leaves=4
num_cat=0
split_feature=0 0 6
split_gain=2.90909 2.74779 4.21914
threshold=-1.6313593673557369 1.5665945392886895 1.2916117805817586
decision_type=2 2 2
left_child=-1 2 -2
right_child=1 -3 -4
leaf_value=-0.058631832293191161 0.0035889850382281939 -0.045020648762611026 0.101779309278602
leaf_weight=8.0548486709594709 141.86893378198147 11.085113085806368 4.5153775215148917
leaf_count=38 669 50 20
internal_value=0 0.00298266 0.00661777
internal_weight=0 157.469 146.384
internal_count=777 739 689
is_linear=0
shrinkage=0.1


Tree=47
num_leaves=4
num_cat=0
split_feature=2 16 5
split_gain=2.76812 2.44149 3.47484
threshold=-1.9226810681863087 1.0000000180025095e-35 -1.0474283005755791
decision_type=2 2 2
left_child=-1 2 -2
right_child=1 -3 -4
leaf_value=0.16401782655169717 0.048031910490330371 -0.010641534426310308 -0.0019958516694452326
leaf_weight=1.0224458128213871 20.673159249126911 101.34148299694061 42.27641986310482
leaf_count=5 101 479 192
internal_value=0 -0.00103374 0.0144337
internal_weight=0 164.291 62.9496
internal_count=777 772 293
is_linear=0
shrinkage=0.1


Tree=48
num_leaves=4
num_cat=0
split_feature=0 16 2
split_gain=2.32356 2.34614 3.69175
threshold=-1.6313593673557369 0.72065841292195365 -0.94333397318973311
decision_type=2 2 2
left_child=-1 -2 -3
right_child=1 2 -4
leaf_value=-0.052712202634523232 0.014075469680052655 0.041902826475149035 -0.020138927872980088
leaf_weight=7.9597042053937903 83.862457066774368 11.36424472928047 61.466360419988632
leaf_count=38 387 53 299
internal_value=0 0.0026723 -0.0104581
internal_weight=0 156.693 72.8306
internal_count=777 739 352
is_linear=0
shrinkage=0.1


Tree=49
num_leaves=4
num_cat=0
split_feature=18 0 3
split_gain=2.32462 4.96841 5.04531
threshold=-0.86834317095281277 -0.6131041701465112 -0.13839126995097842
decision_type=2 2 2
left_child=1 -1 -3
right_child=-2 2 -4
leaf_value=-0.1345736840683118 0.0040625836518864275 0.05541391570859238 -0.067628009547364962
leaf_weight=3.8680196702480343 146.94271599501371 6.6940408572554597 6.6365614905953381
leaf_count=20 694 31 32
internal_value=0 -0.034794 -0.00584178
internal_weight=0 17.1986 13.3306
internal_count=777 83 63
is_linear=0
shrinkage=0.1


Tree=50
num_leaves=4
num_cat=0
split_feature=0 6 16
split_gain=2.23368 2.69566 4.56285
threshold=1.8467023013934349 0.54161842528137127 -0.62021932560021076
decision_type=2 2 2
left_child=1 -1 -3
right_child=-2 2 -4
leaf_value=-0.0096038270615163707 -0.058176295764436052 0.049603463340655407 -0.0026871707943849459
leaf_weight=86.035982705652714 6.3480227515101424 26.48894801735878 45.098181307315826
leaf_count=423 29 126 199
internal_value=0 0.00232505 0.0166616
internal_weight=0 157.623 71.5871
internal_count=777 748 325
is_linear=0
shrinkage=0.1


Tree=51
num_leaves=4
num_cat=0
split_feature=22 5 4
split_gain=2.53188 5.94404 3.82488
threshold=0.63950586116782737 -0.39537116450322773 -0.29652237326230463
decision_type=2 2 2
left_child=2 -2 -1
right_child=1 -3 -4
leaf_value=-0.031993093168339752 0.0031740794031280767 0.13740415703565026 0.0051376725636531791
leaf_weight=37.349873676896095 13.832443207502367 4.332220420241355 107.85650905966759
leaf_count=189 69 21 498
internal_value=0 0.0351876 -0.00441307
internal_weight=0 18.1647 145.206
internal_count=777 90 687
is_linear=0
shrinkage=0.1


Tree=52
num_leaves=4
num_cat=0
split_feature=22 1 8
split_gain=2.21133 2.88949 4.23352
threshold=0.84496115991739107 1.869151315381812 0.75836932595576434
decision_type=2 2 2
left_child=1 -1 -3
right_child=-2 2 -4
leaf_value=0.001601515636516136 0.068395348409284185 -0.13375748443416874 -0.0027411834498132039
leaf_weight=148.03375159949064 4.5936550572514525 3.9922987446188909 6.4524948000907898
leaf_count=694 26 20 37
internal_value=0 -0.00198518 -0.0528194
internal_weight=0 158.479 10.4448
internal_count=777 751 57
is_linear=0
shrinkage=0.1


Tree=53
num_leaves=4
num_cat=0
split_feature=2 24 14
split_gain=2.24605 2.24726 4.92215
threshold=-1.9226810681863087 0.74701530098528302 0.67371057882937502
decision_type=2 8 2
left_child=-1 2 -2
right_child=1 -3 -4
leaf_value=0.15316333370720045 -0.013430852587310887 -0.0045813451516227106 0.10500757324459194
leaf_weight=0.95178133249282737 8.2644205987453443 147.53045860677958 6.0979453623294821
leaf_count=5 37 706 29
internal_value=0 -0.000905264 0.0368555
internal_weight=0 161.893 14.3624
internal_count=777 772 66
is_linear=0
shrinkage=0.1


Tree=54
num_leaves=4
num_cat=0
split_feature=0 1 1
split_gain=2.08123 2.25731 5.7229
threshold=-1.6313593673557369 0.18009853921725497 0.47761868646312117
decision_type=2 2 2
left_child=-1 -2 -3
right_child=1 2 -4
leaf_value=-0.050233359414533753 0.017801315432230205 -0.065436102615747727 0.0032823150864288637
leaf_weight=7.849411964416503 59.641187399625778 14.254520170390604 80.897551521658897
leaf_count=38 268 67 404
internal_value=0 0.00254832 -0.00701224
internal_weight=0 154.793 95.1521
internal_count=777 739 471
is_linear=0
shrinkage=0.1


Tree=55
num_leaves=4
num_cat=0
split_feature=16 15 2
split_gain=2.0335 3.39479 3.02203
threshold=1.4862560551244439 -0.7936288156800726 1.3770393823739373
decision_type=2 2 2
left_child=2 -2 -1
right_child=1 -3 -4
leaf_value=-0.00014718439407839431 -0.12637066992808887 0.0021145452898661812 0.072657559635309454
leaf_weight=147.87377542257309 3.329508513212204 5.3779915422201139 5.9300166964530936
leaf_count=698 22 30 27
internal_value=0 -0.0470147 0.00265986
internal_weight=0 8.7075 153.804
internal_count=777 52 725
is_linear=0
shrinkage=0.1


Tree=56
num_leaves=4
num_cat=0
split_feature=22 5 14
split_gain=1.93029 5.17122 6.18605
threshold=0.63950586116782737 -0.39537116450322773 -0.7936288156800726
decision_type=2 2 2
left_child=-1 2 -2
right_child=1 -3 -4
leaf_value=-0.0038382431084194694 -0.099771859176482638 0.12899902825951684 0.046183078895220164
leaf_weight=144.52947209775448 4.1898081302642849 4.138016700744628 9.4612304195761663
leaf_count=687 20 21 49
internal_value=0 0.031071 0.00138625
internal_weight=0 17.7891 13.651
internal_count=777 90 69
is_linear=0
shrinkage=0.1


Tree=57
num_leaves=4
num_cat=0
split_feature=20 3 5
split_gain=2.08029 3.92117 2.78503
threshold=0.84496115991739107 0.065532488792827068 -1.4541204714651399
decision_type=2 2 2
left_child=2 -2 -1
right_child=1 -3 -4
leaf_value=0.020293642219129417 -0.024913829678581009 0.11415749139848329 -0.010514106975184765
leaf_weight=39.46953759342432 3.8019651323556882 4.3436826542019844 114.37424641102552
leaf_count=185 19 23 550
internal_value=0 0.0492462 -0.0026102
internal_weight=0 8.14565 153.844
internal_count=777 42 735
is_linear=0
shrinkage=0.1


Tree=58
num_leaves=4
num_cat=0
split_feature=2 6 18
split_gain=1.9664 1.86225 4.18248
threshold=-1.9226810681863087 -0.63375969704382451 1.9283185035559216
decision_type=2 2 2
left_child=-1 2 -2
right_child=1 -3 -4
leaf_value=0.14861112660643064 -0.017148298717777601 0.010123361836846624 0.07749353647322442
leaf_weight=0.88552455604076286 76.820790216326714 79.114754408597946 4.9716728180646887
leaf_count=5 384 363 25
internal_value=0 -0.000815166 -0.0113956
internal_weight=0 160.907 81.7925
internal_count=777 772 409
is_linear=0
shrinkage=0.1


Tree=59
num_leaves=4
num_cat=0
split_feature=0 1 11
split_gain=1.8673 2.74978 5.16421
threshold=1.8467023013934349 -0.24815668289032691 -0.51689583093152902
decision_type=2 2 2
left_child=1 2 -1
right_child=-2 -3 -4
leaf_value=0.038275703746570452 -0.053423858839536577 -0.0055028164118951931 -0.077220926243189325
leaf_weight=34.349187135696411 6.2869637906551352 116.54294366389513 4.3631252199411383
leaf_count=152 29 576 20
internal_value=0 0.0021674 0.0252585
internal_weight=0 155.255 38.7123
internal_count=777 748 172
is_linear=0
shrinkage=0.1


Tree=60
num_leaves=4
num_cat=0
split_feature=16 0 0
split_gain=1.80246 4.11186 4.40656
threshold=-0.7936288156800726 -0.9494364151261967 -0.67075434195797767
decision_type=2 2 2
left_child=1 -1 -3
right_child=-2 2 -4
leaf_value=0.085132420629184635 -0.005154343823564487 -0.093360167582680675 0.02083640728870224
leaf_weight=7.6808543652296093 130.29993791878223 4.0988937094807651 19.240432225167751
leaf_count=38 621 21 97
internal_value=0 0.0216671 0.000781003
internal_weight=0 31.0202 23.3393
internal_count=777 156 118
is_linear=0
shrinkage=0.1


Tree=61
num_leaves=4
num_cat=0
split_feature=18 0 5
split_gain=1.79508 4.10746 3.32911
threshold=-0.86834317095281277 -0.6131041701465112 -1.018222449176106
decision_type=2 2 2
left_child=1 -1 -3
right_child=-2 2 -4
leaf_value=-0.12503726451676428 0.0036058464253099381 -0.042514062930838342 0.062870183688581646
leaf_weight=3.6357415392994907 144.26695100218058 8.3879934176802635 4.6646279767155621
leaf_count=20 694 41 22
internal_value=0 -0.0310363 -0.00485279
internal_weight=0 16.6884 13.0526
internal_count=777 83 63
is_linear=0
shrinkage=0.1


Tree=62
num_leaves=4
num_cat=0
split_feature=22 1 24
split_gain=1.91474 2.27898 3.76304
threshold=0.84496115991739107 1.869151315381812 2.5737430766385807
decision_type=2 2 8
left_child=1 -1 -3
right_child=-2 2 -4
leaf_value=0.0013501370767597615 0.06495717850857953 -0.0021623733491670997 -0.12922486755229498
leaf_weight=146.20790353417397 4.4139246419072142 6.5067296996712658 3.6317203268408784
leaf_count=694 26 37 20
internal_value=0 -0.00182913 -0.0476778
internal_weight=0 156.346 10.1385
internal_count=777 751 57
is_linear=0
shrinkage=0.1


Tree=63
num_leaves=4
num_cat=0
split_feature=20 3 5
split_gain=1.71264 3.1757 2.30951
threshold=0.84496115991739107 0.065532488792827068 -1.4541204714651399
decision_type=2 2 2
left_child=2 -2 -1
right_child=1 -3 -4
leaf_value=0.018544825894041907 -0.021467551274516175 0.10579753651891971 -0.0095886197627619661
leaf_weight=39.296720497310162 3.7257951572537413 4.1388714984059334 113.33265399932861
leaf_count=185 19 23 550
internal_value=0 0.0455072 -0.00234524
internal_weight=0 7.86467 152.629
internal_count=777 42 735
is_linear=0
shrinkage=0.1


Tree=64
num_leaves=4
num_cat=0
split_feature=2 16 2
split_gain=1.72016 1.76163 3.36423
threshold=-1.9226810681863087 0.8033011172443395 -1.2701400073438709
decision_type=2 2 2
left_child=-1 2 -2
right_child=1 -3 -4
leaf_value=0.14375562949152609 -0.056767732481597714 -0.022917969777065405 0.0084743271280536304
leaf_weight=0.82812477648258109 8.4523366838693601 29.251241665333509 121.76360856741667
leaf_count=5 40 155 577
internal_value=0 -0.000742061 0.00423946
internal_weight=0 159.467 130.216
internal_count=777 772 617
is_linear=0
shrinkage=0.1


Tree=65
num_leaves=4
num_cat=0
split_feature=0 24 4
split_gain=1.76652 2.93748 2.3183
threshold=-1.6313593673557369 0.74701530098528302 -0.35950145772853087
decision_type=2 8 2
left_child=-1 -2 -3
right_child=1 2 -4
leaf_value=-0.046698743221357725 0.050590656977510473 -0.023731765471632811 0.0058256876178021232
leaf_weight=7.7085154354572287 11.665127061307428 35.487057980149984 105.20398216694593
leaf_count=38 55 188 496
internal_value=0 0.00236854 -0.00162971
internal_weight=0 152.356 140.691
internal_count=777 739 684
is_linear=0
shrinkage=0.1


Tree=66
num_leaves=4
num_cat=0
split_feature=22 5 1
split_gain=1.65059 4.46533 1.86348
threshold=0.84496115991739107 -2.1179479003061767 1.869151315381812
decision_type=2 2 2
left_child=1 -1 -3
right_child=-2 2 -4
leaf_value=-0.21781800761605177 0.061184556345942699 0.0025108862664496409 -0.042385489505216915
leaf_weight=0.95004822313785453 4.2913501635193816 144.78858133405447 9.8754730448126775
leaf_count=4 26 690 57
internal_value=0 -0.00168344 -0.000355798
internal_weight=0 155.614 154.664
internal_count=777 751 747
is_linear=0
shrinkage=0.1


Tree=67
num_leaves=4
num_cat=0
split_feature=0 1 1
split_gain=1.67891 2.98545 7.16289
threshold=1.5665945392886895 -0.063386437902909681 0.063554622927501567
decision_type=2 2 2
left_child=1 -1 -3
right_child=-2 2 -4
leaf_value=0.025322911139221357 -0.038115884529276695 -0.12237695476939861 -0.000357199659183625
leaf_weight=42.078701928257942 10.77448610961437 5.0495825558900824 101.78713630884886
leaf_count=191 50 23 513
internal_value=0 0.0027616 -0.0061244
internal_weight=0 148.915 106.837
internal_count=777 727 536
is_linear=0
shrinkage=0.1


Tree=68
num_leaves=4
num_cat=0
split_feature=1 1 1
split_gain=1.6919 6.06187 6.06893
threshold=0.88601934958837814 1.0482005029373522 1.1912415530732414
decision_type=2 2 2
left_child=-1 -2 -3
right_child=1 2 -4
leaf_value=-0.0078540767165224696 0.094941542417569247 -0.1025379555114169 0.012387566876324814
leaf_weight=100.84656751528382 7.9081586599349967 5.1095351055264464 45.623506344854832
leaf_count=471 40 25 241
internal_value=0 0.0135068 0.000812941
internal_weight=0 58.6412 50.733
internal_count=777 306 266
is_linear=0
shrinkage=0.1


Tree=69
num_leaves=4
num_cat=0
split_feature=16 13 2
split_gain=1.61557 3.10349 2.30902
threshold=1.4862560551244439 -0.7936288156800726 1.3770393823739373
decision_type=2 2 2
left_child=2 -2 -1
right_child=1 -3 -4
leaf_value=-0.00015166080699951799 -0.12192575412255867 0.0044885666807860779 0.063296665281497494
leaf_weight=145.19909310340881 3.1110294535756111 5.1683263257145864 5.9716057628393164
leaf_count=698 24 28 27
internal_value=0 -0.0430126 0.0023547
internal_weight=0 8.27936 151.171
internal_count=777 52 725
is_linear=0
shrinkage=0.1


Tree=70
num_leaves=4
num_cat=0
split_feature=16 4 0
split_gain=1.57974 4.15903 2.67889
threshold=-0.7936288156800726 0.98220525670434788 -1.2411748399822822
decision_type=2 2 2
left_child=1 -1 -2
right_child=2 -3 -4
leaf_value=0.039207617399188391 -0.040828322559387391 -0.052176282155842468 0.00092521281371509652
leaf_weight=24.254550319164995 17.838133007287979 6.2671223357319823 110.88911973685026
leaf_count=125 88 31 533
internal_value=0 0.0204434 -0.0048607
internal_weight=0 30.5217 128.727
internal_count=777 156 621
is_linear=0
shrinkage=0.1


Tree=71
num_leaves=4
num_cat=0
split_feature=18 0 3
split_gain=1.49212 3.56756 3.97788
threshold=-0.86834317095281277 -0.6131041701465112 -0.13839126995097842
decision_type=2 2 2
left_child=1 -1 -3
right_child=-2 2 -4
leaf_value=-0.11916963896278698 0.003278022499976298 0.049963262217323764 -0.061022473276661215
leaf_weight=3.4363340139389065 142.49313053488731 6.5775014236569413 6.3441783040761921
leaf_count=20 694 31 32
internal_value=0 -0.0286105 -0.00452759
internal_weight=0 16.358 12.9217
internal_count=777 83 63
is_linear=0
shrinkage=0.1


Tree=72
num_leaves=4
num_cat=0
split_feature=22 1 13
split_gain=1.47425 4.24348 3.78229
threshold=0.63950586116782737 -0.24815668289032691 0.72065841292195365
decision_type=2 2 2
left_child=-1 -2 -3
right_child=1 2 -4
leaf_value=-0.0033660003096869003 0.14253174682955233 0.049664036054297339 -0.05414734407107074
leaf_weight=141.54103644192219 2.7090024203062084 8.3668631613254529 6.0456276684999457
leaf_count=687 15 42 33
internal_value=0 0.0277018 0.00611813
internal_weight=0 17.1215 14.4125
internal_count=777 90 75
is_linear=0
shrinkage=0.1


Tree=73
num_leaves=4
num_cat=0
split_feature=0 7 6
split_gain=1.45781 3.88976 2.97637
threshold=1.4360587123026229 -0.72101080129463535 1.2916117805817586
decision_type=2 2 2
left_child=2 -2 -1
right_child=1 -3 -4
leaf_value=0.00037826315290842528 0.0096332967108374197 -0.1050620100282262 0.086073875192644755
leaf_weight=141.57703687250614 8.0571967922151071 4.671081766486167 4.1723761782050124
leaf_count=698 39 20 20
internal_value=0 -0.0324581 0.00283148
internal_weight=0 12.7283 145.749
internal_count=777 59 718
is_linear=0
shrinkage=0.1


Tree=74
num_leaves=4
num_cat=0
split_feature=2 2 2
split_gain=1.54702 3.32858 1.93683
threshold=-1.6491603893972162 -1.4416906953662696 -0.6325354086446896
decision_type=2 2 2
left_child=-1 -2 -3
right_child=1 2 -4
leaf_value=0.069575898066598252 -0.10457273300663766 0.019980058750181162 -0.00592451163568696
leaf_weight=3.1322730481624594 3.0656841248273841 38.723620764911175 113.34519679844379
leaf_count=17 15 188 557
internal_value=0 -0.00140782 0.000671967
internal_weight=0 155.135 152.069
internal_count=777 760 745
is_linear=0
shrinkage=0.1


Tree=75
num_leaves=4
num_cat=0
split_feature=16 1 5
split_gain=1.37066 4.02224 3.72889
threshold=1.4862560551244439 0.15204318015756593 -2.1179479003061767
decision_type=2 2 2
left_child=2 -2 -1
right_child=1 -3 -4
leaf_value=-0.19454401821393974 0.039336131097057643 -0.10309081468474353 0.0034146151566501418
leaf_weight=0.95765680074691673 3.5495862737297994 4.4921900145709515 149.14829393476248
leaf_count=4 19 33 721
internal_value=0 -0.0402245 0.00215166
internal_weight=0 8.04178 150.106
internal_count=777 52 725
is_linear=0
shrinkage=0.1


Tree=76
num_leaves=4
num_cat=0
split_feature=20 3 6
split_gain=1.41088 2.60045 2.09983
threshold=0.84496115991739107 0.065532488792827068 -0.72101080129463535
decision_type=2 2 2
left_child=2 -2 -1
right_child=1 -3 -4
leaf_value=-0.015406934212359412 -0.018466989975447917 0.098842059583159128 0.0083884940957912098
leaf_weight=66.486061710864305 3.6588139981031409 3.9080524817109108 83.861855395138264
leaf_count=343 19 23 392
internal_value=0 0.0421195 -0.00213419
internal_weight=0 7.56687 150.348
internal_count=777 42 735
is_linear=0
shrinkage=0.1


Tree=77
num_leaves=4
num_cat=0
split_feature=1 15 1
split_gain=1.42307 5.7783 4.77265
threshold=0.88601934958837814 0.75836932595576434 1.0482005029373522
decision_type=2 2 2
left_child=1 -1 -2
right_child=2 -3 -4
leaf_value=0.0040071692291898135 0.085284457319392853 -0.058746071649029452 0.0011456071297950476
leaf_weight=81.749326400458813 7.7879290878772727 17.883187245577574 50.181698426604271
leaf_count=384 40 87 266
internal_value=0 -0.0072565 0.0124492
internal_weight=0 99.6325 57.9696
internal_count=777 471 306
is_linear=0
shrinkage=0.1


Tree=78
num_leaves=4
num_cat=0
split_feature=16 6 5
split_gain=1.38306 3.19026 4.6541
threshold=-0.7936288156800726 0.75836932595576434 -0.40250876398603569
decision_type=2 2 2
left_child=1 2 -1
right_child=-2 -3 -4
leaf_value=-0.045779669680328185 -0.0045584729501432263 0.062714487471739855 0.054337771049152286
leaf_weight=11.438216589391233 127.45869831740856 10.825097128748892 7.8159748613834408
leaf_count=57 621 59 40
internal_value=0 0.0192809 -0.00513837
internal_weight=0 30.0793 19.2542
internal_count=777 156 97
is_linear=0
shrinkage=0.1


Tree=79
num_leaves=4
num_cat=0
split_feature=0 1 11
split_gain=1.40354 1.82437 7.06151
threshold=1.8467023013934349 0.16354642225430902 -0.51689583093152902
decision_type=2 2 2
left_child=1 2 -1
right_child=-2 -3 -4
leaf_value=0.031774456318952114 -0.047389090866640747 -0.0062757011388886999 -0.070321296543708112
leaf_weight=45.808733761310577 6.0095848552882662 97.3486856110394 7.9503415226936331
leaf_count=211 29 499 38
internal_value=0 0.00188963 0.0166757
internal_weight=0 151.108 53.7591
internal_count=777 748 249
is_linear=0
shrinkage=0.1


Tree=80
num_leaves=4
num_cat=0
split_feature=22 3 3
split_gain=1.48759 1.83308 4.62498
threshold=0.84496115991739107 -0.12275610709722752 -0.20277772655004958
decision_type=2 2 2
left_child=1 2 -1
right_child=-2 -3 -4
leaf_value=0.0035192353911190702 0.059142348627657729 -0.010962089538069609 0.1043913472868109
leaf_weight=59.554113086313009 4.1411075554788104 88.276943322271109 4.9209305346012107
leaf_count=297 26 430 24
internal_value=0 -0.00160006 0.0112181
internal_weight=0 152.752 64.475
internal_count=777 751 321
is_linear=0
shrinkage=0.1


Tree=81
num_leaves=4
num_cat=0
split_feature=4 0 0
split_gain=1.36108 4.2233 3.89256
threshold=-0.35950145772853087 -0.80259653572146927 -0.76171840991538498
decision_type=2 2 2
left_child=1 -1 -2
right_child=2 -3 -4
leaf_value=0.039130621312930519 -0.020324619442288295 -0.036777686028412609 0.018001911699927382
leaf_weight=9.9834054559469205 39.741877853870392 27.571706019341946 79.527415350079536
leaf_count=57 197 146 377
internal_value=0 -0.0165987 0.00523108
internal_weight=0 37.5551 119.269
internal_count=777 203 574
is_linear=0
shrinkage=0.1


Tree=82
num_leaves=4
num_cat=0
split_feature=2 2 2
split_gain=1.30127 2.75731 1.52134
threshold=-1.6491603893972162 -1.4416906953662696 -0.6325354086446896
decision_type=2 2 2
left_child=-1 -2 -3
right_child=1 2 -4
leaf_value=0.065076654833094313 -0.096686257440412829 0.017807301696970656 -0.0052641725987919111
leaf_weight=3.0136611983180037 2.9703849181532851 38.333254605531693 112.34080217033625
leaf_count=17 15 188 557
internal_value=0 -0.00127544 0.000605482
internal_weight=0 153.644 150.674
internal_count=777 760 745
is_linear=0
shrinkage=0.1


Tree=83
num_leaves=4
num_cat=0
split_feature=0 9 24
split_gain=1.37685 2.44973 2.25228
threshold=1.5665945392886895 0.58100093893574045 3.1559663130859907
decision_type=2 2 8
left_child=2 -2 -1
right_child=1 -3 -4
leaf_value=0.01022742589189485 -0.087767832179256045 0.0093659567079371221 -0.017469177805802271
leaf_weight=105.37492228299379 4.7833719402551633 5.6790716946125031 40.701742373406887
leaf_count=519 23 27 208
internal_value=0 -0.0350431 0.00251025
internal_weight=0 10.4624 146.077
internal_count=777 50 727
is_linear=0
shrinkage=0.1


Tree=84
num_leaves=4
num_cat=0
split_feature=22 14 4
split_gain=1.40669 2.54242 2.1998
threshold=0.67371057882937502 -0.7936288156800726 -0.29652237326230463
decision_type=2 2 2
left_child=2 -2 -1
right_child=1 -3 -4
leaf_value=-0.024289932165429143 -0.03188782773226035 0.056993068287053139 0.0042496975005140263
leaf_weight=36.356226302683353 4.6859996393322954 10.275560226291415 105.03148727864027
leaf_count=193 25 57 502
internal_value=0 0.0291553 -0.00308894
internal_weight=0 14.9616 141.388
internal_count=777 82 695
is_linear=0
shrinkage=0.1


Tree=85
num_leaves=4
num_cat=0
split_feature=1 15 23
split_gain=1.4261 4.88257 4.63166
threshold=0.88601934958837814 0.75836932595576434 0.96432059253136848
decision_type=2 2 2
left_child=1 -1 -2
right_child=2 -3 -4
leaf_value=0.0031143622414862302 0.025363450731162758 -0.054806216238721728 -0.050633094016143687
leaf_weight=81.157867521047592 47.60085778310895 17.734299339354038 9.6443593427538854
leaf_count=384 257 87 49
internal_value=0 -0.00727252 0.01256
internal_weight=0 98.8922 57.2452
internal_count=777 471 306
is_linear=0
shrinkage=0.1


Tree=86
num_leaves=4
num_cat=0
split_feature=16 0 0
split_gain=1.2846 3.5385 3.20228
threshold=-0.7936288156800726 -0.9494364151261967 -0.67075434195797767
decision_type=2 2 2
left_child=1 -1 -3
right_child=-2 2 -4
leaf_value=0.080185362817401254 -0.004392545449330972 -0.080272853658288859 0.017175265206106148
leaf_weight=7.1198379918932941 126.55734360590577 4.1292770393192795 18.392503440380096
leaf_count=38 621 21 97
internal_value=0 0.0187349 -0.000691452
internal_weight=0 29.6416 22.5218
internal_count=777 156 118
is_linear=0
shrinkage=0.1


Tree=87
num_leaves=4
num_cat=0
split_feature=24 14 16
split_gain=1.19913 3.96283 2.90561
threshold=0.74701530098528302 0.67371057882937502 1.4862560551244439
decision_type=8 2 2
left_child=1 -1 -2
right_child=2 -3 -4
leaf_value=-0.017522016012936046 0.00013718347020490683 0.090955485074652592 -0.074070736986927593
leaf_weight=8.0022914558649045 136.55760075896978 5.8146436959505072 5.4884485602378836
leaf_count=37 670 29 41
internal_value=0 0.0281291 -0.0027301
internal_weight=0 13.8169 142.046
internal_count=777 66 711
is_linear=0
shrinkage=0.1


Tree=88
num_leaves=4
num_cat=0
split_feature=0 0 4
split_gain=1.21717 1.51446 4.21035
threshold=-1.6313593673557369 -1.36048775225729 0.34810273714126078
decision_type=2 2 2
left_child=-1 2 -2
right_child=1 -3 -4
leaf_value=-0.039579117705288387 0.12369057176538834 -0.00041433731373927038 -0.023097715155885851
leaf_weight=7.3993803560733786 3.6306799948215476 140.24846064299345 4.2314085066318512
leaf_count=38 20 699 20
internal_value=0 0.00197984 0.0446885
internal_weight=0 148.111 7.86209
internal_count=777 739 40
is_linear=0
shrinkage=0.1


Tree=89
num_leaves=4
num_cat=0
split_feature=22 1 14
split_gain=1.16054 2.80958 3.25759
threshold=0.67371057882937502 -0.24815668289032691 -0.7594659392072699
decision_type=2 2 2
left_child=-1 -2 -3
right_child=1 2 -4
leaf_value=-0.0027967989113349715 0.13116480814547379 -0.061391358505171426 0.045553832865611828
leaf_weight=140.58350771293044 2.1913797855377206 4.3605331256985655 8.2124097123742068
leaf_count=695 14 22 46
internal_value=0 0.0266751 0.00846323
internal_weight=0 14.7643 12.5729
internal_count=777 82 68
is_linear=0
shrinkage=0.1


Tree=90
num_leaves=4
num_cat=0
split_feature=20 3 17
split_gain=1.20793 2.97608 2.07367
threshold=0.84496115991739107 -0.23156445574845111 -0.99128462213735935
decision_type=2 2 2
left_child=2 -2 -1
right_child=1 -3 -4
leaf_value=-0.047651779695622259 -0.035865999522440108 0.094049480883648659 0.0011257353462098805
leaf_weight=9.3007594719529134 3.0251960530877113 4.2271624393761149 138.54118962958455
leaf_count=46 15 27 689
internal_value=0 0.0398575 -0.00194287
internal_weight=0 7.25236 147.842
internal_count=777 42 735
is_linear=0
shrinkage=0.1


Tree=91
num_leaves=4
num_cat=0
split_feature=2 2 20
split_gain=1.16292 1.41393 4.36231
threshold=1.3770393823739373 -0.6325354086446896 -0.99128462213735935
decision_type=2 2 2
left_child=1 2 -1
right_child=-2 -3 -4
leaf_value=-0.078155657016879307 0.039512799308893135 -0.0082313595670017725 0.024103666365488781
leaf_weight=4.6699731722474089 7.1115629747509947 104.02626234292984 39.096782475709915
leaf_count=26 35 522 194
internal_value=0 -0.00188701 0.0131925
internal_weight=0 147.793 43.7668
internal_count=777 742 220
is_linear=0
shrinkage=0.1


Tree=92
num_leaves=4
num_cat=0
split_feature=2 2 5
split_gain=1.15662 2.17842 1.26696
threshold=-1.6491603893972162 -1.4416906953662696 -0.87126053387774516
decision_type=2 2 2
left_child=-1 -2 -3
right_child=1 2 -4
leaf_value=0.062189681014801185 -0.08699300823019257 0.0091002762512661494 -0.0093840815898685748
leaf_weight=2.9348962828516951 2.9024483412504187 79.519339721649885 69.481847569346428
leaf_count=17 15 392 353
internal_value=0 -0.00119068 0.000480698
internal_weight=0 151.904 149.001
internal_count=777 760 745
is_linear=0
shrinkage=0.1


Tree=93
num_leaves=4
num_cat=0
split_feature=3 3 1
split_gain=1.15941 3.43929 2.33335
threshold=-1.3598953689017164 -1.2035790438838043 0.88601934958837814
decision_type=2 2 2
left_child=-1 -2 -3
right_child=1 2 -4
leaf_value=0.057250479660052402 -0.10819718971322796 -0.0084490120395318384 0.017785656731975928
leaf_weight=3.4593486487865439 2.9510784968733779 95.886573180556297 52.445004839450121
leaf_count=16 15 462 284
internal_value=0 -0.00130006 0.000826675
internal_weight=0 151.283 148.332
internal_count=777 761 746
is_linear=0
shrinkage=0.1


Tree=94
num_leaves=4
num_cat=0
split_feature=6 5 5
split_gain=1.10468 5.03047 7.41034
threshold=-0.72101080129463535 0.017321728930775552 0.25085027770234197
decision_type=2 2 2
left_child=-1 -2 -3
right_child=1 2 -4
leaf_value=-0.0092309014958159973 0.020830153816438341 -0.15942527738492693 -0.0054318569105959915
leaf_weight=70.506951007992029 65.444490686058998 3.9585898518562344 14.837516963481901
leaf_count=376 311 19 71
internal_value=0 0.00773409 -0.0378639
internal_weight=0 84.2406 18.7961
internal_count=777 401 90
is_linear=0
shrinkage=0.1


Tree=95
num_leaves=4
num_cat=0
split_feature=0 16 2
split_gain=1.17187 1.67867 3.71848
threshold=1.8467023013934349 -0.58024617022571501 -0.94333397318973311
decision_type=2 2 2
left_child=1 -1 -3
right_child=-2 2 -4
leaf_value=0.015721495358877305 -0.04390481614314895 0.039421911125424411 -0.014948787517251686
leaf_weight=54.376827202737331 5.8492433950304976 14.945805102586744 79.420586664229631
leaf_count=275 29 72 401
internal_value=0 0.00172671 -0.00633752
internal_weight=0 148.743 94.3664
internal_count=777 748 473
is_linear=0
shrinkage=0.1


Tree=96
num_leaves=4
num_cat=0
split_feature=1 20 0
split_gain=1.1617 3.8478 5.71988
threshold=0.16354642225430902 -0.91145194094258752 -0.43150455590529829
decision_type=2 2 2
left_child=1 2 -1
right_child=-2 -3 -4
leaf_value=0.038472362655855588 -0.0067456029884771828 0.024882885818396563 -0.096333458722382886
leaf_weight=5.6030365601181984 96.111120328307152 45.184573784470558 7.1820996105670911
leaf_count=28 502 214 33
internal_value=0 0.0111784 -0.0372553
internal_weight=0 57.9697 12.7851
internal_count=777 275 61
is_linear=0
shrinkage=0.1


Tree=97
num_leaves=4
num_cat=0
split_feature=3 1 1
split_gain=1.1722 4.43289 10.5973
threshold=-0.12275610709722752 1.580170381704822 0.89227882783634094
decision_type=2 2 2
left_child=-1 2 -2
right_child=1 -3 -4
leaf_value=0.010126928607102233 -0.018770389503499144 -0.085218754308394359 0.072291195472205763
leaf_weight=65.569532368332148 65.724973987787962 6.7794639617204657 15.864570826292036
leaf_count=332 321 42 82
internal_value=0 -0.00752019 -0.00106404
internal_weight=0 88.369 81.5895
internal_count=777 445 403
is_linear=0
shrinkage=0.1


Tree=98
num_leaves=4
num_cat=0
split_feature=1 1 3
split_gain=1.15599 3.42214 5.15499
threshold=0.16354642225430902 0.80256792907616303 1.0000000180025095e-35
decision_type=2 2 2
left_child=-1 2 -2
right_child=1 -3 -4
leaf_value=0.011147083007035763 0.011908249277942547 0.0076152198453240498 -0.065338207778755999
leaf_weight=57.922701358795166 15.339486069977282 60.774281606078148 19.778066460043192
leaf_count=275 74 327 101
internal_value=0 -0.00674497 -0.0315966
internal_weight=0 95.8918 35.1176
internal_count=777 502 175
is_linear=0
shrinkage=0.1


Tree=99
num_leaves=4
num_cat=0
split_feature=2 2 12
split_gain=1.01649 1.67549 1.33799
threshold=-1.6491603893972162 -1.4416906953662696 1.0000000180025095e-35
decision_type=2 2 2
left_child=-1 -2 -3
right_child=1 2 -4
leaf_value=0.058643820609044245 -0.077470144185572409 -0.0024486977732068259 0.032987523020969377
leaf_weight=2.8989901393651953 2.8217128217220298 136.45957841351628 11.557598665356634
leaf_count=17 15 686 59
internal_value=0 -0.00113691 0.000318262
internal_weight=0 150.839 148.017
internal_count=777 760 745
is_linear=0
shrinkage=0.1


Tree=100
num_leaves=4
num_cat=0
split_feature=0 21 6
split_gain=1.1666 3.04813 2.00846
threshold=1.5665945392886895 0.67371057882937502 1.2916117805817586
decision_type=2 2 2
left_child=2 -2 -1
right_child=1 -3 -4
leaf_value=0.00033437056138638867 -0.080136434485290245 0.030629849818826056 0.073212616818063181
leaf_weight=139.59425547346473 5.8099348098039609 4.3403509631752968 3.8868214562535277
leaf_count=707 28 22 20
internal_value=0 -0.0327718 0.0023086
internal_weight=0 10.1503 143.481
internal_count=777 50 727
is_linear=0
shrinkage=0.1


Tree=101
num_leaves=4
num_cat=0
split_feature=18 4 9
split_gain=1.09534 3.1581 3.11834
threshold=-0.86834317095281277 1.1539146037620043 0.72065841292195365
decision_type=2 2 2
left_child=1 2 -1
right_child=-2 -3 -4
leaf_value=-0.10554680800134027 0.0028235192118969705 0.052214414898714957 -0.0016147671059503809
leaf_weight=5.555111460387705 137.93850354850292 3.9311781600117675 6.0101924650371075
leaf_count=34 694 19 30
internal_value=0 -0.0252164 -0.051536
internal_weight=0 15.4965 11.5653
internal_count=777 83 64
is_linear=0
shrinkage=0.1


Tree=102
num_leaves=4
num_cat=0
split_feature=0 0 0
split_gain=1.053 4.70701 5.23966
threshold=-0.76171840991538498 -0.97538614004053259 -1.1020028506048618
decision_type=2 2 2
left_child=1 2 -1
right_child=-2 -3 -4
leaf_value=-0.01085094542986499 0.0057369467456933254 -0.057128883512370235 0.086649571506782042
leaf_weight=27.127492330968376 103.39311883971095 15.768714144825934 6.9171685203909901
leaf_count=143 517 81 36
internal_value=0 -0.0119614 0.00895914
internal_weight=0 49.8134 34.0447
internal_count=777 260 179
is_linear=0
shrinkage=0.1


Tree=103
num_leaves=4
num_cat=0
split_feature=22 2 4
split_gain=1.10663 3.4401 1.8705
threshold=0.67371057882937502 -0.54019941422292028 -0.29652237326230463
decision_type=2 2 2
left_child=2 -2 -1
right_child=1 -3 -4
leaf_value=-0.022500031686418263 0.093855564260897972 -0.0091394243999260959 0.0040776651976017894
leaf_weight=35.63615320250392 4.9533452317118636 9.3915997035801393 103.06538537889719
leaf_count=193 30 52 502
internal_value=0 0.026425 -0.00275086
internal_weight=0 14.3449 138.702
internal_count=777 82 695
is_linear=0
shrinkage=0.1


Tree=104
num_leaves=4
num_cat=0
split_feature=0 21 1
split_gain=1.07151 2.52436 1.9849
threshold=1.5665945392886895 0.67371057882937502 -0.063386437902909681
decision_type=2 2 2
left_child=2 -2 -1
right_child=1 -3 -4
leaf_value=0.021025694939969836 -0.075404483101213393 0.025880588993955123 -0.0051787656531281229
leaf_weight=40.253199256956577 5.6911312043666822 4.3351188935339451 102.54240300133824
leaf_count=191 28 22 536
internal_value=0 -0.0316112 0.00220811
internal_weight=0 10.0263 142.796
internal_count=777 50 727
is_linear=0
shrinkage=0.1


Tree=105
num_leaves=4
num_cat=0
split_feature=22 1 24
split_gain=1.0775 1.37189 2.97227
threshold=0.84496115991739107 1.869151315381812 2.5737430766385807
decision_type=2 2 8
left_child=1 -1 -3
right_child=-2 2 -4
leaf_value=0.0011213218592391954 0.052574927377320939 0.0027741788650701383 -0.11603788925628861
leaf_weight=139.53569048643112 3.7994045764207831 6.0479325428605053 3.2300943955779085
leaf_count=694 26 37 20
internal_value=0 -0.00135452 -0.0385896
internal_weight=0 148.814 9.27803
internal_count=777 751 57
is_linear=0
shrinkage=0.1


Tree=106
num_leaves=4
num_cat=0
split_feature=18 24 4
split_gain=1.01184 3.2689 3.05098
threshold=-0.86834317095281277 0.87208921344268997 0.8334798420119981
decision_type=2 8 2
left_child=1 -1 -3
right_child=-2 2 -4
leaf_value=-0.085017736810515401 0.0026965980769355297 -0.035522259488270869 0.079473450436178567
leaf_weight=5.6228792890906307 137.19080623239279 5.6976627632975578 3.877102255821228
leaf_count=32 694 32 19
internal_value=0 -0.024498 0.0110429
internal_weight=0 15.1976 9.57477
internal_count=777 83 51
is_linear=0
shrinkage=0.1


Tree=107
num_leaves=4
num_cat=0
split_feature=16 0 4
split_gain=1.05067 2.92639 2.8184
threshold=-0.7936288156800726 -0.9494364151261967 0.66701449032853954
decision_type=2 2 2
left_child=1 -1 -3
right_child=-2 2 -4
leaf_value=0.075421659772344066 -0.0040149859968401464 0.022619953861118949 -0.05615219093042511
leaf_weight=6.6406109556555775 123.68159399926662 15.59760518372059 6.4082167968153945
leaf_count=38 621 84 34
internal_value=0 0.0172387 -0.000318929
internal_weight=0 28.6464 22.0058
internal_count=777 156 118
is_linear=0
shrinkage=0.1


Tree=108
num_leaves=4
num_cat=0
split_feature=0 2 6
split_gain=1.02602 5.55365 4.27609
threshold=-0.76171840991538498 0.56573784468355204 -0.72101080129463535
decision_type=2 2 2
left_child=1 2 -1
right_child=-2 -3 -4
leaf_value=-0.027285428724184914 0.0056805002837461982 -0.06998761535414498 0.040777041104792341
leaf_weight=18.048971358686686 102.75075828656554 12.328930824995039 18.892832554876804
leaf_count=99 517 65 96
internal_value=0 -0.0118722 0.00752318
internal_weight=0 49.2707 36.9418
internal_count=777 260 195
is_linear=0
shrinkage=0.1


Tree=109
num_leaves=4
num_cat=0
split_feature=2 2 6
split_gain=1.04089 1.15105 4.87677
threshold=1.3770393823739373 -0.6325354086446896 0.84496115991739107
decision_type=2 2 2
left_child=1 2 -1
right_child=-2 -3 -4
leaf_value=0.026112645574568286 0.037565818076252484 -0.007602031992670461 -0.068690342906945062
leaf_weight=36.322611294686794 7.0301514416933051 102.09679397568107 6.379048563539981
leaf_count=189 35 522 31
internal_value=0 -0.00183595 0.0119504
internal_weight=0 144.798 42.7017
internal_count=777 742 220
is_linear=0
shrinkage=0.1


Tree=110
num_leaves=4
num_cat=0
split_feature=3 3 1
split_gain=0.961439 2.93813 1.61044
threshold=-1.3598953689017164 -1.2035790438838043 0.88601934958837814
decision_type=2 2 2
left_child=-1 -2 -3
right_child=1 2 -4
leaf_value=0.052499163100270578 -0.10202738411986761 -0.0070104888624097283 0.015010183653663002
leaf_weight=3.408537119626998 2.8358585685491553 94.27746620029211 51.273019418120384
leaf_count=16 15 462 284
internal_value=0 -0.00121742 0.000746726
internal_weight=0 148.386 145.55
internal_count=777 761 746
is_linear=0
shrinkage=0.1


Tree=111
num_leaves=4
num_cat=0
split_feature=5 5 3
split_gain=1.00749 8.28924 4.39603
threshold=0.062167150923119807 0.22744109871695511 1.274100681497518
decision_type=2 2 2
left_child=-1 -2 -3
right_child=1 2 -4
leaf_value=0.0044327997835466731 -0.14085333416491866 -0.011435142382349411 0.098259752160769431
leaf_weight=116.95040513202548 4.5461648777127257 26.030409537255768 4.2497727796435347
leaf_count=594 24 138 21
internal_value=0 -0.0149434 0.00396035
internal_weight=0 34.8263 30.2802
internal_count=777 183 159
is_linear=0
shrinkage=0.1


Tree=112
num_leaves=4
num_cat=0
split_feature=24 14 16
split_gain=0.950737 3.52275 2.38645
threshold=0.74701530098528302 0.67371057882937502 1.4862560551244439
decision_type=8 2 2
left_child=1 -1 -2
right_child=2 -3 -4
leaf_value=-0.018036857686705043 8.2601367176755869e-05 0.085222667881021189 -0.069454449955894601
leaf_weight=7.8831887990236265 132.89312547445297 5.6874976679682732 5.1257314272224894
leaf_count=37 670 29 41
internal_value=0 0.0252394 -0.00249986
internal_weight=0 13.5707 138.019
internal_count=777 66 711
is_linear=0
shrinkage=0.1


Tree=113
num_leaves=4
num_cat=0
split_feature=5 0 0
split_gain=0.946973 6.42848 6.43301
threshold=-1.5420362747816871 -0.16875791807129817 0.24053383712758977
decision_type=2 2 2
left_child=1 -1 -3
right_child=-2 2 -4
leaf_value=0.073486269121579045 -0.0042021889338060394 -0.10060850915960579 0.018758243070810029
leaf_weight=11.968003533780573 118.18964047729969 6.5446322895586517 14.557685084640978
leaf_count=60 615 34 68
internal_value=0 0.0149413 -0.0182619
internal_weight=0 33.0703 21.1023
internal_count=777 162 102
is_linear=0
shrinkage=0.1


Tree=114
num_leaves=4
num_cat=0
split_feature=22 1 10
split_gain=0.95265 1.289 2.24108
threshold=0.84496115991739107 1.869151315381812 0.75836932595576434
decision_type=2 2 2
left_child=1 -1 -3
right_child=-2 2 -4
leaf_value=0.0011105887431564205 0.049793187060929521 -0.083439098609791998 0.016338128068141385
leaf_weight=138.48554446548223 3.7446191832423201 4.9216398634016496 4.1486490145325661
leaf_count=694 26 29 28
internal_value=0 -0.00128138 -0.0378021
internal_weight=0 147.556 9.07029
internal_count=777 751 57
is_linear=0
shrinkage=0.1


Tree=115
num_leaves=4
num_cat=0
split_feature=16 0 0
split_gain=0.920751 2.51339 2.89353
threshold=-0.7936288156800726 -0.9494364151261967 -0.71799586860544296
decision_type=2 2 2
left_child=1 -1 -3
right_child=-2 2 -4
leaf_value=0.071371545447529758 -0.0037627360158606843 -0.085340221535281341 0.01559991469070842
leaf_weight=6.4001434743404415 122.85641907900572 3.3540070950984981 18.52662380412221
leaf_count=38 621 16 102
internal_value=0 0.0162503 0.000127146
internal_weight=0 28.2808 21.8806
internal_count=777 156 118
is_linear=0
shrinkage=0.1


Tree=116
num_leaves=4
num_cat=0
split_feature=5 5 5
split_gain=0.896157 1.88098 5.95637
threshold=1.2764756705604217 0.062167150923119807 0.22744109871695511
decision_type=2 2 2
left_child=1 -1 -3
right_child=-2 2 -4
leaf_value=0.0039768714614052889 0.036804274950048392 -0.13233695017264119 -0.0051110202588937614
leaf_weight=116.42722883820534 6.3346534967422476 4.3564091809093979 23.694828510284424
leaf_count=594 31 24 128
internal_value=0 -0.00162379 -0.0248694
internal_weight=0 144.478 28.0512
internal_count=777 746 152
is_linear=0
shrinkage=0.1


Tree=117
num_leaves=4
num_cat=0
split_feature=3 3 7
split_gain=0.942896 2.2668 4.34278
threshold=-1.3598953689017164 -0.99814837455376748 -0.83195498553812708
decision_type=2 2 2
left_child=-1 2 -2
right_child=1 -3 -4
leaf_value=0.052623126246881272 0.010490804421638883 0.0020769522892387193 -0.12503458870295323
leaf_weight=3.3278308287262908 5.469366230070591 137.69787881523371 4.1649531871080381
leaf_count=16 27 713 21
internal_value=0 -0.00120404 -0.0480973
internal_weight=0 147.332 9.63432
internal_count=777 761 48
is_linear=0
shrinkage=0.1


Tree=118
num_leaves=4
num_cat=0
split_feature=3 3 15
split_gain=0.917346 3.58574 3.92029
threshold=-0.12275610709722752 -0.20277772655004958 -0.73605315509883995
decision_type=2 2 2
left_child=1 2 -1
right_child=-2 -3 -4
leaf_value=0.028126709420382645 -0.0067474790841163951 0.092341240881999589 -0.02325260615751476
leaf_weight=29.577794957906008 86.378538019955158 4.7820102646946898 29.825340505689383
leaf_count=157 445 24 151
internal_value=0 0.00903614 0.00233
internal_weight=0 64.1851 59.4031
internal_count=777 332 308
is_linear=0
shrinkage=0.1


Tree=119
num_leaves=4
num_cat=0
split_feature=0 14 6
split_gain=0.898541 2.39099 4.38597
threshold=1.2970053858939863 -0.7594659392072699 0.75836932595576434
decision_type=2 2 2
left_child=-1 -2 -3
right_child=1 2 -4
leaf_value=0.0025045603738000403 0.035593945411984677 0.011033803100603003 -0.12250176369078636
leaf_weight=136.03248023986816 4.63375100493431 5.2548108808696252 4.6240351945161819
leaf_count=706 23 25 23
internal_value=0 -0.0236717 -0.0514708
internal_weight=0 14.5126 9.87885
internal_count=777 71 48
is_linear=0
shrinkage=0.1


Tree=120
num_leaves=4
num_cat=0
split_feature=6 5 5
split_gain=0.887852 3.57965 4.28927
threshold=-0.72101080129463535 0.017321728930775552 -0.60097016302869755
decision_type=2 2 2
left_child=-1 2 -2
right_child=1 -3 -4
leaf_value=-0.0084288786764062911 0.0041166684116371501 -0.032361339552957794 0.066075856988280224
leaf_weight=68.463379971683025 49.550828352570534 18.028254568576813 14.425912104547022
leaf_count=376 242 90 69
internal_value=0 0.00699677 0.0180876
internal_weight=0 82.005 63.9767
internal_count=777 401 311
is_linear=0
shrinkage=0.1


Tree=121
num_leaves=4
num_cat=0
split_feature=22 9 14
split_gain=0.902494 3.05486 2.47475
threshold=0.67371057882937502 -0.7936288156800726 0.76913824077153692
decision_type=2 2 2
left_child=-1 2 -2
right_child=1 -3 -4
leaf_value=-0.0024922962495089991 -0.078729814065264775 0.072521003273933723 0.038970653768941245
leaf_weight=136.51634187065065 3.6604588106274605 6.7471243366599065 3.4891826771199703
leaf_count=695 21 39 22
internal_value=0 0.0242572 -0.0212894
internal_weight=0 13.8968 7.14964
internal_count=777 82 43
is_linear=0
shrinkage=0.1


Tree=122
num_leaves=4
num_cat=0
split_feature=18 0 20
split_gain=0.887549 2.41398 1.52682
threshold=-0.86834317095281277 0.24053383712758977 0.76913824077153692
decision_type=2 2 2
left_child=1 -1 -2
right_child=2 -3 -4
leaf_value=-0.063768411776086983 -0.0010128723740650957 0.016904403456269299 0.034376072125014277
leaf_weight=7.3820518478751165 121.75479378737509 7.4550585709512234 13.547936391085384
leaf_count=46 617 37 77
internal_value=0 -0.0232335 0.00253064
internal_weight=0 14.8371 135.303
internal_count=777 83 694
is_linear=0
shrinkage=0.1


Tree=123
num_leaves=4
num_cat=0
split_feature=0 14 0
split_gain=0.865359 1.9032 1.49712
threshold=1.2970053858939863 -0.7594659392072699 1.0197803800822889
decision_type=2 2 2
left_child=2 -2 -1
right_child=1 -3 -4
leaf_value=0.00039093561398121518 0.029550007413303644 -0.048344386123232157 0.055876796751664105
leaf_weight=130.49830414541066 4.6201657429337493 9.7690329030156118 5.0510960668325415
leaf_count=682 23 48 24
internal_value=0 -0.0233336 0.00245855
internal_weight=0 14.3892 135.549
internal_count=777 71 706
is_linear=0
shrinkage=0.1


Tree=124
num_leaves=4
num_cat=0
split_feature=3 3 24
split_gain=0.858003 3.06183 1.55357
threshold=1.8431980842935489 1.6951139700461593 0.74701530098528302
decision_type=2 2 8
left_child=1 2 -1
right_child=-2 -3 -4
leaf_value=0.033312499984951303 -0.033665331069331297 0.082707572517004696 -0.0042453699233523049
leaf_weight=12.068012580275534 7.2129585072398177 4.5164860151708117 126.05386061780155
leaf_count=59 36 24 658
internal_value=0 0.00168551 -0.000963856
internal_weight=0 142.638 138.122
internal_count=777 741 717
is_linear=0
shrinkage=0.1


Tree=125
num_leaves=4
num_cat=0
split_feature=2 2 14
split_gain=0.868392 1.20183 1.006
threshold=-1.6491603893972162 -1.4416906953662696 -0.90618008368422187
decision_type=2 2 2
left_child=-1 -2 -3
right_child=1 2 -4
leaf_value=0.054684916517444365 -0.068501990695225598 -0.029385636935786691 0.0025014625648618685
leaf_weight=2.8473573029041281 2.596589893102645 10.685052141547201 133.62255798839033
leaf_count=17 15 55 690
internal_value=0 -0.00107285 0.000140428
internal_weight=0 146.904 144.308
internal_count=777 760 745
is_linear=0
shrinkage=0.1


Tree=126
num_leaves=4
num_cat=0
split_feature=2 1 10
split_gain=0.850669 3.73249 5.98495
threshold=-0.6325354086446896 1.1815308758771887 0.75836932595576434
decision_type=2 2 2
left_child=1 -1 -3
right_child=-2 2 -4
leaf_value=-0.0056205178097198218 -0.0047136283558991514 -0.023924359498505302 0.12600861811510891
leaf_weight=30.997932523488998 107.75268703140318 4.6235029809176904 6.2766300365328789
leaf_count=157 557 27 36
internal_value=0 0.0120786 0.0624116
internal_weight=0 41.8981 10.9001
internal_count=777 220 63
is_linear=0
shrinkage=0.1


Tree=127
num_leaves=4
num_cat=0
split_feature=2 8 13
split_gain=0.868777 1.0044 3.54555
threshold=1.3770393823739373 -0.63375969704382451 1.8480765298828299
decision_type=2 2 2
left_child=1 2 -1
right_child=-2 -3 -4
leaf_value=0.029577844357403595 0.034582004205851224 -0.0061456570217488394 -0.058902659208567937
leaf_weight=25.901679567992691 6.9229963049292556 111.34543897025287 5.4885150492191306
leaf_count=126 35 589 27
internal_value=0 -0.00169168 0.0141072
internal_weight=0 142.736 31.3902
internal_count=777 742 153
is_linear=0
shrinkage=0.1


Tree=128
num_leaves=4
num_cat=0
split_feature=16 1 1
split_gain=0.945228 4.79387 3.77912
threshold=1.0000000180025095e-35 -0.87965275420374556 -0.031228986234265847
decision_type=2 2 2
left_child=1 -1 -3
right_child=-2 2 -4
leaf_value=-0.10272141435933713 -0.0062282842941639004 0.079725109520639076 0.0062018240248749804
leaf_weight=3.5289113447070113 92.84344014711678 8.2778855264186841 44.970643911510706
leaf_count=17 481 50 229
internal_value=0 0.0101512 0.0176316
internal_weight=0 56.7774 53.2485
internal_count=777 296 279
is_linear=0
shrinkage=0.1


Tree=129
num_leaves=4
num_cat=0
split_feature=4 0 10
split_gain=0.836454 3.60962 2.96468
threshold=-0.29652237326230463 -0.80259653572146927 0.96432059253136848
decision_type=2 2 2
left_child=1 -1 -2
right_child=2 -3 -4
leaf_value=0.04008957927392387 0.0009571380706762787 -0.030761493922152935 0.082383826015890588
leaf_weight=9.6309340856969339 106.55443117395043 28.378968389704823 4.6672568544745436
leaf_count=60 535 159 23
internal_value=0 -0.0128093 0.00437409
internal_weight=0 38.0099 111.222
internal_count=777 219 558
is_linear=0
shrinkage=0.1


Tree=130
num_leaves=4
num_cat=0
split_feature=5 0 0
split_gain=0.820563 1.53524 3.12806
threshold=1.2764756705604217 -0.76171840991538498 -0.97538614004053259
decision_type=2 2 2
left_child=1 2 -1
right_child=-2 -3 -4
leaf_value=0.0013172460256341155 0.035427981170513115 0.0053620794014502884 -0.055684466522731693
leaf_weight=29.817779581993818 6.2618680596351615 98.84971928037703 14.217565748840569
leaf_count=164 31 506 76
internal_value=0 -0.00155636 -0.0170867
internal_weight=0 142.885 44.0353
internal_count=777 746 240
is_linear=0
shrinkage=0.1


Tree=131
num_leaves=4
num_cat=0
split_feature=22 1 14
split_gain=0.865868 2.94015 3.99732
threshold=0.63950586116782737 -0.24815668289032691 0.67371057882937502
decision_type=2 2 2
left_child=-1 -2 -3
right_child=1 2 -4
leaf_value=-0.0025847756553417194 0.13276719460497197 -0.059444564242599252 0.05192297623247806
leaf_weight=133.71433472260833 2.0889480337500581 5.5605357624590361 7.6665014885365963
leaf_count=687 15 32 43
internal_value=0 0.0225168 0.00510499
internal_weight=0 15.316 13.227
internal_count=777 90 75
is_linear=0
shrinkage=0.1


Tree=132
num_leaves=4
num_cat=0
split_feature=3 3 8
split_gain=0.845808 1.87946 6.14309
threshold=-1.3598953689017164 -0.99814837455376748 0.72065841292195365
decision_type=2 2 2
left_child=-1 2 -2
right_child=1 -3 -4
leaf_value=0.05003265342932442 -0.13493332948903414 0.0018621759004193628 0.02745031502117928
leaf_weight=3.3042649775743476 4.1723104789853078 136.06673905439675 5.275315098464489
leaf_count=16 22 713 26
internal_value=0 -0.0011325 -0.0442624
internal_weight=0 145.514 9.44763
internal_count=777 761 48
is_linear=0
shrinkage=0.1


Tree=133
num_leaves=4
num_cat=0
split_feature=0 16 2
split_gain=0.83148 1.38227 3.0917
threshold=1.8467023013934349 -0.58024617022571501 -0.94333397318973311
decision_type=2 2 2
left_child=1 -1 -3
right_child=-2 2 -4
leaf_value=0.014503887161018969 -0.038058538100348781 0.036539421889848427 -0.013913391615987938
leaf_weight=51.849186412990093 5.5285454615950576 14.425108086317776 76.867105551064014
leaf_count=275 29 72 401
internal_value=0 0.00146441 -0.00594133
internal_weight=0 143.141 91.2922
internal_count=777 748 473
is_linear=0
shrinkage=0.1


Tree=134
num_leaves=4
num_cat=0
split_feature=3 3 4
split_gain=0.780532 5.32392 7.01946
threshold=-0.28443033636418596 -0.47272320320845729 1.3472322940348198
decision_type=2 2 2
left_child=1 2 -1
right_child=-2 -3 -4
leaf_value=-0.019848106098548431 -0.0053133412543843626 0.073502178412126737 0.11960490443761906
leaf_weight=37.14622113853693 96.567284839227796 10.492520812898873 3.9979906231164923
leaf_count=199 507 52 19
internal_value=0 0.00991775 -0.00629743
internal_weight=0 51.6367 41.1442
internal_count=777 270 218
is_linear=0
shrinkage=0.1


Tree=135
num_leaves=4
num_cat=0
split_feature=2 1 1
split_gain=0.809217 1.01226 3.67205
threshold=1.3770393823739373 0.88601934958837814 1.0482005029373522
decision_type=2 2 2
left_child=1 -1 -3
right_child=-2 2 -4
leaf_value=-0.0082229388819792769 0.033454183479134161 0.078906760357204245 -0.00065968694829673577
leaf_weight=88.003422774374485 6.89109132438898 6.6254974082112303 46.569411909207702
leaf_count=440 35 37 265
internal_value=0 -0.00164004 0.00925042
internal_weight=0 141.198 53.1949
internal_count=777 742 302
is_linear=0
shrinkage=0.1


Tree=136
num_leaves=4
num_cat=0
split_feature=22 5 0
split_gain=0.761785 2.20035 1.6337
threshold=0.63950586116782737 -0.49893918851859947 -0.7950012228440021
decision_type=2 2 2
left_child=-1 2 -2
right_child=1 -3 -4
leaf_value=-0.0024197220412706198 -0.064896059281552232 0.090394957089444436 0.021934943718949856
leaf_weight=132.94531306251884 2.8918113335967055 3.5297679975628844 8.6428663507103902
leaf_count=687 15 23 52
internal_value=0 0.0213076 0.000165902
internal_weight=0 15.0644 11.5347
internal_count=777 90 67
is_linear=0
shrinkage=0.1


Tree=137
num_leaves=4
num_cat=0
split_feature=1 11 6
split_gain=0.807477 4.8516 3.42705
threshold=0.16354642225430902 -0.51689583093152902 0.60433397484625362
decision_type=2 2 2
left_child=1 2 -1
right_child=-2 -3 -4
leaf_value=0.058163598071738903 -0.005749388367263567 -0.064824620119740023 0.0019533091071507543
leaf_weight=16.497476853430271 92.113079283386469 7.5875282175838938 31.664994407445192
leaf_count=84 502 38 153
internal_value=0 0.00949857 0.0212075
internal_weight=0 55.75 48.1625
internal_count=777 275 237
is_linear=0
shrinkage=0.1


Tree=138
num_leaves=4
num_cat=0
split_feature=6 5 5
split_gain=0.797339 3.01855 3.98629
threshold=-0.72101080129463535 0.017321728930775552 0.25085027770234197
decision_type=2 2 2
left_child=-1 -2 -3
right_child=1 2 -4
leaf_value=-0.0080714107753391377 0.016950217962937896 -0.12449348989742315 -0.0060463660861863992
leaf_weight=66.950753210112453 63.020376712083817 3.5508861839771297 14.218702010810373
leaf_count=376 311 19 71
internal_value=0 0.00668617 -0.0297156
internal_weight=0 80.79 17.7696
internal_count=777 401 90
is_linear=0
shrinkage=0.1


Tree=139
num_leaves=4
num_cat=0
split_feature=3 3 16
split_gain=0.771887 2.47341 2.65599
threshold=1.8431980842935489 1.6951139700461593 1.4862560551244439
decision_type=2 2 2
left_child=1 2 -1
right_child=-2 -3 -4
leaf_value=0.0023277263022771257 -0.032203715474791436 0.075352813989336465 -0.063798483116779089
leaf_weight=129.687241461128 7.087993659079074 4.4067299105226985 6.3725259434431782
leaf_count=668 36 24 49
internal_value=0 0.00161874 -0.000769376
internal_weight=0 140.466 136.06
internal_count=777 741 717
is_linear=0
shrinkage=0.1


Tree=140
num_leaves=4
num_cat=0
split_feature=18 24 4
split_gain=0.757084 2.87835 2.66475
threshold=-0.86834317095281277 0.87208921344268997 0.5361069369827095
decision_type=2 8 2
left_child=1 -1 -3
right_child=-2 2 -4
leaf_value=-0.080918855430767767 0.002345892502751433 -0.041373922947263247 0.066816249665259619
leaf_weight=5.2356892414391014 132.98435837961733 4.6034840978682041 4.5038914456963539
leaf_count=32 694 28 23
internal_value=0 -0.0218361 0.0121296
internal_weight=0 14.3431 9.10738
internal_count=777 83 51
is_linear=0
shrinkage=0.1


Tree=141
num_leaves=4
num_cat=0
split_feature=9 0 3
split_gain=0.754261 1.2185 1.76698
threshold=0.96432059253136848 1.3360415542071002 -0.52804755437821782
decision_type=2 2 2
left_child=1 -1 -3
right_child=-2 2 -4
leaf_value=0.0014431785070589823 0.036989486873324449 -0.082742673497246677 -0.0032503642977897099
leaf_weight=129.74449132569134 5.3106309100985518 4.3495159298181534 7.8304047323763353
leaf_count=689 26 22 40
internal_value=0 -0.0013958 -0.0316375
internal_weight=0 141.924 12.1799
internal_count=777 751 62
is_linear=0
shrinkage=0.1


Tree=142
num_leaves=4
num_cat=0
split_feature=3 1 1
split_gain=0.743592 3.25839 7.22535
threshold=-0.12275610709722752 1.580170381704822 0.89227882783634094
decision_type=2 2 2
left_child=-1 2 -2
right_child=1 -3 -4
leaf_value=0.0082346270553420291 -0.015621806137449585 -0.076204330217168118 0.060937992028252369
leaf_weight=62.737927068024874 62.955180160701275 6.1535791158676139 15.328391231596468
leaf_count=332 321 42 82
internal_value=0 -0.00613855 -0.00063094
internal_weight=0 84.4372 78.2836
internal_count=777 445 403
is_linear=0
shrinkage=0.1


Tree=143
num_leaves=4
num_cat=0
split_feature=1 11 5
split_gain=0.761056 3.91676 3.12202
threshold=0.16354642225430902 -0.51689583093152902 -0.84990430720264765
decision_type=2 2 2
left_child=1 2 -1
right_child=-2 -3 -4
leaf_value=0.044187758760321577 -0.0056108720028380469 -0.057816063227286801 -0.0069252182499034646
leaf_weight=25.01968839392066 91.586797695606947 7.5285197719931594 22.876782290637493
leaf_count=123 502 38 114
internal_value=0 0.00923533 0.0197747
internal_weight=0 55.425 47.8965
internal_count=777 275 237
is_linear=0
shrinkage=0.1


Tree=144
num_leaves=4
num_cat=0
split_feature=22 6 18
split_gain=0.824376 1.04898 4.53984
threshold=0.84496115991739107 -0.72101080129463535 2.1410499733388231
decision_type=2 2 2
left_child=1 2 -1
right_child=-2 -3 -4
leaf_value=-0.017359904766403349 0.047632216689251015 0.006488008245052604 0.096311583380370325
leaf_weight=60.191230999305844 3.5439337752759448 79.363746866583824 3.7312844097614279
leaf_count=337 26 395 19
internal_value=0 -0.00119087 -0.0107247
internal_weight=0 143.286 63.9225
internal_count=777 751 356
is_linear=0
shrinkage=0.1


Tree=145
num_leaves=4
num_cat=0
split_feature=2 2 2
split_gain=0.762288 0.896342 1.01827
threshold=-1.6491603893972162 -1.4416906953662696 -1.3274982172089675
decision_type=2 2 2
left_child=-1 -2 -3
right_child=1 2 -4
leaf_value=0.052115024196802022 -0.061048041944400624 0.056876261883100382 -0.001236758541437886
leaf_weight=2.7529407739639273 2.4442182742059222 3.0824392884969702 138.24158980511129
leaf_count=17 15 15 730
internal_value=0 -0.00100765 3.07531e-05
internal_weight=0 143.768 141.324
internal_count=777 760 745
is_linear=0
shrinkage=0.1


Tree=146
num_leaves=4
num_cat=0
split_feature=22 1 13
split_gain=0.738347 2.08244 2.59518
threshold=0.63950586116782737 -0.085289968844529787 0.72065841292195365
decision_type=2 2 2
left_child=-1 -2 -3
right_child=1 2 -4
leaf_value=-0.0023910113870974116 0.094106605416917011 0.038035240446541774 -0.05937313462241111
leaf_weight=131.6304891500622 3.0954626984894285 7.3704566769301856 4.3489826843142509
leaf_count=687 23 41 26
internal_value=0 0.0211563 0.00188783
internal_weight=0 14.8149 11.7194
internal_count=777 90 67
is_linear=0
shrinkage=0.1


Tree=147
num_leaves=4
num_cat=0
split_feature=16 0 4
split_gain=0.786106 2.14514 2.224
threshold=-0.7936288156800726 -0.9494364151261967 0.46403514405410767
decision_type=2 2 2
left_child=1 -1 -3
right_child=-2 2 -4
leaf_value=0.068561232696344218 -0.0034943487248961002 0.025838021634578618 -0.041032161732602795
leaf_weight=5.9250441938638714 119.26074508205056 13.112314358353617 8.012944355607031
leaf_count=38 621 75 43
internal_value=0 0.0153875 0.000473738
internal_weight=0 27.0503 21.1253
internal_count=777 156 118
is_linear=0
shrinkage=0.1


Tree=148
num_leaves=4
num_cat=0
split_feature=3 24 4
split_gain=0.728786 3.08753 2.85693
threshold=-0.12275610709722752 2.5737430766385807 0.095320236546469761
decision_type=2 10 2
left_child=1 -1 -3
right_child=-2 2 -4
leaf_value=0.017232632581846801 -0.0061034259921482472 -0.10471180330845797 0.0087210593065933095
leaf_weight=53.565937994047999 83.580049950629473 4.3197688981890661 4.5685986578464508
leaf_count=292 445 20 20
internal_value=0 0.00817549 -0.0464076
internal_weight=0 62.4543 8.88837
internal_count=777 332 40
is_linear=0
shrinkage=0.1


Tree=149
num_leaves=4
num_cat=0
split_feature=16 18 9
split_gain=0.729512 2.94947 3.09547
threshold=1.0000000180025095e-35 0.6067930019020914 -0.72101080129463535
decision_type=2 2 2
left_child=1 -1 -3
right_child=-2 2 -4
leaf_value=0.047749453958177313 -0.0055071094872081276 0.022166371784467787 -0.033068424793630508
leaf_weight=14.523761969059704 90.87068728916347 20.814274776726961 19.795825894922018
leaf_count=72 481 120 104
internal_value=0 0.00907359 -0.00475842
internal_weight=0 55.1339 40.6101
internal_count=777 296 224
is_linear=0
shrinkage=0.1


Tree=150
num_leaves=4
num_cat=0
split_feature=2 14 6
split_gain=0.692567 3.71711 6.38117
threshold=-0.6325354086446896 -0.67148219427361477 0.75836932595576434
decision_type=2 2 2
left_child=1 -1 -3
right_child=-2 2 -4
leaf_value=0.041841777789153808 -0.0042880362345417344 0.012118194068962744 -0.11892254602903976
leaf_weight=19.984597254544497 105.01158057153225 15.84018797054887 4.8551079183816901
leaf_count=104 557 88 28
internal_value=0 0.0110808 -0.0186239
internal_weight=0 40.6799 20.6953
internal_count=777 220 116
is_linear=0
shrinkage=0.1


Tree=151
num_leaves=4
num_cat=0
split_feature=0 12 2
split_gain=0.747996 3.23427 3.03875
threshold=-0.58206891408534223 -0.68414657339753282 0.14646373755721617
decision_type=2 2 2
left_child=1 2 -1
right_child=-2 -3 -4
leaf_value=0.0019619462392181908 0.0058536483601967886 0.04276945105307034 -0.048888825611403855
leaf_weight=27.7673379778862 87.330925334244967 10.066137462854384 20.374586710706353
leaf_count=154 456 51 116
internal_value=0 -0.00878037 -0.0195591
internal_weight=0 58.2081 48.1419
internal_count=777 321 270
is_linear=0
shrinkage=0.1


Tree=152
num_leaves=4
num_cat=0
split_feature=21 0 16
split_gain=0.714075 2.84515 1.13793
threshold=-0.99128462213735935 -0.30440719853085196 0.8033011172443395
decision_type=2 2 2
left_child=1 -1 -2
right_child=2 -3 -4
leaf_value=0.094449883903067369 0.0020566781517774627 -0.024641654927552461 -0.023742423994683917
leaf_weight=3.6409433707594872 117.22474081814289 4.4675413630902749 20.015716016292572
leaf_count=19 606 25 127
internal_value=0 0.0288339 -0.00170597
internal_weight=0 8.10848 137.24
internal_count=777 44 733
is_linear=0
shrinkage=0.1


Tree=153
num_leaves=4
num_cat=0
split_feature=0 0 0
split_gain=0.669961 1.26529 2.69005
threshold=-1.6313593673557369 -1.3941525776094819 -1.2411748399822822
decision_type=2 2 2
left_child=-1 -2 -3
right_child=1 2 -4
leaf_value=-0.030486451726712202 0.0453847913761595 -0.06426746493822523 0.0026223877467527711
leaf_weight=6.8694182783365241 6.2745174393057814 6.3141510263085356 125.75838760472834
leaf_count=38 34 35 670
internal_value=0 0.00150896 -0.000575496
internal_weight=0 138.347 132.073
internal_count=777 739 705
is_linear=0
shrinkage=0.1


Tree=154
num_leaves=4
num_cat=0
split_feature=1 1 1
split_gain=0.682258 1.84661 3.96392
threshold=-1.0852337714281963 -0.59308537943937778 -0.24815668289032691
decision_type=2 2 2
left_child=-1 -2 -3
right_child=1 2 -4
leaf_value=0.030127544794079471 -0.032042925581529817 0.051980898474896856 -0.0038591937191565576
leaf_weight=7.144034430384635 17.377030123025179 14.440999288111923 106.21287851966918
leaf_count=33 84 76 584
internal_value=0 -0.00156524 0.00282428
internal_weight=0 138.031 120.654
internal_count=777 744 660
is_linear=0
shrinkage=0.1


Tree=155
num_leaves=4
num_cat=0
split_feature=18 24 4
split_gain=0.674964 2.50611 2.24151
threshold=-0.86834317095281277 0.87208921344268997 0.5361069369827095
decision_type=2 8 2
left_child=1 -1 -3
right_child=-2 2 -4
leaf_value=-0.077384304382222699 0.0022249788630417139 -0.038959942329145104 0.061198551239647153
leaf_weight=5.0275027211755487 130.99065745994449 4.4912472777068615 4.446657806634903
leaf_count=32 694 28 23
internal_value=0 -0.0209016 0.0108695
internal_weight=0 13.9654 8.93791
internal_count=777 83 51
is_linear=0
shrinkage=0.1


Tree=156
num_leaves=4
num_cat=0
split_feature=2 17 4
split_gain=0.699902 0.795118 2.40282
threshold=1.3770393823739373 -0.99128462213735935 -0.029997886237921097
decision_type=2 2 2
left_child=1 2 -1
right_child=-2 -3 -4
leaf_value=0.022739315885478065 0.031458337029237803 0.00073027056436840898 -0.069488877671746288
leaf_weight=5.2505282238125801 6.7406717687845221 126.75219818018377 6.114501051604746
leaf_count=31 35 680 31
internal_value=0 -0.00154168 -0.0268804
internal_weight=0 138.117 11.365
internal_count=777 742 62
is_linear=0
shrinkage=0.1


Tree=157
num_leaves=4
num_cat=0
split_feature=1 1 7
split_gain=0.651631 4.66461 4.21839
threshold=1.1912415530732414 1.0482005029373522 -0.68414657339753282
decision_type=2 2 2
left_child=1 -1 -2
right_child=2 -3 -4
leaf_value=0.00038198205249217169 0.022829269228839124 -0.10181093235641024 -0.074025374445289213
leaf_weight=99.168503986671567 35.826351759955287 4.6772340908646575 5.1422688327729693
leaf_count=511 214 25 27
internal_value=0 -0.00422081 0.0106723
internal_weight=0 103.846 40.9686
internal_count=777 536 241
is_linear=0
shrinkage=0.1


Tree=158
num_leaves=4
num_cat=0
split_feature=1 0 1
split_gain=0.667116 2.77914 2.0154
threshold=1.869151315381812 -0.63119328814180187 1.8010109129179026
decision_type=2 2 2
left_child=2 -2 -1
right_child=1 -3 -4
leaf_value=-0.00038468583870988004 -0.096430823392586004 0.018783355432158547 0.072428733674769846
leaf_weight=132.0822155829519 3.4623403418809175 5.2960865106433612 3.9139966592192641
leaf_count=695 24 36 22
internal_value=0 -0.0267626 0.0017109
internal_weight=0 8.75843 135.996
internal_count=777 60 717
is_linear=0
shrinkage=0.1


Tree=159
num_leaves=4
num_cat=0
split_feature=2 2 14
split_gain=0.667431 0.782828 1.87051
threshold=-1.6491603893972162 -1.2701400073438709 -0.90618008368422187
decision_type=2 2 2
left_child=-1 -2 -3
right_child=1 2 -4
leaf_value=0.048957267357537276 -0.033271852217015167 -0.042211085409967569 0.0039772200001613961
leaf_weight=2.7302961498498908 7.1210507228970519 9.4269373901188356 125.41984879784286
leaf_count=17 39 51 670
internal_value=0 -0.000958171 0.000748265
internal_weight=0 141.968 134.847
internal_count=777 760 721
is_linear=0
shrinkage=0.1


Tree=160
num_leaves=4
num_cat=0
split_feature=14 14 9
split_gain=0.646222 1.36765 1.93832
threshold=-0.99128462213735935 -0.90618008368422187 0.96432059253136848
decision_type=2 2 2
left_child=-1 -2 -3
right_child=1 2 -4
leaf_value=0.032238720093487688 -0.05152181523450209 -0.0016855293557921387 0.065064945629035392
leaf_weight=5.955842860043048 5.2385704554617396 128.91312805749476 4.5022099167108527
leaf_count=33 29 692 23
internal_value=0 -0.00140098 0.00056702
internal_weight=0 138.654 133.415
internal_count=777 744 715
is_linear=0
shrinkage=0.1


Tree=161
num_leaves=4
num_cat=0
split_feature=4 5 1
split_gain=0.648181 2.92847 3.09717
threshold=-0.29652237326230463 -1.3142311989368667 1.8486577774988191
decision_type=2 2 2
left_child=1 -1 -3
right_child=-2 2 -4
leaf_value=-0.086544644350077138 0.003886571408832141 0.015800270151568475 -0.058854004770751749
leaf_weight=4.5544891096651545 107.92219573631883 24.912733884528279 7.1527179572731248
leaf_count=27 558 142 50
internal_value=0 -0.0115103 -0.000852574
internal_weight=0 36.6199 32.0655
internal_count=777 219 192
is_linear=0
shrinkage=0.1


Tree=162
num_leaves=4
num_cat=0
split_feature=5 5 2
split_gain=0.632139 4.35913 4.32404
threshold=-1.5420362747816871 -1.655967303074356 -0.30050679466372521
decision_type=2 2 2
left_child=1 2 -1
right_child=-2 -3 -4
leaf_value=0.096557484001444427 -0.0035562393716134545 0.077776979902859047 -0.025273068386155298
leaf_weight=3.3820656687021282 112.26901753246784 7.7327714599668971 21.016132444143295
leaf_count=16 615 39 107
internal_value=0 0.0123511 -0.00838498
internal_weight=0 32.131 24.3982
internal_count=777 162 123
is_linear=0
shrinkage=0.1


Tree=163
num_leaves=4
num_cat=0
split_feature=15 17 2
split_gain=0.644309 1.43235 1.32849
threshold=0.92155524452521487 -0.99128462213735935 -0.31087653868234583
decision_type=2 2 2
left_child=1 2 -1
right_child=-2 -3 -4
leaf_value=-0.084618247083861009 0.028590458935413399 0.00097504434240996095 -0.0031053129183654937
leaf_weight=3.880571398884058 7.4668032173067322 128.81736505962908 4.1245977953076345
leaf_count=22 44 691 20
internal_value=0 -0.00157556 -0.0426194
internal_weight=0 136.823 8.00517
internal_count=777 733 42
is_linear=0
shrinkage=0.1


Tree=164
num_leaves=4
num_cat=0
split_feature=22 9 3
split_gain=0.669103 2.13901 1.72091
threshold=0.67371057882937502 -0.7936288156800726 0.59046738900173923
decision_type=2 2 2
left_child=-1 2 -2
right_child=1 -3 -4
leaf_value=-0.002137615261300027 -0.067108782680290496 0.064336072361311739 0.034834666947798562
leaf_weight=131.48818749189377 3.4072341546416283 6.145091235637663 3.2216283790767193
leaf_count=695 23 39 20
internal_value=0 0.0218351 -0.0175642
internal_weight=0 12.774 6.62886
internal_count=777 82 43
is_linear=0
shrinkage=0.1


Tree=165
num_leaves=4
num_cat=0
split_feature=3 3 16
split_gain=0.62248 2.25961 2.14496
threshold=1.8431980842935489 1.6951139700461593 1.4862560551244439
decision_type=2 2 2
left_child=1 2 -1
right_child=-2 -3 -4
leaf_value=0.0019306206371892916 -0.02907071537544504 0.072951965562274276 -0.059345959290672157
leaf_weight=126.78676993027329 7.0122280232608309 4.2847410496324292 5.9820925146341315
leaf_count=668 36 24 49
internal_value=0 0.00147639 -0.000830284
internal_weight=0 137.054 132.769
internal_count=777 741 717
is_linear=0
shrinkage=0.1


Tree=166
num_leaves=4
num_cat=0
split_feature=5 5 21
split_gain=0.626138 1.19486 4.49751
threshold=1.2764756705604217 0.062167150923119807 -0.7594659392072699
decision_type=2 2 2
left_child=1 -1 -3
right_child=-2 2 -4
leaf_value=0.0031573748769855806 0.031519802530994692 0.05224100881922087 -0.043741494409953757
leaf_weight=111.26136244833469 6.0335405170917502 6.4462935142219093 20.116293052211404
leaf_count=594 31 39 113
internal_value=0 -0.00139208 -0.0204482
internal_weight=0 137.824 26.5626
internal_count=777 746 152
is_linear=0
shrinkage=0.1


Tree=167
num_leaves=4
num_cat=0
split_feature=6 0 0
split_gain=0.634265 2.53652 4.67544
threshold=-0.72101080129463535 -0.63990687726583662 -0.20112081844016763
decision_type=2 2 2
left_child=1 -1 -3
right_child=-2 2 -4
leaf_value=-0.033010074267985502 0.0060309763190177354 0.052321763482775778 -0.017834982404150306
leaf_weight=24.157194344326854 78.657898418605328 14.986158080399035 25.943959088996053
leaf_count=147 401 81 148
internal_value=0 -0.00731385 0.00785222
internal_weight=0 65.0873 40.9301
internal_count=777 376 229
is_linear=0
shrinkage=0.1


Tree=168
num_leaves=4
num_cat=0
split_feature=1 0 23
split_gain=0.642389 3.87425 5.36087
threshold=1.1912415530732414 -1.4357175902662 1.2916117805817586
decision_type=2 2 2
left_child=-1 -2 -3
right_child=1 2 -4
leaf_value=-0.00420474113530295 0.11505663362917176 0.014621034398446099 -0.10822681151729414
leaf_weight=103.10648176260293 3.2678858563303939 33.243982274085283 3.9771992228925219
leaf_count=536 20 199 22
internal_value=0 0.01066 0.00149436
internal_weight=0 40.4891 37.2212
internal_count=777 241 221
is_linear=0
shrinkage=0.1


Tree=169
num_leaves=4
num_cat=0
split_feature=20 2 11
split_gain=0.632443 2.55763 1.07115
threshold=0.84496115991739107 -0.47280495479914159 0.91145194094258775
decision_type=2 2 2
left_child=2 -2 -1
right_child=1 -3 -4
leaf_value=-0.0035384987594624484 0.093725702636628064 -0.032571640680802746 0.035969851954933844
leaf_weight=129.95633618533611 3.2118495926260948 3.2018818687647572 7.2449092268943778
leaf_count=696 19 23 39
internal_value=0 0.0306752 -0.00145226
internal_weight=0 6.41373 137.201
internal_count=777 42 735
is_linear=0
shrinkage=0.1


Tree=170
num_leaves=4
num_cat=0
split_feature=22 2 4
split_gain=0.625456 2.36094 1.00071
threshold=0.67371057882937502 -0.54019941422292028 -0.29652237326230463
decision_type=2 2 2
left_child=2 -2 -1
right_child=1 -3 -4
leaf_value=-0.017042867605915051 0.084989662891546996 -0.0082063684835238047 0.0030437690690900813
leaf_weight=33.245543427765369 3.9776615798473349 8.5851794090121967 97.66212073341012
leaf_count=193 30 52 502
internal_value=0 0.0213015 -0.00205747
internal_weight=0 12.5628 130.908
internal_count=777 82 695
is_linear=0
shrinkage=0.1


Tree=171
num_leaves=4
num_cat=0
split_feature=18 24 2
split_gain=0.586895 2.14517 1.93968
threshold=-0.86834317095281277 0.87208921344268997 -0.14541363619720118
decision_type=2 8 2
left_child=1 -1 -3
right_child=-2 2 -4
leaf_value=-0.072784775878571864 0.0020684776663901722 0.07005931844078217 -0.026933389329037383
leaf_weight=4.8904203027486775 129.64847867935896 3.3243293277919284 5.4290336780250081
leaf_count=32 694 19 32
internal_value=0 -0.0197357 0.00990225
internal_weight=0 13.6438 8.75336
internal_count=777 83 51
is_linear=0
shrinkage=0.1


Tree=172
num_leaves=4
num_cat=0
split_feature=3 15 18
split_gain=0.582979 2.84887 3.8965
threshold=-0.12275610709722752 -0.68414657339753282 0.75836932595576434
decision_type=2 2 2
left_child=1 2 -1
right_child=-2 -3 -4
leaf_value=0.06103984486608445 -0.005525123377773211 -0.016780084778718406 -0.0066020309569462575
leaf_weight=16.741040214896202 81.960727790370584 27.173102231696248 17.333875045180321
leaf_count=92 445 146 94
internal_value=0 0.00737109 0.0266305
internal_weight=0 61.248 34.0749
internal_count=777 332 186
is_linear=0
shrinkage=0.1


Tree=173
num_leaves=4
num_cat=0
split_feature=16 1 1
split_gain=0.622177 3.41752 2.74018
threshold=1.0000000180025095e-35 -0.87965275420374556 -0.031228986234265847
decision_type=2 2 2
left_child=1 -1 -3
right_child=-2 2 -4
leaf_value=-0.086969567471768539 -0.0051317746696593761 0.071152862406986317 0.0054128017634665999
leaf_weight=3.5077479630708686 89.326367910951376 7.4378456473350516 42.973376575857401
leaf_count=17 481 50 229
internal_value=0 0.00847129 0.0151123
internal_weight=0 53.919 50.4112
internal_count=777 296 279
is_linear=0
shrinkage=0.1


Tree=174
num_leaves=4
num_cat=0
split_feature=18 4 9
split_gain=0.544772 2.04085 2.13893
threshold=-0.86834317095281277 1.1539146037620043 0.72065841292195365
decision_type=2 2 2
left_child=1 2 -1
right_child=-2 -3 -4
leaf_value=-0.094126464469364179 0.0019885717210480474 0.044522014490296663 -0.00036102616305234687
leaf_weight=4.454375032335518 129.43233498930931 3.6666924357414237 5.3605864718556404
leaf_count=34 694 19 30
internal_value=0 -0.0191343 -0.0429151
internal_weight=0 13.4817 9.81496
internal_count=777 83 64
is_linear=0
shrinkage=0.1


Tree=175
num_leaves=4
num_cat=0
split_feature=0 4 1
split_gain=0.724472 1.67192 1.39313
threshold=1.5665945392886895 0.087522610539729512 -0.063386437902909681
decision_type=2 2 2
left_child=2 -2 -1
right_child=1 -3 -4
leaf_value=0.018159795355452191 0.034195265326854511 -0.057179739426975962 -0.004543537416275804
leaf_weight=37.619163878262043 2.9748627953231317 6.125922255218029 96.000014089047909
leaf_count=191 18 32 536
internal_value=0 -0.0273111 0.00184836
