tree
version=v3
num_class=1
num_tree_per_iteration=1
label_index=0
max_feature_idx=26
objective=binary sigmoid:1
feature_names=H A B C D S mtype0 mtype1 mtype2 mtype3 mtype4 mtype5 mtype6 mtype7 mtype8 mtype9 mtype10 mtype11 mtype12 mtype13 mtype14 mtype15 mtype16 mtype17 ph sp sta
feature_infos=[-2.159720181516068:2.1919882774345241] [-1.827322366729764:2.1933634841252321] [-2.0110689546231284:2.1430475496357979] [-1.8566207650984503:2.1588235698917959] [-2.1453759714778937:2.1332931182862573] [-2.1775234115496467:2.0129222141184511] [-2.5954828624450821:13.26779534016851] [-3.2529628433766304:5.9100360233571303] [-3.2346261399460885:5.1677243415243206] [-3.44364702120683:4.914192131038015] [-3.4235973530526964:4.1152991801601999] [-3.576731874214627:6.6505731220604103] [-3.3673996205296617:1.3267444702437303] [-3.5663020990478778:5.4660788603992536] [-3.3673996205296617:3.7750337827011657] [-3.1917775919535201:8.4134521467425447] [-3.576731874214627:4.6731759933086696] [-3.3785620997327959:6.2738072406623342] [-3.5663020990478778:7.9432934590417963] [-3.505130246339466:9.2954741119153521] [-3.456014246823341:7.9176517294961144] [-3.456014246823341:3.7657183149375455] [-3.2873419567484379:6.5898764341338927] [-3.576731874214627:3.5912812648404779] [-5.8616778190081646:6.2980646971530518] [-5.7194403880903861:4.7031923475661817] [-3.5310341767383142:5.5381343050410496]
tree_sizes=861 859 861 863 857 862 844 861 857 845 859 860 861 860 860 856 861 861 868 865 870 863 849 844 856 858 867 846 855 861 865 866 858 862 861 862 853 848 863 834 868 863 866 843 842 865 861 853 854 853 850 861 864 859 860 850 863 867 863 860 835 857 851 855 860 866 863 835 865 870 864 865 832 860 855 861 871 859 859 863 821 862 865 863 859 863 870 862 863 869 847 868 839 848 864 860 868 860 861 858 849 867 846 866 859 863 861 862 858 861 863 868 866 872 861 857 864 850 868 859 855 856 840 864 869 841 865 868 862 860 861 852 847 864 867 862 813 863 842 858 863 852 870 850 853 847 854 865 866 856 862 858 838 862 857 862 861 865 862 859 862 846 854 844 858 846 862 872 866 848 854 843 859 824 861 864 860 864 861 863 865 870 864 854 821 864

Tree=0
num_leaves=7
num_cat=0
split_feature=16 3 22 13 7 5
split_gain=61.2021 10.883 6.97364 6.986 5.8227 4.53484
threshold=-2.3652535681396345 -0.65207531004188335 0.19802076000588151 -2.1266207667626511 0.30314640740475601 -1.5655496470465131
decision_type=2 2 2 2 2 2
left_child=1 -1 3 -2 -4 -5
right_child=2 -3 4 5 -6 -7
leaf_value=-0.15828689489136777 -0.30051334763784382 -0.036270544527677556 -0.11396373367813803 -0.14698219034864582 -0.20999175178598245 -0.22597363453611874
leaf_weight=8.7029116600751859 10.692148610949515 36.552228972315788 12.184076324105265 9.6975301355123467 12.432730942964552 31.081827357411388
leaf_count=35 43 147 49 39 50 125
internal_value=-0.146982 -0.0601468 -0.206716 -0.227689 -0.161727 -0.207447
internal_weight=0 45.2551 76.0883 51.4715 24.6168 40.7794
internal_count=488 182 306 207 99 164
is_linear=0
shrinkage=1


Tree=1
num_leaves=7
num_cat=0
split_feature=1 9 0 11 3 17
split_gain=15.3956 9.01774 7.72118 8.69758 6.06655 6.77391
threshold=1.869151315381812 -2.9175693443938946 -1.6313593673557369 -2.1370689128775262 -0.97272888331418605 -0.81515228111842319
decision_type=2 2 2 2 2 2
left_child=1 -1 -3 -4 -5 -6
right_child=-2 2 3 4 5 -7
leaf_value=-0.074578598779686117 -0.1260750187208329 -0.099775436582536375 0.10503149506494242 -0.093376840517793755 0.055207671897463444 -0.0047200213207943828
leaf_weight=12.138359367847441 9.4064712822437269 5.2002262175083152 11.172051966190336 4.9499788582324973 30.311094000935547 47.891535788774497
leaf_count=49 38 21 45 20 122 193
internal_value=0 0.00580755 0.0159483 0.0227418 0.0112154 0.018318
internal_weight=0 111.663 99.5249 94.3247 83.1526 78.2026
internal_count=488 450 401 380 335 315
is_linear=0
shrinkage=0.1


Tree=2
num_leaves=7
num_cat=0
split_feature=13 25 20 20 6 13
split_gain=10.7725 6.92737 7.72267 5.71366 5.70077 13.8799
threshold=-2.0877237368163448 -1.8557138804710573 -2.0048248976455061 2.6816696701047493 5.5935810272558815 0.36264625955130619
decision_type=2 2 2 2 2 2
left_child=-1 -2 -3 4 -4 -6
right_child=1 2 3 -5 5 -7
leaf_value=-0.067486945860853298 -0.047049648666574226 0.089471397761649946 -0.033912234070619968 0.10619165074216215 -0.03254438921463184 0.093775167824048655
leaf_weight=21.830794677138329 17.277498200535774 13.951226770877836 28.284012019634247 5.2320164293050757 18.129782870411873 16.144016519188881
leaf_count=89 70 56 114 21 73 65
internal_value=0 0.00976255 0.0221104 0.007723 -0.000478304 0.0265372
internal_weight=0 99.0186 81.7411 67.7898 62.5578 34.2738
internal_count=488 399 329 273 252 138
is_linear=0
shrinkage=0.1


Tree=3
num_leaves=7
num_cat=0
split_feature=26 24 19 2 3 0
split_gain=8.11341 8.65951 8.63615 10.9356 9.56436 8.56119
threshold=1.8160588239201096 -2.9256950963945418 -0.50097095681081394 0.60005659472659356 0.59046738900173923 -1.1330897011887135
decision_type=2 2 2 2 2 2
left_child=1 -1 3 -3 -4 -6
right_child=-2 2 4 -5 5 -7
leaf_value=0.12613280443608085 -0.073822061310445442 0.0058377967642290144 -0.054840393287718031 0.13179422116089484 -0.083446701191329631 0.059354544421671498
leaf_weight=5.4630748033523551 14.362169817090033 30.107686564326286 38.599288180470467 8.9128058254718763 5.1953063160181072 17.876268312335014
leaf_count=22 58 122 157 36 21 72
internal_value=0 0.00570716 -0.000846817 0.0356522 -0.0243201 0.0258675
internal_weight=0 106.154 100.691 39.0205 61.6709 23.0716
internal_count=488 430 408 158 250 93
is_linear=0
shrinkage=0.1


Tree=4
num_leaves=7
num_cat=0
split_feature=1 22 18 21 0 23
split_gain=11.3486 9.5849 7.81337 7.6795 6.64246 6.1442
threshold=1.869151315381812 0.19138560925204182 2.4481563981245444 -0.059377417375407242 -1.1330897011887135 -2.1101035329179481
decision_type=2 2 2 2 2 2
left_child=1 3 4 -1 -3 -6
right_child=-2 2 -4 -5 5 -7
leaf_value=-0.042979676551226705 -0.10935082752503796 -0.080355614849846421 0.097500848196736115 0.027327700618153178 -0.058676422035891032 0.064737581216446724
leaf_weight=43.737477362155914 9.1349436193704587 6.1375175118446377 15.891964495182036 23.504013255238533 4.9475637078285244 16.882669717073441
leaf_count=178 38 25 64 95 20 68
internal_value=0 0.00540752 0.0418216 -0.0180839 0.00898406 0.035542
internal_weight=0 111.101 43.8597 67.2415 27.9678 21.8302
internal_count=488 450 177 273 113 88
is_linear=0
shrinkage=0.1


Tree=5
num_leaves=7
num_cat=0
split_feature=13 14 15 12 23 2
split_gain=8.17894 10.696 8.08546 8.3405 7.00437 6.38083
threshold=-0.025517051896979098 -0.20443070587919696 1.8728175762863606 -1.6041927401051623 -2.6878272347793377 -0.85793210478458126
decision_type=2 2 2 2 2 2
left_child=4 2 3 -2 -1 -6
right_child=1 -3 -4 -5 5 -7
leaf_value=0.03825670496993161 -0.068890102069511808 0.10555491187623289 0.060334806468294713 0.040161353932364544 0.024426316909532803 -0.062339909119222395
leaf_weight=13.001447454094885 18.425670385360718 13.067870333790777 15.870601221919058 10.837560445070268 10.372008845210074 38.112500220537186
leaf_count=53 75 53 64 44 42 156
internal_value=0 0.0265498 0.00285828 -0.0277899 -0.0256653 -0.0433227
internal_weight=0 58.2017 45.1338 29.2632 61.486 48.4845
internal_count=487 236 183 119 251 198
is_linear=0
shrinkage=0.1


Tree=6
num_leaves=7
num_cat=0
split_feature=19 14 19 8 8 14
split_gain=5.42222 6.24044 7.25237 4.38005 4.04588 5.9767
threshold=4.4333734737785422 -0.24221588838954458 0.16805773187819772 -1.1388625826361378 -1.0304303997297437 -1.6830285425414306
decision_type=2 2 2 2 2 2
left_child=1 4 -3 -4 5 -1
right_child=-2 2 3 -5 -6 -7
leaf_value=0 0.086227558023152351 0.074823098159116627 0.043908317684423021 -0.075392399371052451 -0.0023396996354206842 -0.088104787149819674
leaf_weight=13.736909821629526 6.6526640057563773 17.469068378210071 4.9548515677452087 7.0631552189588529 52.717635214328766 16.803656846284866
leaf_count=56 27 71 20 29 215 69
internal_value=0 -0.00542413 0.0337097 -0.0245656 -0.0195822 -0.0484585
internal_weight=0 112.745 29.4871 12.018 83.2582 30.5406
internal_count=487 460 120 49 340 125
is_linear=0
shrinkage=0.1


Tree=7
num_leaves=7
num_cat=0
split_feature=13 22 8 2 18 8
split_gain=6.46602 10.0751 9.834 8.05001 8.35993 4.88665
threshold=-0.025517051896979098 -1.7891134804506768 -0.35698502958296408 0.72478189786738556 2.7007564539732543 0.67841536950394365
decision_type=2 2 2 2 2 2
left_child=1 -1 3 4 -3 -4
right_child=-2 2 5 -5 -6 -7
leaf_value=-0.13868353613881151 0.023691090665025435 0.037238317471149994 0.074410412151613856 -0.13349365995450754 -0.093179230443952543 -0.0097398790090767115
leaf_weight=6.5166442543268195 58.055432990193367 11.986507400870329 14.251659050583841 8.0099395811557752 7.9532117396593085 12.394667848944662
leaf_count=27 236 49 58 33 33 51
internal_value=0 -0.022835 -0.00818291 -0.0497667 -0.0141293 0.0346946
internal_weight=0 61.1126 54.596 27.9497 19.9397 26.6463
internal_count=487 251 224 115 82 109
is_linear=0
shrinkage=0.1


Tree=8
num_leaves=7
num_cat=0
split_feature=6 6 4 6 6 25
split_gain=5.97746 9.1808 7.68665 5.41061 5.81274 5.25776
threshold=7.0670897860864246 5.3331699853418622 0.30616535994183774 2.8414590234376953 3.2825195979168655 -0.56912242287325843
decision_type=2 2 2 2 2 2
left_child=1 3 -2 5 -5 -1
right_child=2 -3 -4 4 -6 -7
leaf_value=0.094674027283133108 -0.075054246718582532 0.064984765795074048 0.015533040170711094 -0.13120841611033462 -0.013875014661988561 -0.0063279748640063752
leaf_weight=8.1523327529430407 20.148569315671921 25.115930706262589 16.672061264514923 4.8215538114309302 31.404286473989487 12.514647021889685
leaf_count=33 84 102 68 20 129 51
internal_value=0 0.0147916 -0.0336012 -0.00714278 -0.0306827 0.0330117
internal_weight=0 82.0088 36.8206 56.8928 36.2258 20.667
internal_count=487 335 152 233 149 84
is_linear=0
shrinkage=0.1


Tree=9
num_leaves=7
num_cat=0
split_feature=12 7 6 6 2 14
split_gain=4.91567 4.5675 11.0275 5.75219 7.20895 6.02072
threshold=-2.8339433514651531 0.68968562932265043 7.0670897860864246 6.1044577547073944 0.22048393615346248 -0.52216233224914743
decision_type=2 2 2 2 2 2
left_child=-1 3 -3 4 -2 -5
right_child=1 2 -4 5 -6 -7
leaf_value=-0.04254988435294893 0.035417229566533565 0.019319208706819392 -0.089544803744796064 0.03104157827750241 -0.066801490754157075 0.14340327449701737
leaf_weight=22.122638329863548 19.454395115375522 29.082292914390564 13.341437399387358 17.193090811371807 10.438784494996069 6.9177487492561331
leaf_count=92 79 119 56 70 43 28
internal_value=0 0.00951898 -0.0146729 0.0288964 0 0.0650293
internal_weight=0 96.4277 42.4237 54.004 29.8932 24.1108
internal_count=487 395 175 220 122 98
is_linear=0
shrinkage=0.1


Tree=10
num_leaves=7
num_cat=0
split_feature=16 1 10 17 3 3
split_gain=32.5551 20.2494 8.06026 5.1991 5.00741 4.59206
threshold=-2.0868227136541355 0.15204318015756593 -0.55519595811693734 -0.96949417387988357 1.3572243243261479 0.55400362089643329
decision_type=2 2 2 2 2 2
left_child=2 3 4 -2 -1 -5
right_child=1 -3 -4 5 -6 -7
leaf_value=0.028281708377191017 0.088538138007816639 -0.078669557777018867 0.14464071407999818 -0.067930503907964498 0.13429250833034515 0.034891155059514338
leaf_weight=28.616285040974617 9.6086969971656817 43.245348036289215 11.57380437850952 6.5201607048511532 5.3714597523212424 12.082590088248251
leaf_count=116 39 181 47 27 22 49
internal_value=0 -0.0356751 0.072258 0.0295766 0.0463157 -0.000354699
internal_weight=0 71.4568 45.5615 28.2114 33.9877 18.6028
internal_count=481 296 185 115 138 76
is_linear=0
shrinkage=0.1


Tree=11
num_leaves=7
num_cat=0
split_feature=16 11 15 3 10 10
split_gain=26.616 7.96507 7.8209 6.74209 6.28338 5.591
threshold=-2.0868227136541355 -0.41934878186152452 2.3502213697161971 -0.65207531004188335 -0.55519595811693734 -0.97439511404556745
decision_type=2 2 2 2 2 2
left_child=3 2 -2 -1 -5 -3
right_child=1 5 -4 4 -6 -7
leaf_value=-0.0057424752967520608 -0.027632980727281393 -0.015314379182533581 0.078753956127229366 0.059414755535257949 0.15946291393058815 -0.095295041387979063
leaf_weight=9.8549969941377622 23.214902400970459 15.488909885287283 9.5860516726970655 26.745817676186558 8.8583364039659518 22.510162174701691
leaf_count=40 96 65 39 109 36 96
internal_value=0 -0.0324174 0.0030993 0.0654127 0.0856208 -0.0634874
internal_weight=0 70.8 32.801 45.4592 35.6042 37.9991
internal_count=481 296 135 185 145 161
is_linear=0
shrinkage=0.1


Tree=12
num_leaves=7
num_cat=0
split_feature=21 15 7 7 2 13
split_gain=9.03148 8.79868 7.39955 7.77513 6.51551 5.01531
threshold=1.5481011992593785 -1.7260248745403348 0.64747963048897239 -1.6027784685056821 -0.30335883246000406 0.73428233363811157
decision_type=2 2 2 2 2 2
left_child=1 -1 3 4 -3 -4
right_child=-2 2 5 -5 -6 -7
leaf_value=-0.069822754426247718 -0.1218817340187389 0.048604900169091032 -0.033084769516009367 0.063764572862407887 -0.10324714708971049 0.039497128257059491
leaf_weight=11.600619792938231 5.1198879927396765 5.1296039372682571 29.323650047183037 44.933857172727585 5.6192032843828184 13.699568867683409
leaf_count=49 21 21 125 186 23 56
internal_value=0 0.0114367 0.0213174 0.0453883 -0.0292763 -0.00941264
internal_weight=0 110.307 98.7059 55.6827 10.7488 43.0232
internal_count=481 460 411 230 44 181
is_linear=0
shrinkage=0.1


Tree=13
num_leaves=7
num_cat=0
split_feature=16 7 7 20 12 16
split_gain=21.9117 9.23013 6.76433 7.69519 6.59553 5.5298
threshold=-2.7402099540866747 1.0352029087973385 0.39766122502791651 -0.56037991800728792 -2.7760947717651798 -3.0961020831611807
decision_type=2 2 2 2 2 2
left_child=1 -1 3 -2 -5 -3
right_child=2 5 -4 4 -6 -7
leaf_value=0.13094372190837281 -0.034221896520980448 -0.046650182984454724 -0.055052872588487511 -0.042468767802088969 0.083166328728474445 0.065040441777339017
leaf_weight=14.945804715156553 24.954648360610008 6.6573069244623175 36.524444729089737 5.4101252406835583 14.784228608012198 11.804991245269777
leaf_count=62 103 27 157 23 61 48
internal_value=0 0.0727097 -0.0231525 0.00231427 0.0483921 0.0235714
internal_weight=0 33.4081 81.6734 45.149 20.1944 18.4623
internal_count=481 137 344 187 84 75
is_linear=0
shrinkage=0.1


Tree=14
num_leaves=7
num_cat=0
split_feature=15 9 7 7 17 6
split_gain=6.1809 5.37566 5.17881 7.30111 7.5019 5.93562
threshold=-1.7260248745403348 -2.9175693443938946 0.38094796906315781 -1.5221437565254459 0.17789056978855758 3.4194284560651735
decision_type=2 2 2 2 2 2
left_child=-1 -2 3 4 -3 -4
right_child=1 2 5 -5 -6 -7
leaf_value=-0.064129216800149075 -0.050090395272089062 0.053131033725249778 0.05734683582887954 0.074067352939834713 -0.083371038387696161 -0.024376224559363252
leaf_weight=11.611205250024794 11.869958713650702 8.4241277873516065 11.795809194445608 29.310384958982468 7.2903139144182196 33.894887015223503
leaf_count=50 52 35 49 122 30 143
internal_value=0 0.0121667 0.0206336 0.0446546 -0.00911534 -0.00266665
internal_weight=0 102.585 90.7155 45.0248 15.7144 45.6907
internal_count=481 431 379 187 65 192
is_linear=0
shrinkage=0.1


Tree=15
num_leaves=7
num_cat=0
split_feature=23 22 5 7 13 1
split_gain=8.26014 7.57465 7.70416 6.60112 6.20344 5.07195
threshold=0.63632190116713638 -0.8272472996793393 -0.84990430720264765 2.5318091184816631 -2.6575065161053515 0.28368630513594723
decision_type=2 2 2 2 2 2
left_child=1 2 5 4 -3 -1
right_child=-2 3 -4 -5 -6 -7
leaf_value=0.067489165995788455 -0.088111450582910325 -0.096000219298600753 -0.089810868113930131 0.11073963648831982 0.022098558068711232 -0.036143807301843467
leaf_weight=7.9991960674524334 10.061106815934179 4.5673677772283545 13.861918494105337 7.7154505252838126 59.73876953125 10.798302769660948
leaf_count=33 43 20 61 32 249 47
internal_value=0 0.0058686 -0.0336861 0.024139 0.0131218 0.00708587
internal_weight=0 104.681 32.6594 72.0216 64.3061 18.7975
internal_count=485 442 141 301 269 80
is_linear=0
shrinkage=0.1


Tree=16
num_leaves=7
num_cat=0
split_feature=26 22 5 24 25 26
split_gain=7.15045 7.05769 7.35906 7.00354 6.61168 4.83233
threshold=-1.7641847364662546 0.72663563409159726 -1.5420362747816871 0.23021253719840262 1.5499127078116104 -1.9962301157158875
decision_type=2 2 2 2 2 2
left_child=5 2 3 -2 -3 -1
right_child=1 4 -4 -5 -6 -7
leaf_value=-0.018735986689281545 -0.015023167142105751 0.022313198391173732 -0.027837629590996012 0.11859483007632038 0.13965164322791035 -0.14657539571467312
leaf_weight=7.9566579163074493 7.5152790993452054 25.215267345309261 55.083772361278534 7.4213276505470276 5.9875662624835959 5.0642627179622632
leaf_count=33 32 105 237 31 25 22
internal_value=0 0.00669054 -0.0107038 0.0506402 0.0462205 -0.0714656
internal_weight=0 101.223 70.0204 14.9366 31.2028 13.0209
internal_count=485 430 300 63 130 55
is_linear=0
shrinkage=0.1


Tree=17
num_leaves=7
num_cat=0
split_feature=7 1 1 22 18 18
split_gain=4.66061 5.54098 4.76655 7.79093 5.61278 5.53089
threshold=3.0422009337123632 1.6523755515810719 1.2262795094451584 0.72663563409159726 0.72018849047170763 0.98679290649909646
decision_type=2 2 2 2 2 2
left_child=1 2 3 4 -1 -5
right_child=-2 -3 -4 5 -6 -7
leaf_value=0.011220680859488668 0.076703844225896489 -0.061285876383510608 0.053905353034749318 -0.012515353999451407 -0.053254347867652867 0.088522122651003732
leaf_weight=21.599285662174225 6.8361532092094413 15.96465443074703 14.752257421612738 9.2349616587162036 33.646389171481133 11.775428324937819
leaf_count=90 29 72 62 39 144 49
internal_value=0 -0.00727509 0.00207829 -0.00778342 -0.0277156 0.0434093
internal_weight=0 106.973 91.0083 76.2561 55.2457 21.0104
internal_count=485 456 384 322 234 88
is_linear=0
shrinkage=0.1


Tree=18
num_leaves=7
num_cat=0
split_feature=14 14 14 0 1 0
split_gain=6.80927 5.97252 5.89043 4.07779 4.69645 3.54523
threshold=-0.42793443351394028 -1.4658972736755069 -1.5734522268601463 -0.32630298410920205 -0.085289968844529787 -1.2547985248889946
decision_type=2 2 2 2 2 2
left_child=1 2 3 5 -5 -1
right_child=-2 -3 -4 4 -6 -7
leaf_value=0.017246915806803098 0.034604402823922763 -0.057757671464181863 0.087711810174559604 0.067371505355960121 -0.022677959609235021 -0.065803969507127247
leaf_weight=6.7730285376310375 35.074546426534653 25.554032847285271 6.6317933499813071 10.344562560319902 12.246393397450445 16.737792521715164
leaf_count=29 149 109 28 43 54 73
internal_value=0 -0.0182664 0.000613735 -0.0117742 0.0178537 -0.0410447
internal_weight=0 78.2876 52.7336 46.1018 22.591 23.5108
internal_count=485 336 227 199 97 102
is_linear=0
shrinkage=0.1


Tree=19
num_leaves=7
num_cat=0
split_feature=16 23 9 16 11 11
split_gain=23.4395 4.67701 9.53482 5.96362 4.46762 5.06893
threshold=-2.5352002523466819 -0.52583374826723583 0.41024373050082602 -3.0666925736839787 -0.41934878186152452 1.1231560113833348
decision_type=2 2 2 2 2 2
left_child=1 2 3 -1 -2 -6
right_child=4 -3 -4 -5 5 -7
leaf_value=0.021192372600884773 -0.007424988130799998 -0.0076251915253222544 -0.025728633165594362 0.13416744514495255 -0.097028457219263509 -0.023662439897148307
leaf_weight=6.9660408049821845 33.203445315361023 7.726874351501464 6.8069104552268973 18.507878690958027 18.152024298906326 21.720848768949509
leaf_count=29 140 32 28 78 81 97
internal_value=0 0.0596812 0.0763899 0.104486 -0.0353301 -0.0578943
internal_weight=0 40.0077 32.2808 25.4739 73.0763 39.8729
internal_count=485 167 135 107 318 178
is_linear=0
shrinkage=0.1


Tree=20
num_leaves=7
num_cat=0
split_feature=16 11 16 25 25 10
split_gain=20.5003 4.71596 4.59103 4.34959 6.31235 4.10889
threshold=-2.5352002523466819 -0.32926159318434717 -0.12430879854161998 -0.98972220795498078 1.5499127078116104 -0.55697480225118412
decision_type=2 2 2 2 2 2
left_child=5 3 -3 -2 -5 -1
right_child=1 2 -4 4 -6 -7
leaf_value=0.038354518957566003 0.059516569816980683 -0.027063957422086088 -0.10161245343094071 -0.067626210646858836 0.033949374829158642 0.11480529695625948
leaf_weight=27.750215336680412 8.0674014985561353 23.681551203131676 13.698320999741552 14.146526515483858 10.209700062870978 10.200552955269812
leaf_count=117 35 108 61 60 42 44
internal_value=0 -0.0311817 -0.0553254 -0.00253918 -0.0242577 0.0599324
internal_weight=0 69.8035 37.3799 32.4236 24.3562 37.9508
internal_count=467 306 169 137 102 161
is_linear=0
shrinkage=0.1


Tree=21
num_leaves=7
num_cat=0
split_feature=21 21 4 20 11 11
split_gain=3.6888 2.84824 3.64351 3.35794 2.59689 3.04547
threshold=1.5481011992593785 -2.9926434319690283 -0.15896757018281274 3.1510543657163566 4.2286193596138135 -0.40475814454793652
decision_type=2 2 2 2 2 2
left_child=1 2 -1 4 5 -3
right_child=-2 3 -4 -5 -6 -7
leaf_value=-0.012554707636500743 -0.082666875942555049 0.011195174884149423 0.098988314332744465 0.0742177649532762 0.055576464360266968 -0.028008473028979176
leaf_weight=4.5441011488437653 4.8377657085657111 34.085406631231301 6.6128972321748716 5.3880926221609107 6.0884292721748343 45.191365852952011
leaf_count=20 21 146 28 23 27 202
internal_value=0 0.00500694 0.0522625 -0.000669663 -0.00579933 -0.0109015
internal_weight=0 101.91 11.157 90.7533 85.3652 79.2768
internal_count=467 446 48 398 375 348
is_linear=0
shrinkage=0.1


Tree=22
num_leaves=7
num_cat=0
split_feature=9 23 9 15 21 9
split_gain=4.22421 3.41628 4.09542 5.90411 4.86729 6.10268
threshold=-2.9175693443938946 0.75132607231245729 0.57162852594431512 1.1382251359127247 -0.44932447825285066 -1.390040717860507
decision_type=2 2 2 2 2 2
left_child=-1 2 3 4 5 -2
right_child=1 -3 -4 -5 -6 -7
leaf_value=-0.055375325772941991 -0.011528825412275045 -0.059695745956308027 -0.02393355941873386 0.060031207790843602 -0.047690816484175162 0.0894957019168586
leaf_weight=11.678184926509855 15.176731914281842 6.6441540569066992 21.527416855096817 28.453612133860588 13.580884084105493 9.3367605060338974
leaf_count=55 67 30 91 123 60 41
internal_value=0 0.00787377 0.013329 0.0257328 0 0.0264962
internal_weight=0 94.7196 88.0754 66.548 38.0944 24.5135
internal_count=467 412 382 291 168 108
is_linear=0
shrinkage=0.1


Tree=23
num_leaves=7
num_cat=0
split_feature=8 20 21 19 19 20
split_gain=4.86581 5.44596 5.18296 4.9986 7.54114 6.09196
threshold=-1.0304303997297437 0.84491220225400754 -3.0288041789798652 -1.8008783321712851 1.5795463161744245 -1.0277644468851925
decision_type=2 2 2 2 2 2
left_child=-1 2 -2 -4 5 -5
right_child=1 -3 3 4 -6 -7
leaf_value=-0.026383742855805976 0.079250890530598139 0.080080030161313265 0.074027907444775651 0 0.041845597747652945 -0.092545277394488049
leaf_weight=40.653474494814873 7.6522552222013465 11.333820879459379 6.0556204915046683 12.408047571778292 12.369956463575361 15.384938746690755
leaf_count=181 33 52 26 54 54 67
internal_value=0 0.0175968 0.00382255 -0.00848997 -0.0217481 -0.0508978
internal_weight=0 65.2046 53.8708 46.2186 40.1629 27.793
internal_count=467 286 234 201 175 121
is_linear=0
shrinkage=0.1


Tree=24
num_leaves=7
num_cat=0
split_feature=22 20 11 10 6 25
split_gain=3.51703 4.77056 4.52969 3.57207 3.4711 3.92792
threshold=0.35002682853350164 2.6256926203926318 4.2286193596138135 0.62074346461214136 2.0842685826640883 -1.512004756319157
decision_type=2 2 2 2 2 2
left_child=1 2 3 -1 -2 -6
right_child=4 -3 -4 -5 5 -7
leaf_value=-0.039041215138410981 -0.050874311614730744 0.07885251590465564 0.069925299336845562 0.041678504587027758 -0.037957804563810066 0.049729570938902193
leaf_weight=49.521708369255066 5.0666779726743689 4.8469602614641181 4.633973464369773 5.7566083222627631 5.72226458787918 30.021901726722717
leaf_count=221 22 21 21 27 24 131
internal_value=0 -0.0137768 -0.0218501 -0.0301398 0.023616 0.0349773
internal_weight=0 64.7593 59.9123 55.2783 40.8108 35.7442
internal_count=467 290 269 248 177 155
is_linear=0
shrinkage=0.1


Tree=25
num_leaves=7
num_cat=0
split_feature=23 18 23 18 23 19
split_gain=5.30169 3.42552 6.58546 5.85676 7.03143 3.7675
threshold=0.75132607231245729 3.4226709700742517 -1.9595026136635367 4.5677143977058767 -1.2185691528215166 4.913523063638114
decision_type=2 2 2 2 2 2
left_child=1 5 -3 4 -4 -1
right_child=-2 2 3 -5 -6 -7
leaf_value=-0.0019015753899189469 -0.071050433345890215 0.11341468891505789 -0.028123377839630061 -0.066564732427101245 0.12219202009170249 0.085249159464233185
leaf_weight=75.336398482322693 7.5665749907493582 9.1141162812709826 5.5310509949922588 6.3342833369970313 6.2851286530494681 5.0929870754480353
leaf_count=330 35 39 26 30 28 22
internal_value=0 0.0142523 0.0448192 0.00839541 0.0507566 0.00354682
internal_weight=0 107.694 27.2646 18.1505 11.8162 80.4294
internal_count=510 475 123 84 54 352
is_linear=0
shrinkage=0.1


Tree=26
num_leaves=7
num_cat=0
split_feature=22 26 17 22 26 0
split_gain=5.72351 5.65911 6.60096 8.19321 5.62434 5.07288
threshold=3.1217596459368502 1.5608654707316381 -0.43041075463082307 1.868644090628701 -0.83207780955049149 -0.58206891408534223
decision_type=2 2 2 2 2 2
left_child=1 2 5 4 -4 -1
right_child=-2 -3 3 -5 -6 -7
leaf_value=-0.00089122652695511242 0.10121924438431414 -0.061674839182957769 -0.057735507233147604 -0.13310291628563831 0.022009927082522043 0.063145830774033587
leaf_weight=20.544594287872311 5.9890927225351325 12.090352162718771 12.284065932035444 5.1134849339723578 30.103866577148438 28.63067996501923
leaf_count=93 26 54 55 22 133 127
internal_value=0 0.00202839 0.0103195 -0.0159318 -0.000762925 0.0360669
internal_weight=0 108.767 96.6767 47.5014 42.3879 49.1753
internal_count=510 484 430 210 188 220
is_linear=0
shrinkage=0.1


Tree=27
num_leaves=7
num_cat=0
split_feature=13 14 26 24 0 26
split_gain=4.35477 5.51182 4.70997 4.07613 3.19868 3.18161
threshold=-2.8305713432085153 -0.24221588838954458 -0.83207780955049149 -1.0591088666399762 -0.31871154347892178 0.75536830335827787
decision_type=2 2 2 2 2 2
left_child=4 5 -3 -4 -1 -2
right_child=1 2 3 -5 -6 -7
leaf_value=-0.10468725846778888 0.013210836656740835 -0.024880138500555503 0 0.10627247394353179 0.0019548670806266246 -0.030527054773173818
leaf_weight=5.5435386151075363 56.916624642908573 5.2626392692327526 4.9238904863596025 13.751138404011721 4.7696001380681974 23.256647497415543
leaf_count=27 252 23 22 60 23 103
internal_value=0 0.0130949 0.0550017 0.0786526 -0.0542341 0.000218509
internal_weight=0 104.111 23.9377 18.675 10.3131 80.1733
internal_count=510 460 105 82 50 355
is_linear=0
shrinkage=0.1


Tree=28
num_leaves=7
num_cat=0
split_feature=22 19 23 22 22 22
split_gain=4.8394 3.51507 3.76931 4.29154 3.01111 4.16724
threshold=3.241734943366561 -1.0131312245334727 -1.943447885763055 0.10240620630195872 1.7184227502798957 -0.80005748224165851
decision_type=2 2 2 2 2 2
left_child=1 2 -1 -4 5 -3
right_child=-2 4 3 -5 -6 -7
leaf_value=0.080057632422529765 0.10086582303894714 -0.034482713187592398 -0.041412555593169559 0.078455765227520471 -0.061732191618976397 0.014990395190971704
leaf_weight=10.399305641651155 4.9575400799512854 25.125610083341599 8.5459689348936063 4.3441219925880423 9.0461411327123624 51.61096665263176
leaf_count=46 22 114 39 20 39 230
internal_value=0 0.00141087 0.0358593 0 -0.00775628 -0.000980626
internal_weight=0 109.072 23.2894 12.8901 85.7827 76.7366
internal_count=510 488 105 59 383 344
is_linear=0
shrinkage=0.1


Tree=29
num_leaves=7
num_cat=0
split_feature=23 2 1 24 4 15
split_gain=3.84848 2.75111 5.40175 3.97948 3.22248 3.00475
threshold=0.75132607231245729 -0.6325354086446896 0.88601934958837814 -0.84028464262033398 -0.58495951995471807 0.42368760761236091
decision_type=2 2 2 2 2 2
left_child=1 2 3 -1 -4 -3
right_child=-2 5 4 -5 -6 -7
leaf_value=0.05075085758774122 -0.062908116898957991 -0.019172649063046138 0.021751199869401834 -0.042772166911798609 0.13930049170970643 0.02004126303122282
leaf_weight=8.6858528703451174 7.3942413330078116 38.123095780611038 4.5717142373323441 9.0907673537731188 6.1633596122264844 39.606148943305016
leaf_count=39 35 174 21 39 28 174
internal_value=0 0.0105857 0.0370557 0.00180684 0.0924356 0.000538348
internal_weight=0 106.241 28.5117 17.7766 10.7351 77.7292
internal_count=510 475 127 78 49 348
is_linear=0
shrinkage=0.1


Tree=30
num_leaves=7
num_cat=0
split_feature=22 0 15 13 13 26
split_gain=6.33437 4.93515 4.52029 4.9706 4.56005 3.77568
threshold=3.241734943366561 -1.6610731630929074 1.7077310482124235 0.2763538229002917 -0.70928561135110124 -0.95413671979958503
decision_type=2 2 2 2 2 2
left_child=1 -1 5 4 -4 -3
right_child=-2 2 3 -5 -6 -7
leaf_value=-0.11267346322867949 0.11282172936087681 -0.059440471067549752 0.025312293360506097 0.072378052737002249 -0.083545463541816009 -0.0013047734294122707
leaf_weight=3.7646869570016852 4.7363864183425894 14.131742209196089 14.331686832010744 15.448947265744208 5.0230218172073391 54.477634206414223
leaf_count=17 22 65 64 68 21 242
internal_value=0 -0.00303421 0.000956465 0.0304032 -0.00240805 -0.0137184
internal_weight=0 107.178 103.413 34.8037 19.3547 68.6094
internal_count=499 477 460 153 85 307
is_linear=0
shrinkage=0.1


Tree=31
num_leaves=7
num_cat=0
split_feature=16 5 6 12 21 7
split_gain=15.8775 9.20435 5.8061 5.67888 4.92392 4.11457
threshold=-2.6554103410086927 -0.87126053387774516 4.8059715182491134 -1.971763874051393 0.33277982252548383 -0.80691864493857268
decision_type=2 2 2 2 2 2
left_child=3 2 -2 -1 -4 -3
right_child=1 5 4 -5 -6 -7
leaf_value=0.13318786112586609 0.054575236166039626 -0.00049280699428489512 -0.043464482670843296 0.034696078698164226 0.046009653208993306 -0.084445320564262349
leaf_weight=8.0890552997589094 15.946964949369429 8.3879177421331388 22.717767804861072 24.264225289225578 8.0407856553792936 23.816209219396114
leaf_count=37 70 36 103 108 35 110
internal_value=0 -0.0223485 0.00562653 0.0606123 -0.0192531 -0.0633621
internal_weight=0 78.9096 46.7055 32.3533 30.7586 32.2041
internal_count=499 354 208 145 138 146
is_linear=0
shrinkage=0.1


Tree=32
num_leaves=7
num_cat=0
split_feature=20 0 17 18 9 19
split_gain=5.55931 4.29249 3.89364 7.39538 6.73953 4.33204
threshold=-2.6492287021055829 -1.6313593673557369 -1.8696839542312176 2.7692244197897051 -1.705199568406303 4.7440025570994662
decision_type=2 2 2 2 2 2
left_child=-1 -2 3 -3 -5 -4
right_child=1 2 5 4 -6 -7
leaf_value=0.084406560314891715 -0.10728289556035722 -0.096201024000086274 0.003527522206591856 -0.056215409776904174 0.10465017470760073 0.10153526526461554
leaf_weight=7.3703691512346259 3.7067929357290259 10.672654062509539 73.891364574432373 5.014429584145546 4.8875838667154294 4.6595857739448538
leaf_count=34 18 47 333 25 21 21
internal_value=0 -0.00436425 -0.000102529 -0.0388268 0.0215843 0.00984337
internal_weight=0 102.832 99.1256 20.5747 9.90201 78.551
internal_count=499 465 447 93 46 354
is_linear=0
shrinkage=0.1


Tree=33
num_leaves=7
num_cat=0
split_feature=0 17 18 12 26 10
split_gain=3.79171 2.91901 4.35819 4.33096 2.8964 7.85024
threshold=-1.6610731630929074 -1.8696839542312176 2.7692244197897051 -2.5941933751242261 -0.83207780955049149 -0.57476951861620329
decision_type=2 2 2 2 2 2
left_child=-1 2 -2 -4 5 -3
right_child=1 4 3 -5 -6 -7
leaf_value=-0.097790596487490458 -0.069485682017993655 -0.075160597809297791 -0.055158912783879445 0.07613727044239102 0.025225566193769706 0.037754248527957029
leaf_weight=3.5123571455478659 11.437913604080679 11.459009177982809 4.0436034351587296 5.7134309411048871 60.814756721258163 12.650195196270941
leaf_count=17 51 52 20 26 274 59
internal_value=0 0.00503085 -0.0276871 0.0195937 0.0134881 -0.0152181
internal_weight=0 106.119 21.1949 9.75703 84.924 24.1092
internal_count=499 482 97 46 385 111
is_linear=0
shrinkage=0.1


Tree=34
num_leaves=7
num_cat=0
split_feature=22 9 23 9 22 26
split_gain=4.98154 3.45078 5.65297 3.57991 4.41047 5.78562
threshold=3.241734943366561 -2.8391801518939577 -2.0251453103547887 -2.5355051315880126 0.7085339655171029 1.7365745080833996
decision_type=2 2 2 2 2 2
left_child=1 2 -1 -3 5 -5
right_child=-2 3 -4 4 -6 -7
leaf_value=0.03737175587990467 0.10326592630849024 0.057000415886940596 -0.085716775396047606 -0.0045258115722289971 0.035931279354111327 -0.098230728100249853
leaf_weight=5.1641571074724224 4.3979687541723242 11.167857035994528 11.073181971907614 49.178622402250767 20.78757581859827 7.5311769694089881
leaf_count=24 22 51 54 221 93 34
internal_value=0 -0.00309442 -0.0453088 0.00448105 -0.00293917 -0.0176311
internal_weight=0 104.903 16.2373 88.6652 77.4974 56.7098
internal_count=499 477 78 399 348 255
is_linear=0
shrinkage=0.1


Tree=35
num_leaves=7
num_cat=0
split_feature=24 7 22 7 4 6
split_gain=4.84548 3.91517 4.61662 4.56339 4.69591 4.60485
threshold=-3.4357003791861929 -1.5934221617338562 0.35002682853350164 -0.71602645833908507 -0.29652237326230463 3.4194284560651735
decision_type=2 2 2 2 2 2
left_child=-1 2 -2 -3 5 -5
right_child=1 3 -4 4 -6 -7
leaf_value=0.10836033565640901 -0.12698064560912678 0.057871548794054352 0.005645983366320979 0.044392313665364634 0.011291850229939076 -0.065167686871950362
leaf_weight=3.9851550087332717 4.9666182398796064 13.643526583909987 4.7272276431322098 4.4598731249570802 54.481365360319622 18.249949172139168
leaf_count=18 22 63 22 21 250 87
internal_value=0 -0.00140437 -0.0613282 0.0048759 -0.00434001 -0.0425395
internal_weight=0 100.529 9.69385 90.8347 77.1912 22.7098
internal_count=483 465 44 421 358 108
is_linear=0
shrinkage=0.1


Tree=36
num_leaves=7
num_cat=0
split_feature=1 1 16 16 5 5
split_gain=5.07411 3.89899 3.55174 7.60698 3.6434 3.25301
threshold=-0.24815668289032691 -0.59308537943937778 -2.6791088657425655 -3.0666925736839787 -0.44947504029130342 -1.2913388369676635
decision_type=2 2 2 2 2 2
left_child=1 -1 3 -2 -5 -3
right_child=2 5 -4 4 -6 -7
leaf_value=0.0085848669575068377 -0.054182724431267752 0.14379991977764534 -0.026229538565241458 0.01647532608861204 0.11473217309583204 0.026558306820449292
leaf_weight=17.905338510870937 8.7137892097234744 5.0676042884588242 50.48149298876524 9.5456512123346346 6.886437088251113 5.469305291771887
leaf_count=81 38 23 238 45 32 26
internal_value=0 0.0385661 -0.0107889 0.0193417 0.059774 0.0864796
internal_weight=0 28.4422 75.6274 25.1459 16.4321 10.5369
internal_count=483 130 353 115 77 49
is_linear=0
shrinkage=0.1


Tree=37
num_leaves=7
num_cat=0
split_feature=13 17 25 17 9 17
split_gain=3.43968 5.25114 4.51259 3.99261 5.27473 5.20753
threshold=-2.6192208128183085 -2.7872675999844994 -1.0000000180025095e-35 -1.1102973230086628 -1.5929188671523173 -1.8499273114294408
decision_type=2 2 2 2 2 2
left_child=2 -2 -1 4 5 -3
right_child=1 3 -4 -5 -6 -7
leaf_value=0 -0.080126591135367242 -0.064995299958257882 -0.12495081002873583 0.00086259634248580337 0.091632921877969009 0.059556447048842304
leaf_weight=7.16469457000494 5.8919566050171843 5.9905707389116287 4.4487869441509229 59.411721132695675 13.349536612629889 7.1274808496236819
leaf_count=35 29 29 22 275 60 33
internal_value=0 0.00912168 -0.0481269 0.0156554 0.0478243 0.000978383
internal_weight=0 91.7713 11.6135 85.8793 26.4676 13.1181
internal_count=483 426 57 397 122 62
is_linear=0
shrinkage=0.1


Tree=38
num_leaves=7
num_cat=0
split_feature=15 8 3 13 0 8
split_gain=4.37784 4.55185 6.63377 5.74544 6.58564 4.50464
threshold=2.1835259207986164 -0.19970597591855557 0.53416539597142842 -0.41286068117401531 -0.31871154347892178 -1.5786702165151436
decision_type=2 2 2 2 2 2
left_child=1 2 3 -1 -5 -4
right_child=-2 -3 5 4 -6 -7
leaf_value=-0.10542502485767867 0.037373940383148632 0.018409009733715547 0.095858508154569255 -0.071152973634027769 0.053342455428573424 -0.01773545936851478
leaf_weight=13.521387033164503 26.269263848662376 32.178883478045464 5.3634263575077048 9.5070665925741213 7.2368360459804526 8.6858298778533918
leaf_count=70 122 149 24 45 33 40
internal_value=0 -0.00974819 -0.0306587 -0.0571177 -0.0161073 0.0248634
internal_weight=0 76.4934 44.3145 30.2653 16.7439 14.0493
internal_count=483 361 212 148 78 64
is_linear=0
shrinkage=0.1


Tree=39
num_leaves=7
num_cat=0
split_feature=15 2 23 22 24 11
split_gain=3.57468 3.55406 4.37719 2.98809 7.61226 4.88965
threshold=2.1835259207986164 -0.11784348664799668 -1.7798831546861551 0.7085339655171029 1.0209081378054472 0.30021039933990784
decision_type=2 2 2 2 2 2
left_child=3 -2 -3 -1 5 -5
right_child=1 2 -4 4 -6 -7
leaf_value=-0.021886132133423379 0 0.008072436266459088 0.13495674893371831 0.011911028917499145 -0.064633860465307266 0.12864171283616921
leaf_weight=53.445906169712543 14.630595222115518 5.7205134630203247 5.7954205647110921 9.4509050548076647 6.7712187618017188 6.135140359401702
leaf_count=254 68 26 28 45 32 30
internal_value=0 0.0338292 0.074898 -0.00886993 0.0212331 0.060206
internal_weight=0 26.1465 11.5159 75.8032 22.3573 15.586
internal_count=483 122 54 361 107 75
is_linear=0
shrinkage=0.1


Tree=40
num_leaves=7
num_cat=0
split_feature=14 15 2 5 26 5
split_gain=3.63857 3.06638 4.15877 5.06598 3.69486 3.84306
threshold=0.61435633623417985 0.53330410305197762 -0.66222730448417833 -1.2483070757271812 -1.4721784495360877 -1.2279317067378144
decision_type=2 2 2 2 2 2
left_child=1 2 -1 -4 -3 -6
right_child=-2 4 3 -5 5 -7
leaf_value=0.0061216816936077566 0.031206378814032612 -0.053400414197466751 -0.0083164102161053903 -0.09535500177826603 -0.029612031935942473 0.036443838441709391
leaf_weight=13.178278200328348 16.537386134266853 10.661317348480223 12.002981066703795 16.850632622838024 13.217155255377291 24.495078384876251
leaf_count=64 75 47 57 86 62 113
internal_value=0 -0.0192369 -0.0389527 -0.0601682 -0.00158551 0.0127046
internal_weight=0 90.4054 42.0319 28.8536 48.3736 37.7122
internal_count=504 429 207 143 222 175
is_linear=0
shrinkage=0.1


Tree=41
num_leaves=7
num_cat=0
split_feature=7 15 14 14 7 0
split_gain=3.35106 3.45898 2.7365 8.89477 4.80104 7.03309
threshold=-2.1161722889577645 -2.0360705129531227 -0.52216233224914743 -1.4658972736755069 -1.3045628996547194 -0.41312332257760326
decision_type=2 2 2 2 2 2
left_child=-1 -2 3 -3 -4 -6
right_child=1 2 4 -5 5 -7
leaf_value=-0.11253272477658663 -0.083960030447540135 0.0070309711491296448 -0.0720763545113354 -0.078848652075150683 -0.017598814947566543 0.074919181949082883
leaf_weight=2.9394775182008734 5.3315594941377631 44.910087443888187 4.723939597606658 16.114967256784439 14.407006457448004 17.887992925941944
leaf_count=13 29 213 22 75 68 84
internal_value=0 -0.00685902 -0.00229521 -0.0154806 0.0188424 0.0331389
internal_weight=0 103.376 98.044 61.0251 37.0189 32.295
internal_count=504 491 462 288 174 152
is_linear=0
shrinkage=0.1


Tree=42
num_leaves=7
num_cat=0
split_feature=16 10 17 10 16 16
split_gain=17.5001 4.77198 6.23457 4.4333 4.68723 4.61077
threshold=-2.6392197135200752 -1.7358904951087886 1.9213068067951726 -0.9230153747028863 -1.8993760270844813 -0.29342465076770619
decision_type=2 2 2 2 2 2
left_child=-1 -2 3 5 -5 -3
right_child=1 2 -4 4 -6 -7
leaf_value=0.049218335915267197 -0.084301909832171659 -0.0079684100890466316 -0.096955516113009801 0.062393056269571007 -0.041760158006228953 0.11144254303058443
leaf_weight=34.127553783357143 16.793940618634224 6.940811850130558 9.1952350288629514 4.7632417976856187 28.724226325750355 5.3837325572967512
leaf_count=161 82 33 42 23 139 24
internal_value=0 -0.0374619 -0.0225352 -0.00679592 -0.0260476 0.0434263
internal_weight=0 71.8012 55.0072 45.812 33.4875 12.3245
internal_count=504 343 261 219 162 57
is_linear=0
shrinkage=0.1


Tree=43
num_leaves=7
num_cat=0
split_feature=16 5 14 8 8 7
split_gain=14.4045 4.19296 5.18689 3.50333 3.09953 2.63398
threshold=-2.6392197135200752 0.062167150923119807 -1.450428332855066 0.40157393678494263 -1.67787170938083 -0.77112081291063761
decision_type=2 2 2 2 2 2
left_child=1 5 -3 4 -2 -1
right_child=3 2 -4 -5 -6 -7
leaf_value=-0.00051067700315222486 0 0.086735444562982392 -0.04988310434603524 0.0065173681707146967 -0.057981909943774515 0.086394855114615532
leaf_weight=3.7156345099210766 11.349055051803587 4.0364495515823364 7.8713712543249112 15.526452600955961 44.023815549910069 18.103047408163548
leaf_count=19 55 20 36 72 216 86
internal_value=0 0.0448771 -0.00118789 -0.0342287 -0.0460156 0.070764
internal_weight=0 33.7265 11.9078 70.8993 55.3729 21.8187
internal_count=504 161 56 343 271 105
is_linear=0
shrinkage=0.1


Tree=44
num_leaves=7
num_cat=0
split_feature=23 1 1 4 10 14
split_gain=3.27462 3.55192 4.11609 4.38709 5.85582 3.65791
threshold=0.49426288449160422 0.54977025050718376 0.16354642225430902 0.34095169478590287 -1.8102098178463193 -0.24221588838954458
decision_type=2 2 2 2 2 2
left_child=1 2 3 -1 -5 -3
right_child=-2 5 -4 4 -6 -7
leaf_value=-0.05423085878307065 -0.064298562930704781 0 -0.069833133841847139 -0.079314568097181876 0.048783979396365938 0.061226585917762234
leaf_weight=10.93824417889118 9.1264123171567899 35.753538981080055 12.788720458745955 4.1883425191044799 17.59772023558617 13.162978231906889
leaf_count=52 48 181 60 20 82 61
internal_value=0 -0.00185931 -0.022117 -0.00252956 0.0227188 0.016573
internal_weight=0 94.4295 45.513 32.7243 21.7861 48.9165
internal_count=504 456 214 154 102 242
is_linear=0
shrinkage=0.1


Tree=45
num_leaves=7
num_cat=0
split_feature=11 11 9 4 19 24
split_gain=3.73314 4.19159 2.82653 5.51472 3.52261 2.79838
threshold=1.1231560113833348 1.0000000180025095e-35 -0.28990206464803875 0.6183378924574765 -0.11994119407775759 -2.3016850881041919
decision_type=2 2 2 2 2 2
left_child=1 5 3 -2 -4 -1
right_child=2 -3 4 -5 -6 -7
leaf_value=0.07857074593633484 0.021094261318185467 -0.053845737340949121 0.033388717670451533 0.14242004622172522 -0.069947828580468149 -0.0041387155348651897
leaf_weight=4.2965033277869216 16.320244528353218 17.189735613763332 8.1060956045985204 4.955629050731658 5.2123417854309073 43.382187113165855
leaf_count=22 83 87 39 24 25 205
internal_value=0 -0.0117364 0.0287941 0.0513612 -0.00591673 0.00316157
internal_weight=0 64.8684 34.5943 21.2759 13.3184 47.6787
internal_count=485 314 171 107 64 227
is_linear=0
shrinkage=0.1


Tree=46
num_leaves=7
num_cat=0
split_feature=16 12 20 4 9 1
split_gain=4.17287 3.36011 4.17236 2.71674 9.93411 6.06822
threshold=-2.7402099540866747 -1.9430845316844167 -2.1590682675995732 0.76152316301417977 -1.4626271107434796 0.21734783835048993
decision_type=2 2 2 2 2 2
left_child=1 -1 -3 -2 -5 -6
right_child=3 2 -4 4 5 -7
leaf_value=0.091564261418873027 -0.025801205712067701 0.078757262546688842 -0.014657253387999803 0.089479382590650386 0.0050734733982848949 -0.13096357374001719
leaf_weight=7.3847214728593853 45.195757508277893 6.5634034797549292 15.490190252661701 10.326992601156237 9.7700745314359647 4.5367829725146285
leaf_count=38 225 32 73 49 46 22
internal_value=0 0.0336166 0.0126398 -0.0111049 0.0150013 -0.0377821
internal_weight=0 29.4383 22.0536 69.8296 24.6339 14.3069
internal_count=485 143 105 342 117 68
is_linear=0
shrinkage=0.1


Tree=47
num_leaves=7
num_cat=0
split_feature=0 7 16 6 0 0
split_gain=3.78052 4.35514 3.17899 5.944 4.10283 3.46033
threshold=1.6071740822850589 -1.6052348654362472 -2.7402099540866747 6.9011350202730801 -0.34283535560653383 -0.9494364151261967
decision_type=2 2 2 2 2 2
left_child=1 -1 4 -4 5 -3
right_child=-2 2 3 -5 -6 -7
leaf_value=-0.055596794979153923 -0.07378380082244114 0.059403543978575439 0.022606928505963651 -0.047393927408454252 0.09632967375630834 -0.030534079553491012
leaf_weight=9.5970307886600477 5.9615260288119307 7.9815959259867695 39.925150841474533 17.172197207808495 9.3228858262300474 8.5163587704300898
leaf_count=45 29 39 193 90 47 42
internal_value=0 0.00706439 0.0146825 0.00109767 0.043682 0.0118995
internal_weight=0 92.5152 82.9182 57.0973 25.8208 16.498
internal_count=485 456 411 283 128 81
is_linear=0
shrinkage=0.1


Tree=48
num_leaves=7
num_cat=0
split_feature=3 0 0 23 8 3
split_gain=3.50884 3.5541 2.9356 7.41861 5.19395 3.58456
threshold=1.8431980842935489 1.6071740822850589 0.45446665260896618 -1.9039873202654867 1.4125813730951515 -0.77328761051409645
decision_type=2 2 2 2 2 2
left_child=1 2 4 -4 5 -1
right_child=-2 -3 3 -5 -6 -7
leaf_value=-0.037876344080777169 -0.08367526899378569 -0.067447680036509652 0.15370965625893374 0.0025787973166279243 -0.078944384645233734 0.022632225258997416
leaf_weight=11.579949125647536 4.3745130896568289 5.891300529241561 4.6425956040620795 10.821570351719854 6.8207250684499732 53.741688501089818
leaf_count=59 21 29 22 52 32 270
internal_value=0 0.00599104 0.0113069 0.0506315 0.00247366 0.0115041
internal_weight=0 93.4978 87.6065 15.4642 72.1424 65.3216
internal_count=485 464 435 74 361 329
is_linear=0
shrinkage=0.1


Tree=49
num_leaves=7
num_cat=0
split_feature=3 0 15 18 7 0
split_gain=2.84403 2.93119 4.58687 5.34603 4.3186 4.79095
threshold=1.8431980842935489 1.6071740822850589 0.63907826602919104 2.2222856724124407 -0.64395009540997761 0.24053383712758977
decision_type=2 2 2 2 2 2
left_child=1 2 3 -1 -4 -6
right_child=-2 -3 4 -5 5 -7
leaf_value=-0.059783960505521899 -0.0750421202758529 -0.06168581787058091 -0.011073224015743934 0.012031057252076543 0.027695788896433701 0.11994772178139901
leaf_weight=15.054027080535887 4.4101431667804709 5.8193325102329245 13.196429729461668 31.35545589774847 19.410508826375011 8.4134819060564023
leaf_count=77 21 29 63 161 94 40
internal_value=0 0.00538411 0.0102147 -0.0109633 0.0346248 0.0569771
internal_weight=0 93.2492 87.4299 46.4095 41.0204 27.824
internal_count=485 464 435 238 197 134
is_linear=0
shrinkage=0.1


Tree=50
num_leaves=7
num_cat=0
split_feature=16 16 0 26 6 1
split_gain=8.0471 3.84245 3.21893 5.51264 6.27601 2.93207
threshold=-0.12430879854161998 -3.2248177315048641 -0.76171840991538498 0.75536830335827787 4.1528711087429668 -0.27797046668408004
decision_type=2 2 2 2 2 2
left_child=1 -1 3 4 -3 -2
right_child=5 2 -4 -5 -6 -7
leaf_value=-0.067407955565937705 0.0053592564863418493 -0.038315486644323292 0.046237328199083022 -0.086256457117259974 0.080305273012976727 -0.059786165055446941
leaf_weight=4.0024019032716742 9.6208592802286166 7.62776597589255 42.83304687589407 5.4446004927158347 9.8022822588682157 19.925179652869701
leaf_count=18 45 39 215 25 49 100
internal_value=0 0.0240508 0.0301224 0 0.0273485 -0.0379683
internal_weight=0 69.7101 65.7077 22.8746 17.43 29.546
internal_count=491 346 328 113 88 145
is_linear=0
shrinkage=0.1


Tree=51
num_leaves=7
num_cat=0
split_feature=16 20 12 10 12 16
split_gain=6.54696 4.41835 5.03783 5.01237 5.38439 3.73206
threshold=-0.12430879854161998 -1.938095111478914 -0.31790418427186279 -1.4829025802776858 -2.2113818940042438 -1.6466371759985041
decision_type=2 2 2 2 2 2
left_child=1 2 -1 -3 5 -5
right_child=-2 3 -4 4 -6 -7
leaf_value=-0.051004806072862445 -0.034567820726585791 0.070255293748904005 0.072193867565388523 0.097319602475342201 -0.032231143968584439 -0.0078691929111826178
leaf_weight=13.531347818672659 29.203667588531971 23.675844818353653 4.0929162651300421 7.8507479652762413 15.26429735124111 5.1670857369899768
leaf_count=66 145 112 21 44 74 29
internal_value=0 0.021608 -0.0207401 0.0364 0.00703502 0.0544692
internal_weight=0 69.5822 17.6243 51.958 28.2821 13.0178
internal_count=491 346 87 259 147 73
is_linear=0
shrinkage=0.1


Tree=52
num_leaves=7
num_cat=0
split_feature=17 8 7 7 24 7
split_gain=4.45524 4.04358 3.55616 6.48616 3.53402 4.32675
threshold=-0.88313927218689969 -1.3279923168830858 0.64747963048897239 -0.31879184995853449 -2.9256950963945418 -1.6052348654362472
decision_type=2 2 2 2 2 2
left_child=1 -1 3 4 -2 -6
right_child=2 -3 -4 -5 5 -7
leaf_value=-0.022563555639800257 0.062682645013039218 0.047732738907560204 -0.048875752995750532 0.072272349902267316 -0.10018295717002652 -0.0064637564260492586
leaf_weight=10.518360398709772 3.990092232823371 30.87505653873086 18.911619454622269 10.022603072226046 7.1245804280042675 16.875669263303283
leaf_count=56 18 152 96 49 33 87
internal_value=0 0.0293418 -0.0135977 0.00356059 -0.0206228 -0.0357325
internal_weight=0 41.3934 56.9246 38.0129 27.9903 24.0002
internal_count=491 208 283 187 138 120
is_linear=0
shrinkage=0.1


Tree=53
num_leaves=7
num_cat=0
split_feature=23 23 23 23 1 23
split_gain=2.62097 2.61305 7.31246 4.40636 4.8054 4.34442
threshold=-3.2761592736051264 -0.98533728792390562 -1.4500038112895632 -0.17231608175938723 -0.22696949461090013 0.49426288449160422
decision_type=2 2 2 2 2 2
left_child=-1 2 -2 -3 -5 -6
right_child=1 3 -4 4 5 -7
leaf_value=-0.1070573418848519 0.0041011969051970368 -0.054759972835924535 0.10138036767487187 0.10203971570709719 0.040282193532786954 -0.071724734844370794
leaf_weight=1.8732486814260472 53.601454373449087 15.52278235554695 8.9518117904663068 4.7200399488210687 6.8658343777060509 6.4446547403931618
leaf_count=8 266 78 45 24 35 35
internal_value=0 0.00641521 0.0186272 -0.015704 0.0169885 -0.0126401
internal_weight=0 96.1066 62.5533 33.5533 18.0305 13.3105
internal_count=491 483 311 172 94 70
is_linear=0
shrinkage=0.1


Tree=54
num_leaves=7
num_cat=0
split_feature=17 15 8 15 18 18
split_gain=3.54126 4.51453 4.20151 4.36993 4.14452 3.27609
threshold=-0.88313927218689969 2.7479959753687893 -1.3279923168830858 -1.3867636057356518 1.3770271210387988 1.833447667497796
decision_type=2 2 2 2 2 2
left_child=1 2 -1 -4 -2 -6
right_child=4 -3 3 -5 5 -7
leaf_value=-0.020172878119537083 0.016124629993092103 -0.041586619111618241 -0.03593488126432285 0.078108813561417384 -0.13145726308561217 -0.024932563397693883
leaf_weight=7.7713189125061026 26.025506444275379 7.6086185574531546 3.5619343444705036 22.252142701297998 3.2379952296614674 27.18110441416502
leaf_count=41 130 37 19 111 16 137
internal_value=0 0.0258524 0.0419042 0.061413 -0.0125497 -0.0377172
internal_weight=0 41.194 33.5854 25.8141 56.4446 30.4191
internal_count=491 208 171 130 283 153
is_linear=0
shrinkage=0.1


Tree=55
num_leaves=7
num_cat=0
split_feature=7 7 2 19 0 4
split_gain=3.43649 7.00996 2.99187 3.13794 5.60899 3.6709
threshold=3.0422009337123632 1.7177119946802735 -0.58849980132727431 -0.84201601550794825 -0.56216174635969696 1.0053781631510696
decision_type=2 2 2 2 2 2
left_child=1 2 -1 4 -4 -5
right_child=-2 -3 3 5 -6 -7
leaf_value=0.027031881307410657 0.063017739226378142 -0.078266319450845737 -0.065702630249669991 -0.047152187243536099 0.061327145048069756 0.020572848078971449
leaf_weight=27.048884801566601 6.4679806232452384 13.14241751283407 4.6557781547307995 29.073790341615677 11.428649492561815 10.39042406529188
leaf_count=132 32 71 21 147 56 51
internal_value=0 -0.0109908 0 -0.0134023 0.0229206 -0.0287768
internal_weight=0 95.7399 82.5975 55.5486 16.0844 39.4642
internal_count=510 478 407 275 77 198
is_linear=0
shrinkage=0.1


Tree=56
num_leaves=7
num_cat=0
split_feature=25 11 6 20 17 17
split_gain=3.38329 3.13287 5.43183 4.58773 5.17327 4.50238
threshold=-3.7189857611129278 1.2135796525823921 5.4840396947682253 0.54103324762250493 -1.6608673413114954 1.1648913211956657
decision_type=2 2 2 2 2 2
left_child=-1 3 5 -2 -5 -3
right_child=1 2 -4 4 -6 -7
leaf_value=-0.10312373875416003 -0.030190784211165174 -0.061995340324319741 0.078157993222970887 -0.027704073534162335 0.074021835423044788 0.035556947147344586
leaf_weight=3.2374009713530532 49.145035400986671 8.4262686446309143 11.556749664247034 8.8411371335387248 10.527187362313269 10.122170768678187
leaf_count=16 241 44 59 49 51 50
internal_value=0 -0.00176588 0.0247791 -0.0137732 0.0266951 -0.00781825
internal_weight=0 98.6185 30.1052 68.5134 19.3683 18.5484
internal_count=510 494 153 341 100 94
is_linear=0
shrinkage=0.1


Tree=57
num_leaves=7
num_cat=0
split_feature=25 15 2 20 15 13
split_gain=2.85998 3.2211 2.74253 3.72171 3.86404 3.47651
threshold=-3.7700541240316237 -2.2121110235524006 -0.58849980132727431 0.98916747596945986 0.8498700945427754 -0.93260043707297202
decision_type=2 2 2 2 2 2
left_child=-1 -2 3 4 -3 -4
right_child=1 2 5 -5 -6 -7
leaf_value=-0.10287166305513651 0.12053376822186915 0.043186354692895564 -0.042773390141911831 0.08500435037220766 -0.037208107924044213 0.0028761288579164882
leaf_weight=2.7079163342714301 1.9022905901074398 11.224524028599268 28.123035714030266 6.638086386024951 12.337035432457922 38.660909354686737
leaf_count=13 10 58 146 34 59 190
internal_value=0 -0.00177794 -0.00462843 0.0199897 0.000244497 -0.0161006
internal_weight=0 98.8859 96.9836 30.1996 23.5616 66.7839
internal_count=510 497 487 151 117 336
is_linear=0
shrinkage=0.1


Tree=58
num_leaves=7
num_cat=0
split_feature=26 18 18 16 8 19
split_gain=2.73509 3.62267 2.67803 4.9025 4.40048 3.09427
threshold=1.5608654707316381 1.9835763621800613 2.3805781842221436 -1.5926410820831658 -1.9789055014768937 1.0000000180025095e-35
decision_type=2 2 2 2 2 2
left_child=2 -2 4 -4 -1 -6
right_child=1 -3 3 -5 5 -7
leaf_value=0.099409701675318415 0.001317367774596625 -0.10238727833799487 0.062451076213880352 -0.0083450541468635744 0.0070785293777045014 -0.043891996377531682
leaf_weight=2.9832737296819678 6.484373636543749 6.030711866915226 16.584933020174503 22.341767035424709 20.260179489850998 26.575501374900341
leaf_count=14 32 31 84 118 95 136
internal_value=0 -0.0477949 0.00163443 0.0214392 -0.0134423 -0.0214569
internal_weight=0 12.5151 88.7457 38.9267 49.819 46.8357
internal_count=510 63 447 202 245 231
is_linear=0
shrinkage=0.1


Tree=59
num_leaves=7
num_cat=0
split_feature=7 7 16 21 1 1
split_gain=3.04219 5.65061 6.25884 3.83246 3.29876 6.6707
threshold=3.0422009337123632 1.7177119946802735 -2.9527392275172013 -3.0980519181866435 0.15204318015756593 0.34476901236504603
decision_type=2 2 2 2 2 2
left_child=1 3 -3 -1 -5 -6
right_child=-2 2 -4 4 5 -7
leaf_value=0.12757822449117384 0.061607996764789313 0.014274005251100978 -0.1243125604914372 0.021750956149240681 -0.11402697104742954 -0.0040990175526722343
leaf_weight=2.1336878985166541 6.3616413921117774 4.9770168140530586 7.8985842019319517 32.159022800624371 6.2841676920652381 40.810752298682928
leaf_count=11 32 24 47 155 33 208
internal_value=0 -0.00865125 -0.0697119 0.00089265 -0.00255476 -0.0196183
internal_weight=0 94.2632 12.8756 81.3876 79.2539 47.0949
internal_count=510 478 71 407 396 241
is_linear=0
shrinkage=0.1


Tree=60
num_leaves=7
num_cat=0
split_feature=12 12 3 21 3 3
split_gain=4.07891 3.91113 2.7824 2.85685 2.57106 2.7723
threshold=-0.59279178753735795 -1.6069877516888671 -1.1113485203494728 -0.3552579775737485 1.2615509894536705 0.44813626239138865
decision_type=2 2 2 2 2 2
left_child=1 4 -3 -4 5 -1
right_child=-2 2 3 -5 -6 -7
leaf_value=-0.010169469383134837 -0.051525527412155506 -0.033619828746999779 0.084750809967656271 0 -0.047060800634931448 0.04099410454343571
leaf_weight=35.467475429177284 13.245056331157683 3.4996954202652004 13.020914517343048 6.1191209554672215 11.642867855727671 14.72151558101177
leaf_count=189 66 17 66 29 58 73
internal_value=0 0.00777213 0.0432416 0.05858 -0.00496974 0.0045196
internal_weight=0 84.4716 22.6397 19.14 61.8319 50.189
internal_count=498 432 112 95 320 262
is_linear=0
shrinkage=0.1


Tree=61
num_leaves=7
num_cat=0
split_feature=17 14 14 7 9 16
split_gain=2.65744 4.30223 5.66213 4.92938 3.79686 3.44832
threshold=-1.4978042352501324 -1.7419770048077312 -0.39829390760779454 1.1148252221979813 -1.59144079160222 -2.0868227136541355
decision_type=2 2 2 2 2 2
left_child=1 -1 3 -3 -4 -2
right_child=5 2 4 -5 -6 -7
leaf_value=0.089672040701181524 0.015458903800871022 -0.12036204983175608 -0.012203587976670349 0.014718948326818419 0.10058695522353144 -0.029688228750441293
leaf_weight=7.4201555699110058 28.000319309532642 5.0414258986711538 4.8740002289414432 5.0105184204876423 6.3490047454833922 40.768657315522432
leaf_count=37 140 26 27 27 32 209
internal_value=0 0.0251128 0.00101138 -0.0519657 0.0503813 -0.0110088
internal_weight=0 28.6951 21.2749 10.0519 11.223 68.769
internal_count=498 149 112 53 59 349
is_linear=0
shrinkage=0.1


Tree=62
num_leaves=7
num_cat=0
split_feature=1 15 1 0 1 7
split_gain=2.75319 4.80149 3.83783 6.75749 3.81955 3.66502
threshold=-0.24815668289032691 3.0926977228066934 0.80256792907616303 -0.13689929181040325 0.48602891589885056 1.4680587962690195
decision_type=2 2 2 2 2 2
left_child=1 -1 3 4 -2 -4
right_child=2 -3 5 -5 -6 -7
leaf_value=0.059832506759266928 0.033307079707433511 -0.039761867664230309 0.035115568798252943 -0.092225092499702899 -0.057193958973801418 -0.024439938290878552
leaf_weight=16.05417583882809 12.857073962688448 6.4780247062444678 24.549697518348694 12.567474484443663 7.0576312765479079 17.209211856126785
leaf_count=78 66 30 128 62 37 97
internal_value=0 0.030178 -0.0095834 -0.0354053 0 0.0100708
internal_weight=0 22.5322 74.2411 32.4822 19.9147 41.7589
internal_count=498 108 390 165 103 225
is_linear=0
shrinkage=0.1


Tree=63
num_leaves=7
num_cat=0
split_feature=12 7 0 0 0 0
split_gain=3.27991 3.95863 3.07159 2.66095 2.61234 4.33515
threshold=-0.59279178753735795 1.4857293787991839 1.0197803800822889 1.7853779096759679 -0.19343382041927201 -0.76171840991538498
decision_type=2 2 2 2 2 2
left_child=2 -2 4 -4 5 -1
right_child=1 -3 3 -5 -6 -7
leaf_value=-0.012427066949284651 0.0079971445122416131 -0.098428925247100896 0.098307563111879326 -0.00035255426153670992 -0.025967849629657314 0.047710180701761806
leaf_weight=26.774299602955576 6.2586915269494039 6.8098760321736336 6.1655044853687269 4.0612827837467194 25.443811606615782 20.904060110449795
leaf_count=142 32 34 29 20 133 108
internal_value=0 -0.0464982 0.00702851 0.0578263 0 0.0135857
internal_weight=0 13.0686 83.349 10.2268 73.1222 47.6784
internal_count=498 66 432 49 383 250
is_linear=0
shrinkage=0.1


Tree=64
num_leaves=7
num_cat=0
split_feature=24 24 1 22 1 22
split_gain=2.73198 3.53262 4.06814 3.77794 3.67402 3.45651
threshold=1.8925575946775228 1.000244572527256 0.86306974981453 0.99723360398600025 0.16354642225430902 0.46552280719434208
decision_type=2 2 2 2 2 2
left_child=1 2 3 4 -1 -2
right_child=5 -3 -4 -5 -6 -7
leaf_value=-0.0039794998247153985 0.068227052491887638 -0.045149897235595558 0.046427278470512645 0.034964246968363331 -0.075614514682430689 -0.027627957031987879
leaf_weight=21.091690644621849 11.149182975292208 19.209956292062998 16.229477740824223 12.041326805949209 11.229674302041529 5.1248730942606917
leaf_count=103 61 97 89 61 60 27
internal_value=0 -0.00792863 0.00363144 -0.0116856 -0.029817 0.0367927
internal_weight=0 79.8021 60.5922 44.3627 32.3214 16.2741
internal_count=498 410 313 224 163 88
is_linear=0
shrinkage=0.1


Tree=65
num_leaves=7
num_cat=0
split_feature=9 10 8 12 12 1
split_gain=3.37082 3.02508 2.88596 2.93179 3.02389 3.16125
threshold=-3.0641204324054043 -1.7358904951087886 -2.2402575017624007 -0.58016632858448125 -1.2489380542397703 0.24106451148410377
decision_type=2 2 2 2 2 2
left_child=-1 -2 -3 4 5 -4
right_child=1 2 3 -5 -6 -7
leaf_value=-0.087672875965934427 -0.030201567504233525 -0.082798852690402561 0.0447340603053425 -0.053401416323331709 0.093818556764991679 -0.0058457689974413894
leaf_weight=4.6382314413785926 26.322359748184681 2.9353884682059279 19.963904663920403 5.3456012308597556 5.2266606017947188 30.329162377864122
leaf_count=28 136 16 97 26 27 163
internal_value=0 -0.00160459 0.00992023 0.0149844 0.0221089 0.0139092
internal_weight=0 90.1231 63.8007 60.8653 55.5197 50.2931
internal_count=493 465 329 313 287 260
is_linear=0
shrinkage=0.1


Tree=66
num_leaves=7
num_cat=0
split_feature=9 19 19 19 7 7
split_gain=2.87564 2.71397 2.44225 2.67676 2.13673 2.08448
threshold=-3.0641204324054043 -1.8355665255798119 -1.5716527544009364 -1.0131312245334727 0.71452826720935081 -0.73910556531609273
decision_type=2 2 2 2 2 2
left_child=-1 4 -3 -4 -2 -5
right_child=1 2 3 5 -6 -7
leaf_value=-0.082415269017301673 0.0045571042781180409 -0.065482140230942121 0.08027802890751129 0.025581607778658921 0.09941447430922809 -0.016313474803579496
leaf_weight=4.462371200323104 6.3212373256683332 6.6113613210618487 3.4861473813652983 14.699427112936965 4.1976611241698265 54.574024252593524
leaf_count=28 32 34 17 74 22 286
internal_value=0 -0.00147997 -0.0080642 -0.00239876 0.045486 -0.00707409
internal_weight=0 89.8899 79.371 72.7596 10.5189 69.2735
internal_count=493 465 411 377 54 360
is_linear=0
shrinkage=0.1


Tree=67
num_leaves=7
num_cat=0
split_feature=18 4 6 19 15 17
split_gain=2.6351 6.15772 4.25959 3.36185 3.2523 3.22236
threshold=2.2665550369343381 0.95627977727664148 7.1910611467883259 -1.8170858079129901 -0.75996018610890048 -2.1185372699412022
decision_type=2 2 2 2 2 2
left_child=3 2 -2 -1 -3 -5
right_child=1 4 -4 5 -6 -7
leaf_value=0.04288536561666579 0.062647333507763928 0 -0.011858271528258609 -0.12019871580328512 -0.10699235804951929 -0.02200793499138106
leaf_weight=6.7461381256580344 20.557403869926933 6.1972016394138336 11.42261392995715 3.6334176212549201 5.103051654994486 40.245881583541632
leaf_count=36 110 29 67 18 26 207
internal_value=0 0.0126922 0.0354696 -0.0207076 -0.0494492 -0.0311073
internal_weight=0 43.2803 31.98 50.6254 11.3003 43.8793
internal_count=493 232 177 261 55 225
is_linear=0
shrinkage=0.1


Tree=68
num_leaves=7
num_cat=0
split_feature=25 10 25 4 14 14
split_gain=2.23307 3.57265 4.03212 2.64087 2.93669 2.60652
threshold=2.7838361737429889 -1.7358904951087886 1.8961303969096488 0.29600348696979556 -1.3203502328210515 -0.23004858549799115
decision_type=2 2 2 2 2 2
left_child=1 3 5 -1 -5 -3
right_child=-2 2 -4 4 -6 -7
leaf_value=-0.0066052837624935891 0.055698637349825421 -0.00022913241663402944 -0.073174940236349018 -0.015843524578959003 -0.1192287364195292 0.047521192020561119
leaf_weight=12.543281853199007 5.4732347428798667 42.38531056791544 5.9278398156166068 5.6611569821834564 6.5238675102591497 15.039709515869616
leaf_count=68 27 230 28 30 33 77
internal_value=0 -0.00877574 0.00352684 -0.0409224 -0.0738934 0.0120287
internal_weight=0 88.0812 63.3529 24.7283 12.185 57.425
internal_count=493 466 335 131 63 307
is_linear=0
shrinkage=0.1


Tree=69
num_leaves=7
num_cat=0
split_feature=22 24 11 20 5 11
split_gain=2.27618 3.25147 2.87157 2.58286 2.84958 2.41093
threshold=-2.6049373253920218 -2.5759884445698495 -1.663214143621736 -0.5740698517227637 -0.072742037712311886 -0.45104056496849465
decision_type=2 2 2 2 2 2
left_child=-1 -2 3 4 -3 -4
right_child=1 2 5 -5 -6 -7
leaf_value=-0.065060739830728465 0.07118639578567458 0.034322675549319469 0.04232508219685948 -0.079548731877767259 -0.062977697367758989 -0.0050782181160502898
leaf_weight=5.5915372148156157 5.7419138997793189 6.8079712614417076 13.441173389554022 8.5079103931784612 5.0033640414476412 48.13678527623415
leaf_count=28 29 34 67 45 26 264
internal_value=0 -4.47555e-05 -0.00545104 -0.0379829 -0.00549053 0.00502803
internal_weight=0 87.6391 81.8972 20.3192 11.8113 61.578
internal_count=493 465 436 105 60 331
is_linear=0
shrinkage=0.1


Tree=70
num_leaves=7
num_cat=0
split_feature=11 13 0 2 13 19
split_gain=3.83605 4.66095 4.57034 2.89861 4.32504 5.0069
threshold=1.2135796525823921 -2.8305713432085153 1.5665945392886895 0.53431091347464277 1.1165661123988739 -0.6259815890978162
decision_type=2 2 2 2 2 2
left_child=2 -2 3 4 5 -1
right_child=1 -3 -4 -5 -6 -7
leaf_value=-0.081130185023894158 -0.073143184571402078 0.043165828082558443 -0.11560603651643596 -0.041785960581623399 0.048378423317821773 0.0095617924988758603
leaf_weight=8.4445499703288061 3.6819197908043888 25.670391894876957 4.1329660117626181 18.226422272622585 15.136534400284289 19.496025852859024
leaf_count=48 22 135 21 95 78 103
internal_value=0 0.0274809 -0.0158569 -0.00844777 0.00529494 -0.0174686
internal_weight=0 29.3523 65.4365 61.3035 43.0771 27.9406
internal_count=502 157 345 324 229 151
is_linear=0
shrinkage=0.1


Tree=71
num_leaves=7
num_cat=0
split_feature=26 18 26 15 15 23
split_gain=3.05139 4.78826 2.85123 5.38115 3.90937 3.33323
threshold=1.2507971139006306 1.9835763621800613 -0.78521531804750799 -1.9029873441707279 3.1259743173175161 -2.135866506295228
decision_type=2 2 2 2 2 2
left_child=2 -2 -1 -4 5 -5
right_child=1 -3 3 4 -6 -7
leaf_value=-0.018098565210358658 0.0068061093324361527 -0.092796665043461166 0.13634798962193703 0.051933676046136579 0.083975046519800242 -0.017412303212935201
leaf_weight=28.162104800343513 9.9787826240062731 8.5136427916586381 3.6130759492516509 8.8973259553313202 6.1469798348844042 28.894900102168325
leaf_count=149 51 46 18 45 32 161
internal_value=0 -0.0384078 0.00663692 0.0217411 0.0112846 -0.000351065
internal_weight=0 18.4924 75.7144 47.5523 43.9392 37.7922
internal_count=502 97 405 256 238 206
is_linear=0
shrinkage=0.1


Tree=72
num_leaves=7
num_cat=0
split_feature=11 5 6 6 20 25
split_gain=3.15328 2.83163 3.86516 4.15048 2.5712 2.43165
threshold=1.2135796525823921 0.34499295596884805 5.3798787221231548 6.9396051653781869 -0.69255021743648337 2.7838361737429889
decision_type=2 2 2 2 2 2
left_child=5 2 4 -4 -2 -1
right_child=1 -3 3 -5 -6 -7
leaf_value=-0.019845351475312557 0.0075260786943870091 0.096880230702358253 0.12011406289861158 0 -0.079139230643724398 0.054724133534033596
leaf_weight=60.272051766514778 8.6560905165970343 4.5074341818690291 5.014885760843752 5.9644203148782253 5.0757830366492298 4.4023961797356597
leaf_count=323 43 24 25 36 29 22
internal_value=0 0.025128 0.010545 0.0548665 -0.0236496 -0.014297
internal_weight=0 29.2186 24.7112 10.9793 13.7319 64.6744
internal_count=502 157 133 61 72 345
is_linear=0
shrinkage=0.1


Tree=73
num_leaves=7
num_cat=0
split_feature=0 10 18 18 18 26
split_gain=2.61003 2.31974 4.75053 3.09952 3.15002 2.39329
threshold=1.7853779096759679 -0.7706196300253696 -0.67267018086426611 0.33199645363200653 1.0065593348440995 1.1760366225672072
decision_type=2 2 2 2 2 2
left_child=1 2 -1 -4 -5 -6
right_child=-2 -3 3 4 5 -7
leaf_value=0.091170331411090808 -0.07659605783807949 -0.015630691649595733 -0.07518542118441543 0.092070617297485613 0.015403037206857154 -0.0513809386679559
leaf_weight=7.1212639212608329 4.2330010645091525 39.960167396813631 4.2471196427941313 4.2575509548187247 27.280971854925156 6.4449619799852362
leaf_count=36 23 225 22 21 141 34
internal_value=0 0.00196886 0.0166495 0.00322919 0.0128845 0.00180016
internal_weight=0 89.312 49.3519 42.2306 37.9835 33.7259
internal_count=502 479 254 218 196 175
is_linear=0
shrinkage=0.1


Tree=74
num_leaves=7
num_cat=0
split_feature=11 4 17 0 17 11
split_gain=2.6202 3.83167 3.78439 3.57546 2.7839 3.4232
threshold=1.2135796525823921 1.0433199098431629 1.3296902134822124 1.5665945392886895 -0.41340600301435243 3.1643620841770526
decision_type=2 2 2 2 2 2
left_child=3 2 4 -1 5 -2
right_child=1 -3 -4 -5 -6 -7
leaf_value=-0.0063762577941120823 0.084884111482985247 -0.042010987803982484 0.092739554399421484 -0.10478386510606717 -0.056323289328728376 -0.036991465105667358
leaf_weight=60.487711358815432 5.9307948313653487 6.4749435372650614 9.0397808477282506 3.8042159080505362 4.2101509720087078 3.2689925283193588
leaf_count=324 33 36 47 21 22 19
internal_value=0 0.0232765 0.0432343 -0.012822 0.00747173 0.0394659
internal_weight=0 28.9247 22.4497 64.2919 13.4099 9.19979
internal_count=502 157 121 345 74 52
is_linear=0
shrinkage=0.1


Tree=75
num_leaves=7
num_cat=0
split_feature=2 7 20 16 25 11
split_gain=2.3704 4.19289 4.9395 3.47886 2.55504 1.87706
threshold=-0.23255178634663684 1.5796927287388181 -1.5323051779939016 -2.6878272347793377 1.7829879657755516 -1.0000000180025095e-35
decision_type=2 2 2 2 2 2
left_child=1 2 5 -3 -4 -1
right_child=-2 3 4 -5 -6 -7
leaf_value=-0.062192054353341991 -0.011509165625651317 0.015609668553250891 0.089322875390662915 -0.11799201349604012 0.0068511286523664618 0.018562781006282388
leaf_weight=4.7344858944416046 50.445312850177288 3.7453748434782028 14.379239995032551 3.3398653306066981 5.8819560036063185 6.205956235527994
leaf_count=24 268 19 71 24 30 33
internal_value=0 0.0213426 0.0374791 -0.0459346 0.0667008 -0.0149653
internal_weight=0 38.2869 31.2016 7.08524 20.2612 10.9404
internal_count=469 201 158 43 101 57
is_linear=0
shrinkage=0.1


Tree=76
num_leaves=7
num_cat=0
split_feature=10 23 5 5 5 5
split_gain=1.63254 2.18409 5.79283 4.23235 2.87587 3.65488
threshold=0.62074346461214136 -2.0660609153483045 0.65203897363046381 1.0000000180025095e-35 -0.035395190515624342 -0.3365576475578223
decision_type=2 2 2 2 2 2
left_child=1 3 4 -1 5 -3
right_child=-2 2 -4 -5 -6 -7
leaf_value=-0.00061911319343538047 0.046897357894436539 -0.0025541870033763264 0.092812762749955327 -0.10434476588678164 -0.057832708183282289 0.093022410818502932
leaf_weight=14.632607437670233 7.3147893249988547 41.904165230691426 6.8583742454648009 5.4093555733561507 8.0741445869207364 4.1939704790711465
leaf_count=76 40 220 38 27 46 22
internal_value=0 -0.0016969 0.00744588 -0.0303839 -0.00326579 0.0060382
internal_weight=0 81.0726 61.0307 20.042 54.1723 46.0981
internal_count=469 429 326 103 288 242
is_linear=0
shrinkage=0.1


Tree=77
num_leaves=7
num_cat=0
split_feature=3 1 1 1 25 1
split_gain=2.67685 2.30648 5.85782 3.43478 4.99739 2.85462
threshold=-0.98024632995868843 1.1912415530732414 1.580170381704822 -0.26011941060390192 2.0753375474943936 -0.74799301874729796
decision_type=2 2 2 2 2 2
left_child=-1 3 -3 4 5 -2
right_child=1 2 -4 -5 -6 -7
leaf_value=-0.054409114671547326 0.0061488254168832182 0.10178682109420499 -0.003754070835154263 -0.020647887854249192 -0.042377723868111644 0.098529928901966934
leaf_weight=7.4270403534173957 6.2906798571348199 8.0738233700394648 13.437016971409319 38.054777462035418 6.3131114020943633 8.5595691651105881
leaf_count=40 33 42 79 199 31 45
internal_value=0 0.00748931 0.0354424 -0.00239238 0.0293377 0.0613774
internal_weight=0 80.729 21.5108 59.2181 21.1634 14.8502
internal_count=469 429 121 308 109 78
is_linear=0
shrinkage=0.1


Tree=78
num_leaves=7
num_cat=0
split_feature=0 14 0 16 16 13
split_gain=2.74555 4.87008 4.19051 3.0288 2.75298 2.42171
threshold=-0.7482241204055996 -1.4070725297024878 -0.96131839376500305 -1.2461019454698132 -2.5352002523466819 1.7935130465429152
decision_type=2 2 2 2 2 2
left_child=1 3 4 -1 -3 -2
right_child=5 2 -4 -5 -6 -7
leaf_value=-0.019194032571523564 0.023954787043257854 0.05532610320715832 -0.11885656315780127 0.069264478931111165 -0.060654072253043569 -0.030453748342393557
leaf_weight=8.989383000880478 48.359481148421764 3.2799157127737999 6.9594758599996549 6.2537841871380833 4.6038397327065468 9.3618501648306829
leaf_count=48 261 17 36 35 26 46
internal_value=0 -0.0224127 -0.0631095 0.0161461 -0.00962635 0.0146946
internal_weight=0 30.0864 14.8432 15.2432 7.88376 57.7213
internal_count=469 162 79 83 43 307
is_linear=0
shrinkage=0.1


Tree=79
num_leaves=7
num_cat=0
split_feature=21 22 25 25 21 14
split_gain=2.14692 6.32994 4.58043 3.86124 3.67249 2.94555
threshold=1.0000000180025095e-35 0.33001124097897971 -1.3641257712460952 0.5569442552697087 0.39449236459121712 -1.4987036049662252
decision_type=2 2 2 2 2 2
left_child=1 -1 -3 5 -5 -2
right_child=3 2 -4 4 -6 -7
leaf_value=-0.037343196733043017 0.087124674590977835 -0.050464247403140344 0.052434790492970111 0.04838146509858221 -0.066807975566271799 0.0036841514773534138
leaf_weight=34.07362562045455 10.252279326319696 5.2270454615354565 18.962385207414627 4.1773063316941244 6.9027074128389359 8.0661358945071715
leaf_count=196 51 27 101 20 34 40
internal_value=0 -0.00938718 0.0291125 0.023619 -0.0214275 0.0519424
internal_weight=0 58.2631 24.1894 29.3984 11.08 18.3184
internal_count=469 324 128 145 54 91
is_linear=0
shrinkage=0.1


Tree=80
num_leaves=7
num_cat=0
split_feature=8 16 4 3 8 24
split_gain=2.21521 5.23783 4.29172 3.10896 2.99885 2.71343
threshold=-0.54452460875792486 -0.31255853119872506 -0.63737987719862732 0.51882776412097364 0.78697051087834502 1.3742458339121801
decision_type=2 2 2 2 2 2
left_child=3 2 5 -1 -3 -2
right_child=1 4 -4 -5 -6 -7
leaf_value=-0.0020893299416906079 0.12230913796210884 -0.10353169536542806 -0.010297032391042571 0.051174518371246848 0 0
leaf_weight=23.860723149031401 4.5259924605488759 7.653852626681326 24.557126399129629 18.991874508559704 4.3469728752970695 3.5149203240871429
leaf_count=139 26 44 131 97 21 19
internal_value=0 -0.010471 0.00982897 0.0211512 -0.0666213 0.0726514
internal_weight=0 44.5989 32.598 42.8526 12.0008 8.04091
internal_count=477 241 176 236 65 45
is_linear=0
shrinkage=0.1


Tree=81
num_leaves=7
num_cat=0
split_feature=21 23 7 21 23 16
split_gain=2.22134 2.74232 3.64365 2.3669 2.84088 2.19093
threshold=0.085794470242819262 -2.0751657543661284 -1.5429106962530459 -0.26053909980603079 -2.0450406390094358 1.3369225946084067
decision_type=2 2 2 2 2 2
left_child=3 -2 -3 5 -5 -1
right_child=1 2 -4 4 -6 -7
leaf_value=0.009504340739730853 -0.030495001753138098 -0.03262240935562264 0.069508091668817204 0.017299682016586763 -0.089429565498645572 -0.061115435199112833
leaf_weight=47.369744624942541 5.399536635726693 4.0513488873839423 15.551205694675442 3.4657523259520531 6.3769627287983877 4.6186149455606929
leaf_count=262 29 21 81 19 38 27
internal_value=0 0.0294991 0.0472244 -0.00556591 -0.050141 0.0026241
internal_weight=0 25.0021 19.6026 61.8311 9.84272 51.9884
internal_count=477 131 102 346 57 289
is_linear=0
shrinkage=0.1


Tree=82
num_leaves=7
num_cat=0
split_feature=5 4 24 24 24 21
split_gain=2.07632 3.02647 2.19657 4.69049 3.78747 2.75978
threshold=-1.8088939374962865 0.48731084040228806 0.81511236742230919 0.70710678118654724 0.97813852715561622 -0.91587245892884361
decision_type=2 2 2 2 2 2
left_child=1 -1 3 5 -4 -2
right_child=2 -3 4 -5 -6 -7
leaf_value=0.11130004985586808 -0.019692462545755175 -0.004844672660574003 -0.10955887127016169 0.12103383933295489 -0.0069790016191141283 0.029618594343995653
leaf_weight=4.0152803808450681 24.335061907768246 4.0777728781104088 4.1184762790799168 3.4589142650365821 25.716143246740103 20.766010712832216
leaf_count=22 137 23 22 20 140 113
internal_value=0 0.0514891 -0.000934185 0.0118921 -0.0224541 0.00257659
internal_weight=0 8.09305 78.3946 48.56 29.8346 45.1011
internal_count=477 45 432 270 162 250
is_linear=0
shrinkage=0.1


Tree=83
num_leaves=7
num_cat=0
split_feature=8 16 6 25 5 15
split_gain=2.33834 2.35357 3.20948 3.07863 3.80128 2.05134
threshold=1.7060636818245343 -2.0868227136541355 1.5454490057174206 -1.9106335401223153 0.062167150923119807 3.2520021862987938
decision_type=2 2 2 2 2 2
left_child=1 2 -1 -4 -5 -3
right_child=-2 5 3 4 -6 -7
leaf_value=-0.058212629469500489 -0.071566273012766066 -0.013244174395425627 -0.029551174638899742 0.083784176684578396 -0.0034829506937134346 0.044923668447992893
leaf_weight=3.3293336480855968 3.7245566993951789 45.579027559608221 4.5393350198864999 15.644934277981518 6.6075978428125373 6.7078785076737395
leaf_count=18 18 260 23 91 36 31
internal_value=0 0.00725206 0.0295315 0.0415539 0.0571263 -0.0052428
internal_weight=0 82.4081 30.1212 26.7919 22.2525 52.2869
internal_count=477 459 168 150 127 291
is_linear=0
shrinkage=0.1


Tree=84
num_leaves=7
num_cat=0
split_feature=12 7 12 26 19 1
split_gain=2.03599 3.71681 3.10434 3.75836 4.09517 4.63382
threshold=-2.9893841392408782 0.42694536239334352 -2.530342399931774 -1.7147325453434332 2.9357592167807827 0.2916955607405271
decision_type=2 2 2 2 2 2
left_child=1 -1 -2 -4 -5 -6
right_child=2 -3 3 4 5 -7
leaf_value=-0.11050763413496045 0.040518659244278693 0.017116090355379043 -0.080514468313436408 0.017858540837730089 0.0093922377313709685 -0.13332391248718498
leaf_weight=4.0276632457971555 21.542440492659807 4.3669335693120956 5.5631545782089225 41.693964760750532 4.3725975975394231 4.0034085810184479
leaf_count=21 127 25 31 228 24 21
internal_value=0 -0.0427729 0.00838407 -0.00377915 0.00460438 -0.0578307
internal_weight=0 8.3946 77.1756 55.6331 50.07 8.37601
internal_count=477 46 431 304 273 45
is_linear=0
shrinkage=0.1


Tree=85
num_leaves=7
num_cat=0
split_feature=12 25 1 7 0 22
split_gain=4.0113 2.84322 2.65828 4.13312 4.73824 4.34278
threshold=-2.9157981216282676 -0.98972220795498078 0.78421032269144642 1.5106049690131982 -0.63119328814180187 -1.3185567891645595
decision_type=2 2 2 2 2 2
left_child=1 -1 -2 5 -5 -4
right_child=2 -3 3 4 -6 -7
leaf_value=0.0053564598200867043 -0.0039859585868806729 -0.085025586905766198 -0.027024354799565699 -0.069327692607118171 0.044137101087881443 0.088572285997951167
leaf_weight=5.2812195904552928 47.256197568029165 8.0284931920468789 3.7361420840024939 6.5266471058130264 7.8382027558982355 14.660146042704584
leaf_count=27 252 47 23 35 45 81
internal_value=0 -0.0480394 0.0108062 0.0326805 -0.00620493 0.063926
internal_weight=0 13.3097 80.0173 32.7611 14.3648 18.3963
internal_count=510 74 436 184 80 104
is_linear=0
shrinkage=0.1


Tree=86
num_leaves=7
num_cat=0
split_feature=24 22 18 23 17 4
split_gain=3.08229 2.44457 2.58619 3.66834 2.53593 3.1415
threshold=1.6866143025861877 -2.6049373253920218 2.4228482139706276 -0.64367754558386947 0.26253879166013022 0.60717676240705554
decision_type=2 2 2 2 2 2
left_child=1 -1 4 -4 5 -3
right_child=-2 2 3 -5 -6 -7
leaf_value=-0.079546023551547579 0.036720497385190148 -0.031617783921928218 -0.00066491656194368699 0.076825124042779275 -0.049131963905214113 0.046111202472995695
leaf_weight=4.2434960827231398 19.897425770759583 11.398922368884088 23.676632810384039 7.8042553290724745 16.799972221255302 9.1764312870800477
leaf_count=24 109 60 134 43 91 49
internal_value=0 -0.00743345 -0.00247433 0.0182317 -0.0204793 0.00214129
internal_weight=0 73.0997 68.8562 31.4809 37.3753 20.5754
internal_count=510 401 377 177 200 109
is_linear=0
shrinkage=0.1


Tree=87
num_leaves=7
num_cat=0
split_feature=12 20 1 1 1 16
split_gain=3.14883 2.64442 3.60493 3.36411 3.24456 3.17235
threshold=-2.9185818077255976 0.17536750690698827 0.80256792907616303 1.0482005029373522 -0.26011941060390192 -2.6791088657425655
decision_type=2 2 2 2 2 2
left_child=-1 2 4 -4 -2 -6
right_child=1 -3 3 -5 5 -7
leaf_value=-0.043940619410334447 0.014037374718249085 0.036943036113407379 0.099808367061980874 0.0059831206882256516 0.0097698815804971289 -0.073279847131507841
leaf_weight=12.72579702362418 13.253758542239664 23.930348977446556 4.9267060644924667 17.491763539612293 6.012833170592784 14.572282735258343
leaf_count=71 70 132 28 97 31 81
internal_value=0 0.00918817 -0.002331 0.0282096 -0.0232283 -0.0481427
internal_weight=0 80.1877 56.2573 22.4185 33.8389 20.5851
internal_count=510 439 307 125 182 112
is_linear=0
shrinkage=0.1


Tree=88
num_leaves=7
num_cat=0
split_feature=12 12 20 9 1 26
split_gain=2.58931 2.31426 2.12942 3.06577 2.9634 2.95928
threshold=-2.9185818077255976 -3.0997966189041994 0.17536750690698827 -0.3285675914766038 0.80256792907616303 0.66129462925213733
decision_type=2 2 2 2 2 2
left_child=1 -1 4 -4 -2 -6
right_child=2 -3 3 -5 5 -7
leaf_value=0.012284241448649546 -0.021076939534996841 -0.07235883491358483 0.0065203522736253031 0.083900579265625996 0.044689134374109443 -0.042717891125650165
leaf_weight=4.6341346576809883 33.466045636683702 7.9927152879536134 16.050257500261072 7.8622883334755889 17.756625503301624 4.5421585738658896
leaf_count=26 182 45 90 42 99 26
internal_value=0 -0.0399348 0.00841624 0.0333042 -0.00195779 0.0257347
internal_weight=0 12.6268 79.6774 23.9125 55.7648 22.2988
internal_count=510 71 439 132 307 125
is_linear=0
shrinkage=0.1


Tree=89
num_leaves=7
num_cat=0
split_feature=19 7 13 9 18 17
split_gain=2.28497 4.25065 3.24437 4.46218 2.58697 3.08617
threshold=1.0000000180025095e-35 -1.4494156540909422 1.0000000180025095e-35 -2.3057461541685043 0.85832411950600418 -0.86620267107356685
decision_type=2 2 2 2 2 2
left_child=1 -1 3 -3 -5 -6
right_child=-2 2 -4 4 5 -7
leaf_value=-0.050129793772293589 -0.012641148843819268 -0.070962301302958067 0.067462949021022067 0.095424637394924905 0.078662832926369969 -0.039067878271726475
leaf_weight=6.9792606085538855 50.548855766654015 5.2444402724504462 15.500643301755188 4.5822249464690712 3.3128974884748432 5.8386103473603734
leaf_count=36 281 33 84 23 18 35
internal_value=0 0.0189217 0.0337078 0.00463784 0.0356024 0.00204291
internal_weight=0 41.4581 34.4788 18.9782 13.7337 9.15151
internal_count=510 229 193 109 76 53
is_linear=0
shrinkage=0.1


Tree=90
num_leaves=7
num_cat=0
split_feature=1 16 5 23 13 23
split_gain=4.60606 5.79356 2.77639 2.75696 2.72531 2.58558
threshold=0.16354642225430902 -2.6093925101244095 -1.4777157373426528 -2.3325956551981961 -0.99667155415294439 -0.35868475341251532
decision_type=2 2 2 2 2 2
left_child=-1 3 4 -2 -3 -4
right_child=1 2 5 -5 -6 -7
leaf_value=0.026980935687945358 0.090513231907955655 -0.042941920554281587 -0.083380629986180718 0.0010056221991710148 0.054746811537525919 0
leaf_weight=35.806036502122879 4.4467289224267033 7.0177903473377228 17.193985894322395 15.294158957898615 4.4925957471132261 4.9306330718100098
leaf_count=191 26 39 107 85 21 31
internal_value=0 -0.0192602 -0.0446196 0.0229053 -0.00274002 -0.065252
internal_weight=0 53.3759 33.635 19.7409 11.5104 22.1246
internal_count=500 309 198 111 60 138
is_linear=0
shrinkage=0.1


Tree=91
num_leaves=7
num_cat=0
split_feature=19 22 10 22 26 15
split_gain=6.51314 2.57074 3.09717 2.75488 2.87257 2.21115
threshold=4.3298085682543261 0.65572838983407178 -1.7358904951087886 1.1425896035748637 -1.0152269691593567 0.2233738545330031
decision_type=2 2 2 2 2 2
left_child=1 2 5 -3 -5 -1
right_child=-2 3 -4 4 -6 -7
leaf_value=-0.099884000419372593 0.097555707779585513 0.068332663554735121 -0.0072788499402281605 -0.060297506885205521 0.023578005944274998 -0.0078862083270569861
leaf_weight=7.1639219969511014 6.0886530652642241 7.4137020334601429 44.440022010356188 5.7995920628309312 12.458286106586451 4.9302182272076607
leaf_count=41 33 41 257 32 69 27
internal_value=0 -0.00806372 -0.0201356 0.0176589 -0.00227601 -0.0648076
internal_weight=0 82.2057 56.5342 25.6716 18.2579 12.0941
internal_count=500 467 325 142 101 68
is_linear=0
shrinkage=0.1


Tree=92
num_leaves=7
num_cat=0
split_feature=19 16 4 9 25 8
split_gain=5.43343 5.30963 4.28774 3.21576 2.9652 2.7461
threshold=4.3298085682543261 -2.5352002523466819 -0.29652237326230463 0.31497240066515747 -2.7659416105642181 0.40157393678494263
decision_type=2 2 2 2 2 2
left_child=1 3 5 4 -1 -3
right_child=-2 2 -4 -5 -6 -7
leaf_value=-0.02817036188177003 0.090092066162939036 -0.1129822804570144 -0.010843258636910273 -0.029259702862200705 0.066052246444424062 0
leaf_weight=3.6859436109662118 5.9567925855517379 7.7137108184397203 43.604037676006556 6.7511979565024367 16.898249816149473 3.1670782491564751
leaf_count=20 33 51 238 36 102 20
internal_value=0 -0.00734693 -0.025567 0.028129 0.0480618 -0.0814522
internal_weight=0 81.8202 54.4848 27.3354 20.5842 10.8808
internal_count=500 467 309 158 122 71
is_linear=0
shrinkage=0.1


Tree=93
num_leaves=7
num_cat=0
split_feature=16 4 17 8 3 21
split_gain=3.33691 2.87221 3.81769 2.7157 3.12009 2.85366
threshold=-2.7402099540866747 -0.31972602900410868 -0.39738533765039008 -1.4981809166615279 1.0000000180025095e-35 -1.5239200324678928
decision_type=2 2 2 2 2 2
left_child=-1 2 -2 -3 -5 -6
right_child=1 3 -4 4 5 -7
leaf_value=0.034156024101511764 0 0.037234527269675514 -0.10775275902523079 0.016996208213189607 0.0043306324437080287 -0.066293922251337331
leaf_weight=20.804353453218937 6.4757635518908501 13.441182989627121 6.3302110712975246 17.031751174479723 8.6100289300084096 14.117261312901976
leaf_count=126 41 72 44 94 46 77
internal_value=0 -0.0115833 -0.0537555 -0.000879862 -0.0144097 -0.0388087
internal_weight=0 66.0062 12.806 53.2002 39.759 22.7273
internal_count=500 374 85 289 217 123
is_linear=0
shrinkage=0.1


Tree=94
num_leaves=7
num_cat=0
split_feature=19 16 1 15 24 16
split_gain=4.42428 3.78777 3.9093 5.20816 3.4617 2.73381
threshold=4.3298085682543261 -2.5352002523466819 -0.063386437902909681 1.5736905117184301 -0.8553072684756603 -0.75764641072773964
decision_type=2 2 2 2 2 2
left_child=1 -1 3 5 -4 -3
right_child=-2 2 4 -5 -6 -7
leaf_value=0.023557089427835173 0.082491964167485207 -0.0041027907024243603 -0.11739790349855224 -0.038931310646002817 -0.02802784713091902 0.095347883348032597
leaf_weight=26.789763733744621 5.7842453718185416 3.8180371150374413 5.3553985655307761 10.310335576534269 27.06030822917819 7.0380617082119006
leaf_count=158 33 21 33 51 169 35
internal_value=0 -0.00665979 -0.0221894 0.0103933 -0.0440461 0.0590055
internal_weight=0 80.3719 53.5821 21.1664 32.4157 10.8561
internal_count=500 467 309 107 202 56
is_linear=0
shrinkage=0.1


Tree=95
num_leaves=7
num_cat=0
split_feature=25 25 21 7 9 19
split_gain=2.53436 3.88713 3.0301 3.02404 4.54557 3.19014
threshold=-1.9106335401223153 -1.11687678067606 -2.599133753531182 -0.73910556531609273 -0.36935523542555876 2.9357592167807827
decision_type=2 2 2 2 2 2
left_child=-1 2 -2 4 -3 -5
right_child=1 3 -4 5 -6 -7
leaf_value=-0.039413598285978992 -0.011630782599178352 0.083569730400029407 0.092648232701164845 -0.0039101452361325357 -0.020836550002757175 -0.07980369565817777
leaf_weight=13.117432441562412 3.5859431549906722 8.6560198888182622 8.325248468667267 38.630371823906898 7.2942892014980307 6.4298353753983966
leaf_count=75 21 52 48 227 38 38
internal_value=0 0.00800465 0.0598301 -0.00192615 0.034841 -0.0154993
internal_weight=0 72.9217 11.9112 61.0105 15.9503 45.0602
internal_count=499 424 69 355 90 265
is_linear=0
shrinkage=0.1


Tree=96
num_leaves=7
num_cat=0
split_feature=20 20 20 5 5 20
split_gain=2.01263 3.22812 2.52799 4.09248 3.85406 3.66716
threshold=-1.6785043304231417 -2.5577204905417639 -0.83065745530641311 -1.9247773364965814 -0.72457351427031902 -0.29150380487921979
decision_type=2 2 2 2 2 2
left_child=1 -1 4 -4 -2 -5
right_child=2 -3 3 5 -6 -7
leaf_value=0.028447985233634083 0.089564405656246349 -0.046232494210399003 -0.10880410611820859 -0.033096391841712494 -0.0091903379748797167 0.028955746479537883
leaf_weight=7.9584509432315853 8.5400537997484189 18.045567762106657 3.0880164206027976 14.210828509181733 6.516810566186904 27.250961601734165
leaf_count=48 46 101 17 85 36 166
internal_value=0 -0.0225318 0.0106915 -0.000872818 0.0458662 0.00712738
internal_weight=0 26.004 59.6067 44.5498 15.0569 41.4618
internal_count=499 149 350 268 82 251
is_linear=0
shrinkage=0.1


Tree=97
num_leaves=7
num_cat=0
split_feature=7 7 13 19 12 0
split_gain=1.66918 3.81136 4.42863 2.81814 3.12084 2.4579
threshold=-0.73910556531609273 -1.5534113082122969 -0.56123335949214859 2.9357592167807827 -2.5078301353224535 -1.36048775225729
decision_type=2 2 2 2 2 2
left_child=1 2 -1 5 -5 -2
right_child=3 -3 -4 4 -6 -7
leaf_value=0.058760518040989029 0.061510265665866176 0.073549010824497094 -0.071553845791806278 0.015710911797985012 -0.10181104595362261 -0.0058936641200635692
leaf_weight=4.3115525767207146 5.8394568189978591 8.9599214792251569 5.8105144649744052 3.1148651242256165 5.7717215642333013 51.386775974184275
leaf_count=24 36 51 34 20 34 300
internal_value=0 0.0263713 -0.0139436 -0.00704596 -0.0588411 0.00080137
internal_weight=0 19.082 10.1221 66.1128 8.88659 57.2262
internal_count=499 109 58 390 54 336
is_linear=0
shrinkage=0.1


Tree=98
num_leaves=7
num_cat=0
split_feature=25 2 25 26 7 9
split_gain=1.93845 4.53714 3.08712 2.6872 2.17316 3.68669
threshold=-1.9106335401223153 0.34913872349473957 -1.11687678067606 1.2507971139006306 -0.73910556531609273 -0.36935523542555876
decision_type=2 2 2 2 2 2
left_child=1 -1 3 -2 5 -4
right_child=2 -3 4 -5 -6 -7
leaf_value=-0.098296368451353755 0.090237790153723463 0.017229204352536096 0.074781149967960564 -0.0034389530554667031 -0.013490395667729319 -0.020324416729197801
leaf_weight=5.9345076344907266 7.2827602475881559 6.9862686358392239 8.3202592208981496 4.4588946029543877 44.725774616003036 7.1936443522572509
leaf_count=36 42 39 52 27 265 38
internal_value=0 -0.0348921 0.00688651 0.0534198 -0.00197685 0.0296334
internal_weight=0 12.9208 71.9813 11.7417 60.2397 15.5139
internal_count=499 75 424 69 355 90
is_linear=0
shrinkage=0.1


Tree=99
num_leaves=7
num_cat=0
split_feature=21 0 9 9 0 2
split_gain=1.58383 5.64098 4.0184 3.38676 3.40151 2.32389
threshold=-1.5645646409444065 -1.36048775225729 0.51421729553895756 0.19747530703259322 0.27605285817951558 0.82116387149929471
decision_type=2 2 2 2 2 2
left_child=1 -1 5 4 -3 -2
right_child=2 3 -4 -5 -6 -7
leaf_value=0.094601713954709579 -0.01434822186651181 -0.033699820104966992 0.066015350528094999 -0.08740188488997655 0.049832079494771558 0.050103418771916701
leaf_weight=3.8480357117950907 31.759522575885057 17.63633285090328 10.607015237212179 7.6880919188261023 6.3999329991638652 6.5466227754950514
leaf_count=23 192 105 56 45 41 37
internal_value=0 -0.0155955 0.0120594 -0.0301131 -0.0103696 -0.00259033
internal_weight=0 35.5724 48.9132 31.7244 24.0363 38.3061
internal_count=499 214 285 191 146 229
is_linear=0
shrinkage=0.1


Tree=100
num_leaves=7
num_cat=0
split_feature=20 20 25 0 23 14
split_gain=2.81485 2.75676 2.57601 2.26755 3.24788 3.14638
threshold=-0.95700635234169773 -0.61110955624413144 1.1744780304560125 -0.36826355527306509 -2.135866506295228 -2.6456603987970904
decision_type=2 2 2 2 2 2
left_child=-1 2 -2 5 -5 -3
right_child=1 3 -4 4 -6 -7
leaf_value=-0.025171180222862355 0.089600021130469484 -0.12489050028620047 0 0.091179813755284972 -0.0020673178731786834 -0.0073193519623803967
leaf_weight=32.437300831079483 7.4236058220267278 2.5852577909827223 5.6507295370101929 4.9112880453467396 12.379020430147646 15.625960743054749
leaf_count=189 41 16 31 30 78 97
internal_value=0 0.0127078 0.0516458 -0.00124399 0.0239296 -0.0262889
internal_weight=0 48.5759 13.0743 35.5015 17.2903 18.2112
internal_count=482 293 72 221 108 113
is_linear=0
shrinkage=0.1


Tree=101
num_leaves=7
num_cat=0
split_feature=19 2 19 3 3 4
split_gain=3.70535 2.53787 2.41348 2.44017 3.38248 3.39999
threshold=-1.8554586885229649 -1.1961467433034663 2.0725362506788696 0.95725689541122827 -0.96374174206670304 0.52194234456427824
decision_type=2 2 2 2 2 2
left_child=-1 -2 3 4 -3 -6
right_child=1 2 -4 -5 5 -7
leaf_value=0.065515394577036215 -0.065083403322977282 -0.069565699931469702 0.027325370550674286 -0.055551922528145496 0.04474732050918423 -0.021000813862622814
leaf_weight=7.123591110110282 7.1103565990924826 5.9986304379999593 18.746369313448668 11.057110846042631 15.353717984631663 15.291877891868351
leaf_count=41 41 35 113 62 105 85
internal_value=0 -0.00900434 -0.00251637 -0.0147465 -0.00163558 0.0113308
internal_weight=0 73.5581 66.4477 47.7013 36.6442 30.6456
internal_count=482 441 400 287 225 190
is_linear=0
shrinkage=0.1


Tree=102
num_leaves=7
num_cat=0
split_feature=8 13 21 13 13 22
split_gain=2.85539 2.85903 2.28923 3.2241 2.94887 2.46004
threshold=1.9476573721734807 1.7935130465429152 0.19101172615356338 -0.31799458353844473 -0.42837352771854648 0.21788413059442244
decision_type=2 2 2 2 2 2
left_child=1 2 3 5 -4 -1
right_child=-2 -3 4 -5 -6 -7
leaf_value=-0.050397185986170802 -0.086574691301529214 -0.033418887793039691 0.086089061761534386 0.039270101977061912 0 0.0066660476161463245
leaf_weight=13.092320259660484 3.6095052212476721 17.106180779635906 8.1694793514907378 14.314252406358717 7.9438645094633094 16.183247040957212
leaf_count=99 19 95 44 84 45 96
internal_value=0 0.00206565 0.0126592 0.000212936 0.0446363 -0.0183017
internal_weight=0 76.8093 59.7032 43.5898 16.1133 29.2756
internal_count=482 463 368 279 89 195
is_linear=0
shrinkage=0.1


Tree=103
num_leaves=7
num_cat=0
split_feature=19 22 12 4 19 19
split_gain=3.00539 2.62976 1.95838 3.69184 3.23491 6.14463
threshold=-1.8554586885229649 -2.6049373253920218 -2.530342399931774 -0.51070600521406828 -0.528464667336906 2.0054797171744081
decision_type=2 2 2 2 2 2
left_child=-1 -2 4 -4 -3 -6
right_child=1 2 3 -5 5 -7
leaf_value=0.059342231382550549 -0.093353420973670206 0.075185314167362668 0.033390333081607472 -0.032554271772576575 -0.064628061245852353 0.051641470603380847
leaf_weight=7.076519362628459 3.2653575465083113 7.0334022380411652 10.830806396901606 34.119108304381371 8.5404712390154618 9.2358254715800268
leaf_count=41 21 48 66 200 50 56
internal_value=0 -0.00798852 -0.00344506 -0.0161235 0.0186306 -0.00314174
internal_weight=0 73.025 69.7596 44.9499 24.8097 17.7763
internal_count=482 441 420 266 154 106
is_linear=0
shrinkage=0.1


Tree=104
num_leaves=7
num_cat=0
split_feature=8 20 20 21 1 1
split_gain=2.34692 2.11662 2.33978 2.78562 2.36078 1.81234
threshold=1.9476573721734807 -0.95700635234169773 -0.61110955624413144 0.38641736553961242 -0.58951689584134781 0.15204318015756593
decision_type=2 2 2 2 2 2
left_child=1 -1 -3 4 -4 -6
right_child=-2 2 3 -5 5 -7
leaf_value=-0.017866626299830452 -0.078665247770040386 0.053896268069669587 -0.086073581176776909 0.061493387367920704 0.04665477414954277 -0.015937661950497416
leaf_weight=30.564547896385193 3.5718651264905921 11.846535682678221 3.4773906320333472 6.2541677951812735 6.0203460529446664 17.911890102550387
leaf_count=182 19 67 18 35 33 128
internal_value=0 0.00210007 0.0159891 0.00179617 -0.0113973 0
internal_weight=0 76.0749 45.5103 33.6638 27.4096 23.9322
internal_count=482 463 281 214 179 161
is_linear=0
shrinkage=0.1


Tree=105
num_leaves=7
num_cat=0
split_feature=1 6 1 22 22 21
split_gain=4.97984 2.64286 3.35191 3.05913 3.11659 2.83671
threshold=0.18009853921725497 9.0002251828962567 0.80680532122768234 0.86203454691800718 -1.3548298015146887 0.48887048635457447
decision_type=2 2 2 2 2 2
left_child=-1 2 -2 4 -4 -6
right_child=1 -3 3 -5 5 -7
leaf_value=0.037347804051737397 -0.043319110012229635 -0.077927428832167897 -0.029139861061184536 -0.036525140136789834 0.072355501479774181 -0.020812622321975296
leaf_weight=30.288939919322729 15.518248751759527 5.4851964525878421 5.8314733300358013 8.6973641514778119 14.46210048906506 3.6977588981389991
leaf_count=174 94 37 40 50 85 19
internal_value=0 -0.013123 -0.00503277 0.0126502 0.0314971 0.0522178
internal_weight=0 53.6921 48.2069 32.6887 23.9913 18.1599
internal_count=499 325 288 194 144 104
is_linear=0
shrinkage=0.1


Tree=106
num_leaves=7
num_cat=0
split_feature=9 3 8 13 14 8
split_gain=4.21151 3.04041 4.94827 2.67261 4.30038 2.34503
threshold=-2.9175693443938946 0.39321624591373844 -1.3640880286992585 -0.66614258978598795 -1.4987036049662252 -0.14927590977289448
decision_type=2 2 2 2 2 2
left_child=-1 5 -3 4 -4 -2
right_child=1 2 3 -5 -6 -7
leaf_value=-0.056868538610642186 -0.021470861028662747 0.10811606318483252 0.10842099471895759 -0.032293191572955467 -0.004299809963576237 0.024694507420345936
leaf_weight=9.6332858279347402 27.765659000724554 7.3557093031704452 5.2800215966999566 7.8219555430114243 7.9631414040923119 17.782470747828484
leaf_count=64 169 43 32 41 48 102
internal_value=0 0.0126505 0.0382538 0.0121077 0.039987 -0.00295895
internal_weight=0 73.969 28.4208 21.0651 13.2432 45.5481
internal_count=499 435 164 121 80 271
is_linear=0
shrinkage=0.1


Tree=107
num_leaves=7
num_cat=0
split_feature=1 9 26 26 1 1
split_gain=3.718 2.81567 2.54559 3.18927 2.0755 2.53866
threshold=0.18009853921725497 -2.8289736869845838 -2.1750361536583802 2.2553614818669612 0.80680532122768234 1.0482005029373522
decision_type=2 2 2 2 2 2
left_child=1 -1 -3 -4 -2 -6
right_child=4 2 3 -5 5 -7
leaf_value=-0.061863893117199059 -0.039782119692537483 -0.051866232061749611 0.068055023250653199 -0.022382598797509572 0.062581904824639517 -0.0094461355880129556
leaf_weight=2.5558124035596874 17.489239940419793 2.2640082091093126 20.800035931169987 4.2922085076570502 5.6238125674426547 30.031030885875225
leaf_count=15 108 12 121 26 32 185
internal_value=0 0.0321417 0.0420607 0.0516995 -0.0117162 0.00160335
internal_weight=0 29.9121 27.3563 25.0922 53.1441 35.6548
internal_count=499 174 159 147 325 217
is_linear=0
shrinkage=0.1


Tree=108
num_leaves=7
num_cat=0
split_feature=9 9 7 9 17 26
split_gain=3.22335 2.7658 2.65067 3.21227 3.29408 3.09431
threshold=-2.9175693443938946 -2.6006260675572679 -0.40399872676107601 -1.5398108202822856 -1.2992157931556738 0.60542866846365684
decision_type=2 2 2 2 2 2
left_child=-1 -2 3 -3 -5 -4
right_child=1 2 5 4 -6 -7
leaf_value=-0.050848869872329332 0.052758314567376258 0.10481154780482949 0.0032974681652886968 0.082203283717729864 -0.01643111918957077 -0.058195750235821811
leaf_weight=9.3713586851954442 12.738288272172211 4.3773893937468555 28.206007180735469 4.3508329689502778 12.538833256810898 11.01856307312846
leaf_count=64 74 27 169 24 70 71
internal_value=0 0.01073 0.00139309 0.0299795 0.00838686 -0.0136429
internal_weight=0 73.2299 60.4916 21.2671 16.8897 39.2246
internal_count=499 435 361 121 94 240
is_linear=0
shrinkage=0.1


Tree=109
num_leaves=7
num_cat=0
split_feature=1 9 26 26 6 1
split_gain=2.9068 2.51624 2.16924 2.57422 2.09661 2.25043
threshold=0.18009853921725497 -2.8560673973568687 -2.3528391899203505 2.2553614818669612 9.0002251828962567 0.80680532122768234
decision_type=2 2 2 2 2 2
left_child=1 -1 -3 -4 5 -2
right_child=4 2 3 -5 -6 -7
leaf_value=-0.064307036318326946 -0.035276353573951945 -0.059901655834869054 0.060194457201211929 -0.021263924949729771 -0.069291917332888392 0.01104604350644401
leaf_weight=2.3440028503537205 15.144672747701405 1.774776779115206 21.033404260873795 4.2138761878013602 5.3094482701271764 32.289084875956178
leaf_count=14 94 10 124 26 37 194
internal_value=0 0.0284112 0.0376268 0.0457129 -0.0106457 -0.00338477
internal_weight=0 29.3661 27.0221 25.2473 52.7432 47.4338
internal_count=499 174 160 150 325 288
is_linear=0
shrinkage=0.1


Tree=110
num_leaves=7
num_cat=0
split_feature=17 1 2 17 24 1
split_gain=2.5757 4.40729 3.69593 3.19898 4.27262 5.06247
threshold=1.0614077144898419 -0.59308537943937778 0.15779246275440414 0.42199899327874263 1.0792061155471662 1.0550791635423853
decision_type=2 2 2 2 2 2
left_child=3 -2 -3 4 -1 -6
right_child=1 2 -4 -5 5 -7
leaf_value=-0.030521448764682671 -0.090826715053179033 0.072228892559457608 -0.0061215924619882059 -0.088227212279575543 0.092722857681241694 -0.015605496049548306
leaf_weight=33.361872676759958 2.9050673916935947 12.275628134608271 10.712112102657555 5.7340514101088038 7.2902872562408474 9.4733128957450372
leaf_count=205 17 66 63 35 40 65
internal_value=0 0.0195638 0.035063 -0.0182883 -0.00956138 0.0307829
internal_weight=0 25.8928 22.9877 55.8595 50.1255 16.7636
internal_count=491 146 129 345 310 105
is_linear=0
shrinkage=0.1


Tree=111
num_leaves=7
num_cat=0
split_feature=7 24 15 5 25 24
split_gain=2.05519 2.10254 1.96744 3.38717 2.92799 3.0656
threshold=-1.5534113082122969 -2.5759884445698495 0.024940567009126804 0.67386076430333841 -0.98183524223876517 -0.53146562672413467
decision_type=2 2 2 2 2 2
left_child=1 -1 3 -2 -4 -6
right_child=2 -3 4 -5 5 -7
leaf_value=0.0086229081573530233 -0.032649260182998623 -0.07692333985497446 0.051009927708577277 0.073582835947085909 0.039579635338253441 -0.028970213087205432
leaf_weight=3.976865254342556 24.850326122716073 7.1968666762113553 14.319348677992819 3.1301776170730582 9.8988067470490915 17.971432890743021
leaf_count=23 166 39 81 19 64 99
internal_value=0 -0.0449948 0.000573713 -0.0195949 0.0144748 -0.00376796
internal_weight=0 11.1737 70.1701 27.9805 42.1896 27.8702
internal_count=491 62 429 185 244 163
is_linear=0
shrinkage=0.1


Tree=112
num_leaves=7
num_cat=0
split_feature=2 19 5 14 5 24
split_gain=2.07806 3.60921 2.69638 1.94883 3.95269 5.52106
threshold=0.56573784468355204 -0.6259815890978162 -1.5420362747816871 -0.52216233224914743 0.34499295596884805 -0.59267500401193518
decision_type=2 2 2 2 2 2
left_child=3 2 -2 4 5 -1
right_child=1 -3 -4 -5 -6 -7
leaf_value=0.027346978209206681 0.091067320963180681 -0.063662972996768735 -0.02159349890604894 0.032376739714295881 0.040591799229151938 -0.060584341107872544
leaf_weight=11.046992976218464 3.0587668009102345 13.370928831398485 5.4906783103942889 17.655741319060326 11.907568138092754 18.439430609345436
leaf_count=65 17 84 32 115 70 108
internal_value=0 -0.0312082 0.0174263 0.00453511 -0.00692906 -0.0269682
internal_weight=0 21.9204 8.54945 59.0497 41.394 29.4864
internal_count=491 133 49 358 243 173
is_linear=0
shrinkage=0.1


Tree=113
num_leaves=7
num_cat=0
split_feature=21 7 12 16 4 7
split_gain=1.93893 1.82549 1.86875 2.06625 4.67248 3.61693
threshold=1.5481011992593785 -1.5534113082122969 -0.24915671355337732 0.084568414841660111 0.095320236546469761 0.76289029731054681
decision_type=2 2 2 2 2 2
left_child=1 -1 3 5 -5 -3
right_child=-2 2 -4 4 -6 -7
leaf_value=-0.038672532120945145 -0.075968484434776218 0.046873385391952155 -0.065931854999136272 -0.098043903533891349 0.013486477580372339 -0.0084690288691981197
leaf_weight=10.840135585516689 3.4307102784514418 24.486220002174377 3.2393523454666129 5.1274143978953388 11.896039359271525 21.520206648856401
leaf_count=61 17 153 19 33 67 141
internal_value=0 -0.000772754 0.00520433 0.00938352 -0.019606 0.0206032
internal_weight=0 77.1094 66.2692 63.0299 17.0235 46.0064
internal_count=491 474 413 394 100 294
is_linear=0
